100 100
0.0218839 0.11302 -0.222445 -0.887998 -0.442459 -0.194779 -0.830217 0.907075 -0.639152 -0.738628 -0.778246 0.185734 0.292652 -0.446387 -0.928084 0.40893 -0.703135 0.225516 0.709409 -0.705238 0.625929 0.308292 -0.800282 0.408217 0.720393 0.332031 -0.0868385 -0.288337 0.897034 0.77484 -0.661848 0.817585 -0.0136429 -0.567124 -0.351445 0.189179 -0.574825 -0.220935 0.392301 0.464641 -0.955726 -0.853492 -0.131184 0.889668 0.159472 -0.913558 0.405979 -0.610867 -0.982271 -0.536462 -0.906091 -0.93105 -0.360857 -0.315279 0.227271 0.378679 0.328194 0.03599 -0.170695 0.561773 -0.947871 0.230598 0.948255 -0.964429 0.0900197 -0.676495 0.261836 0.100017 0.311643 0.0596558 0.651713 -0.106226 -0.625945 -0.197265 0.843896 -0.448246 0.632109 -0.731919 0.0711878 0.952997 -0.811473 0.714792 0.831299 0.928426 0.707427 -0.0754347 -0.272968 -0.606324 -0.539686 -0.596697 -0.254509 0.159542 -0.26333 0.840486 -0.937225 0.263093 0.0576171 -0.0721876 0.403769 0.392036 
0.377468 0.996543 0.0739708 -0.514757 -0.551881 0.436067 0.838341 -0.782873 -0.364204 0.0814482 -0.574167 0.589517 -0.972935 -0.573721 -0.452277 -0.764935 0.0461227 0.948187 -0.375218 0.638258 -0.793902 -0.917723 0.557217 0.438097 -0.793702 0.129344 -0.238315 -0.138751 -0.199936 0.454077 -0.161597 -0.233707 0.203396 0.136672 0.284473 0.658495 -0.261132 -0.458081 0.398734 -0.807784 -0.200134 0.218307 -0.413086 -0.137381 -0.101947 -0.834949 0.300198 -0.33129 0.516439 0.0344345 -0.972283 -0.324651 0.57197 0.83454 0.213045 -0.658816 -0.884087 0.194695 0.37011 0.349532 0.815521 0.918391 0.730402 -0.994004 -0.847795 -0.319081 -0.731715 -0.50732 -0.661096 -0.0991295 0.334423 0.954714 0.424941 -0.897185 -0.983743 -0.723535 0.849968 0.858658 -0.0822083 -0.332464 -0.634359 -0.841339 0.0280123 -0.0107264 -0.620133 0.915247 0.17988 0.485857 -0.732096 0.181036 0.623744 0.745712 -0.106913 0.783721 0.830975 -0.251293 0.52583 -0.438172 0.0937565 -0.814137 
-0.993519 0.349667 -0.163615 -0.133872 0.334693 -0.511125 -0.868563 -0.310783 0.507965 0.531119 0.47457 0.10152 0.319859 -0.741933 -0.824571 -0.0738867 -0.733916 0.377234 0.220809 -0.297165 -0.452175 0.0537386 0.4413 0.395093 0.0223363 -0.656427 0.806108 -0.604215 0.754035 -0.963828 -0.693962 0.201967 0.197262 0.754619 -0.518799 0.270513 0.869834 -0.639496 0.0775674 -0.086789 -0.639297 0.647951 -0.979966 0.830704 -0.516621 -0.62872 0.367297 -0.579791 -0.398743 -0.107523 -0.707095 0.886834 -0.194061 0.514776 0.677135 -0.650948 0.195025 0.856796 0.0437102 0.236115 -0.0745859 -0.733476 0.105842 -0.226633 0.315474 0.949317 -0.341369 -0.906299 -0.313481 0.780751 0.274155 -0.213653 -0.791074 -0.796085 -0.726153 0.62645 0.900478 0.164489 0.0408487 -0.786154 -0.308751 0.849793 -0.226573 0.251446 -0.920138 -0.134786 -0.164802 0.47699 -0.68973 0.912958 0.491685 0.0316858 -0.66285 0.0346974 0.632113 -0.0824444 0.872464 0.273979 0.915795 -0.465175 
0.901561 -0.0450756 0.0293827 -0.631691 -0.313166 0.611734 -0.264917 0.968562 -0.606443 -0.452971 -0.73001 0.874719 -0.437669 0.340058 0.226176 0.891149 -0.161116 -0.78523 -0.672495 0.139768 0.922183 0.232333 -0.271524 0.355294 -0.287118 0.841968 -0.72368 0.89226 0.235689 -0.930078 -0.471445 -0.351895 -0.647635 0.971505 0.73812 -0.989291 0.149699 0.59116 0.694985 0.856943 -0.144257 -0.213458 0.257121 0.303986 -0.121198 0.589116 -0.514032 -0.136223 0.518283 0.253383 -0.05832 0.790826 0.305345 0.839099 -0.257869 0.787408 0.782297 0.0100262 -0.965205 0.16204 -0.802952 -0.439935 -0.74216 0.97007 -0.292667 0.44958 -0.962034 0.363377 0.413023 0.0363863 0.549651 0.478432 -0.778046 -0.619863 -0.526924 -0.179719 0.108806 0.0815099 0.981685 0.841444 0.796577 0.215201 -0.54936 0.312638 0.172693 0.343469 0.956417 -0.569102 0.98953 0.408903 -0.387497 0.329144 -0.598329 0.0711679 0.433771 0.917118 0.198457 0.2943 -0.279795 -0.321672 
-0.161778 -0.537848 0.697922 0.723177 0.58489 -0.122803 0.165062 0.0550118 -0.594562 0.594378 0.271925 -0.746873 -0.602231 0.694883 0.969533 -0.431705 0.203577 0.680601 0.650919 -0.618943 -0.856499 0.101554 0.334443 -0.102909 -0.351236 -0.406929 -0.507627 0.0926881 -0.785714 -0.907832 -0.359223 -0.507097 -0.336773 0.802891 -0.426316 -0.830826 0.639355 0.184559 -0.39914 0.179248 0.0144003 0.369675 -0.0185455 -0.419397 0.174739 0.350301 -0.510913 0.58338 -0.723481 -0.597372 0.986007 -0.347994 -0.45483 -0.321781 0.0745045 -0.829429 -0.872308 0.555494 0.970316 0.152978 0.789942 0.733511 -0.555941 0.554627 -0.887028 0.516813 0.639064 -0.16811 0.332133 0.128929 0.557984 -0.728183 -0.155065 0.52368 -0.571577 0.00838079 0.428507 0.0360921 0.0367806 0.36702 -0.624828 0.685854 0.16239 0.014752 -0.57957 -0.874541 -0.760165 -0.304939 0.943718 -0.177026 0.551911 0.556029 0.594579 0.920332 0.261825 0.135701 -0.567592 0.835718 0.736186 0.481519 
-0.254293 0.836748 0.0826922 0.542363 0.126901 0.655382 0.964808 -0.987167 -0.48524 0.414552 -0.864708 -0.149975 -0.319329 0.661383 0.635368 -0.491663 0.0528149 -0.183539 -0.955401 -0.548265 0.172961 -0.814162 -0.0582038 -0.921218 -0.595627 -0.654957 0.225286 0.33025 0.618153 0.649329 0.0205625 -0.638732 0.305778 -0.135783 -0.15224 -0.521234 0.134527 0.150426 -0.926739 -0.180812 0.0306819 -0.680412 -0.440461 0.332506 0.562729 0.186307 0.388625 0.850956 -0.947797 -0.194452 0.398177 0.890939 0.208188 0.261704 0.404997 0.99802 0.649773 -0.460807 0.420145 0.503211 0.95513 0.00465682 0.131575 0.309443 -0.220365 -0.900975 -0.190378 0.856081 0.598409 -0.973264 0.118706 -0.191912 -0.502779 -0.45554 0.287142 -0.868632 0.557808 -0.148105 0.325217 0.744187 -0.147237 -0.980752 -0.00778286 -0.744544 0.656065 -0.376216 0.607642 -0.0497441 -0.30303 -0.806004 0.406357 -0.455029 -0.61265 0.142092 -0.111449 0.311496 -0.931691 0.974397 0.638038 0.387854 
-0.243291 -0.149033 -0.681645 -0.807285 0.236259 0.506345 -0.791421 -0.504588 0.0393311 -0.828088 0.587981 0.570842 0.285074 -0.0423508 0.697197 -0.136964 -0.279586 -0.510203 -0.926432 0.0799212 -0.430498 -0.885904 -0.304009 0.0585178 0.55318 -0.0995163 -0.329224 -0.153184 0.951957 -0.657414 -0.227571 -0.758376 -0.260708 -0.613991 -0.0557168 0.432379 -0.971228 -0.46753 0.452544 0.509585 0.464366 0.184746 0.713003 0.469995 9.74701e-05 -0.952348 0.437434 -0.897425 -0.0506743 0.214425 0.0212879 0.393145 0.516845 0.760071 -0.134593 0.591328 0.735233 -0.159331 -0.221459 -0.969927 -0.702214 -0.447051 -0.591021 0.767266 0.606791 -0.796341 -0.755157 -0.993177 -0.259258 -0.501423 -0.562746 -0.1259 0.857586 0.461474 0.541937 0.391842 -0.739968 -0.135879 0.718329 -0.0181737 0.428076 0.737851 0.583309 0.584194 0.639509 -0.975586 -0.741452 -0.812819 0.717501 0.683586 0.856531 -0.789877 0.866199 -0.204668 -0.401274 0.161179 -0.517149 0.0536499 -0.899451 -0.852938 
0.984625 0.624026 0.769712 0.882735 0.723823 0.345362 -0.00848297 -0.269757 -0.000948998 0.309826 -0.652316 0.645826 0.820349 0.525696 0.631119 -0.0116526 0.871363 0.753252 -0.861343 0.678996 -0.343212 0.325405 0.804952 -0.976101 -0.630683 0.985167 -0.274663 0.581538 -0.323337 -0.00960901 -0.133158 0.710083 0.934997 -0.419538 -0.164152 -0.703009 -0.441094 0.767202 -0.0408182 -0.733124 0.577407 -0.70923 -0.61426 0.985899 -0.593077 -0.566855 0.348111 0.628926 0.354162 0.807674 -0.369255 0.457195 0.241952 0.20263 0.627343 0.919275 -0.0502996 -0.324332 0.741174 -0.373806 -0.85617 -0.966359 -0.400268 -0.601233 0.09329 -0.927327 0.387521 -0.259597 -0.0801289 0.589673 0.0612212 -0.710225 -0.598128 0.597951 0.794533 0.0033714 -0.0442902 -0.261488 -0.73091 0.679214 -0.494299 -0.120935 -0.771164 -0.0574686 0.979615 0.372795 -0.495893 -0.270324 -0.711399 0.310713 0.395732 0.303695 0.843691 -0.270066 -0.692798 0.043911 -0.659397 -0.231938 0.787607 0.871619 
-0.817177 0.913639 -0.154127 0.902895 0.97873 -0.311252 0.42104 0.577742 -0.625487 0.775337 -0.252161 0.316287 -0.782564 -0.266307 -0.794666 -0.996174 0.858463 -0.491365 0.927225 0.687717 -0.143452 -0.627922 -0.377704 -0.0101312 0.532772 0.53783 -0.44377 -0.276631 0.854401 0.789401 -0.00544298 -0.06505 0.185022 -0.889287 0.164661 -0.203477 -0.90986 0.0910622 0.88722 0.376154 0.647332 0.421048 -0.250449 -0.857238 -0.337836 0.686749 0.767551 0.482473 0.941798 0.198379 0.982973 0.389444 -0.863088 0.266704 -0.463181 0.951967 -0.528935 0.0767745 -0.965473 0.38104 -0.268141 0.679034 -0.15364 -0.0357086 -0.817925 0.124358 -0.348174 0.456477 0.137607 -0.824832 0.839632 -0.211519 -0.984961 -0.953733 -0.858273 0.483023 0.15281 -0.941576 -0.822201 -0.25438 0.0766373 -0.153946 -0.804998 0.249405 -0.828167 0.229257 -0.811711 -0.237004 -0.731617 -0.232752 0.398182 -0.87966 0.792937 -0.712037 -0.453625 -0.932007 0.332973 0.551134 -0.764398 0.607118 
-0.50037 0.783875 0.764689 0.820278 0.703313 0.189515 -0.23588 0.788195 -0.893499 0.649875 -0.507164 0.373743 -0.975546 0.390627 -0.0379236 0.993367 -0.868256 0.535914 -0.553914 0.00585689 -0.301419 -0.325923 0.0374988 -8.23227e-05 0.914324 0.622995 -0.731086 0.264218 -0.887552 0.136191 -0.904435 0.637158 -0.654673 -0.611004 -0.568781 -0.886369 -0.175297 0.586315 0.312168 -0.924281 -0.737158 0.442578 0.0428058 0.023494 -0.580729 -0.277901 0.537782 -0.379719 -0.851104 0.046477 0.317539 -0.273098 -0.158607 0.679034 -0.178391 0.496828 0.537403 -0.0481256 0.220889 0.308782 0.068554 -0.883848 0.351979 0.168872 -0.0519225 -0.900837 0.535121 -0.680034 0.124436 0.319016 -0.030791 0.171455 0.441056 -0.502114 -0.881365 -0.018464 -0.00547723 0.106696 0.15069 0.817689 0.517379 0.343737 -0.822981 -0.0252414 0.60867 0.122215 -0.43035 0.298936 0.682488 0.190452 -0.892486 0.847698 0.955289 -0.394239 0.82018 0.363593 -0.461095 -0.328671 0.242067 -0.0860803 
-0.991539 -0.910481 0.96418 -0.653863 -0.792512 0.23508 0.355448 -0.673801 -0.742676 -0.458784 -0.523784 0.234242 -0.0929068 -0.523758 0.265004 -0.483907 -0.42697 0.784756 -0.695219 0.983208 -0.0570337 -0.537777 -0.698431 0.778071 -0.423397 0.520402 -0.597349 0.782651 0.148691 0.593043 -0.821501 -0.755182 0.466133 -0.884458 -0.416557 -0.868422 -0.452542 -0.702505 0.834677 0.330977 -0.2377 -0.451389 0.734041 0.588047 0.481741 -0.644434 0.978422 -0.886467 0.836946 0.819033 -0.588561 -0.940578 0.0182273 -0.553665 -0.822377 -0.628019 -0.290668 0.351983 0.693003 -0.577851 0.880808 0.530032 -0.192588 0.0626265 0.0150888 -0.694891 -0.680812 -0.771438 -0.578461 -0.259757 -0.71076 0.238558 -0.889221 0.22638 -0.673443 0.0320745 -0.792965 0.201938 -0.308328 0.695075 0.865862 -0.180094 -0.170126 -0.90928 -0.332977 -0.15488 -0.161534 0.0224544 0.285453 -0.980403 -0.0147576 0.505724 0.158107 0.878089 0.951918 0.204787 0.810804 -0.453213 0.478406 -0.32447 
2.27377e+119 1.14356e+120 -1.99244e+120 2.43732e+120 3.86203e+119 2.69291e+119 -6.20423e+119 -4.33433e+120 1.0652e+120 2.01018e+120 1.69294e+120 -6.76041e+119 9.94611e+119 -1.06561e+119 -7.6805e+119 4.40476e+119 2.67234e+120 -2.18852e+120 2.53146e+120 -3.28197e+119 3.32715e+120 -1.05364e+120 -1.07718e+120 -6.81709e+119 -1.49225e+120 2.61868e+120 1.46713e+120 8.7247e+119 -6.24536e+119 -5.47161e+119 -4.53974e+119 -1.91779e+120 -1.712e+120 1.68036e+119 -4.67068e+118 5.13524e+119 -1.55362e+120 -7.2235e+119 6.86049e+119 1.64981e+125 -4.18305e+124 1.27673e+125 9.59727e+124 -1.01635e+125 2.10089e+124 -6.65137e+124 3.34781e+124 1.22815e+125 9.24756e+124 2.17971e+120 -1.44717e+125 -2.85081e+124 -3.1617e+125 -9.53724e+123 -8.4132e+124 1.06762e+125 -8.97623e+124 -2.44762e+125 -1.66724e+125 -1.49428e+125 3.68699e+118 -7.67945e+119 -1.20827e+120 5.21517e+119 2.25455e+117 1.29403e+120 -1.78992e+120 -1.19271e+120 1.56872e+118 2.89246e+119 -1.51075e+120 -1.41213e+120 1.9627e+120 2.31455e+119 -6.65473e+119 2.22995e+120 9.69599e+119 1.32944e+120 4.67069e+119 2.05294e+120 -4.74065e+119 -4.01719e+119 2.79826e+120 -3.37335e+119 -9.67858e+119 6.04262e+119 7.27753e+119 2.08366e+120 5.9696e+119 -2.55705e+119 5.88841e+119 -3.11501e+119 1.22724e+120 2.48302e+120 -7.06542e+119 -2.15403e+120 9.87679e+119 -1.82845e+120 -3.12457e+119 -9.58841e+119 
6.78075e+119 3.41027e+120 -5.94179e+120 7.2685e+120 1.15172e+120 8.0307e+119 -1.8502e+120 -1.29257e+121 3.1766e+120 5.99468e+120 5.04864e+120 -2.01606e+120 2.96609e+120 -3.17783e+119 -2.29045e+120 1.31357e+120 7.96937e+120 -6.52652e+120 7.54922e+120 -9.78737e+119 9.92212e+120 -3.14214e+120 -3.21234e+120 -2.03297e+120 -4.45015e+120 7.80934e+120 4.37522e+120 2.60185e+120 -1.86247e+120 -1.63172e+120 -1.35383e+120 -5.71917e+120 -5.10546e+120 5.01112e+119 -1.39287e+119 1.53141e+120 -4.63314e+120 -2.15417e+120 2.04591e+120 4.92e+125 -1.24745e+125 3.80743e+125 2.86206e+125 -3.03092e+125 6.2652e+124 -1.98355e+125 9.98373e+124 3.66255e+125 2.75777e+125 6.50027e+120 -4.3157e+125 -8.50159e+124 -9.4287e+125 -2.84416e+124 -2.50896e+125 3.18382e+125 -2.67686e+125 -7.2992e+125 -4.97199e+125 -4.45619e+125 1.09952e+119 -2.29014e+120 -3.60325e+120 1.55525e+120 6.72345e+117 3.85902e+120 -5.33783e+120 -3.55687e+120 4.67817e+118 8.62579e+119 -4.50531e+120 -4.21119e+120 5.85308e+120 6.90238e+119 -1.98455e+120 6.65008e+120 2.8915e+120 3.9646e+120 1.39288e+120 6.12222e+120 -1.41374e+120 -1.19799e+120 8.34487e+120 -1.00599e+120 -2.88631e+120 1.80201e+120 2.17028e+120 6.21381e+120 1.78023e+120 -7.62556e+119 1.75602e+120 -9.28946e+119 3.65984e+120 7.40477e+120 -2.10702e+120 -6.42368e+120 2.94542e+120 -5.45274e+120 -9.31798e+119 -2.85942e+120 
1.10835e+120 5.57426e+120 -9.71214e+120 1.18807e+121 1.88254e+120 1.31266e+120 -3.02425e+120 -2.11277e+121 5.19231e+120 9.79859e+120 8.25224e+120 -3.29536e+120 4.84823e+120 -5.19431e+119 -3.74385e+120 2.1471e+120 1.30263e+121 -1.06679e+121 1.23396e+121 -1.59979e+120 1.62182e+121 -5.13599e+120 -5.25073e+120 -3.32299e+120 -7.27398e+120 1.27647e+121 7.15152e+120 4.25285e+120 -3.0443e+120 -2.66713e+120 -2.21289e+120 -9.34826e+120 -8.34513e+120 8.19093e+119 -2.27672e+119 2.50317e+120 -7.5731e+120 -3.52109e+120 3.34414e+120 8.04198e+125 -2.03903e+125 6.22343e+125 4.67818e+125 -4.95419e+125 1.02408e+125 -3.24221e+125 1.63189e+125 5.98661e+125 4.50772e+125 1.0625e+121 -7.05423e+125 -1.38963e+125 -1.54117e+126 -4.64892e+124 -4.10101e+125 5.20412e+125 -4.37546e+125 -1.19309e+126 -8.12696e+125 -7.28385e+125 1.79722e+119 -3.74334e+120 -5.88969e+120 2.54213e+120 1.09898e+118 6.30775e+120 -8.72494e+120 -5.81388e+120 7.6467e+118 1.40993e+120 -7.36415e+120 -6.8834e+120 9.56715e+120 1.12823e+120 -3.24384e+120 1.08699e+121 4.7263e+120 6.48033e+120 2.27672e+120 1.00071e+121 -2.31083e+120 -1.95818e+120 1.36401e+121 -1.64434e+120 -4.71782e+120 2.94547e+120 3.54742e+120 1.01568e+121 2.90988e+120 -1.24643e+120 2.8703e+120 -1.51841e+120 5.98218e+120 1.21035e+121 -3.44403e+120 -1.04998e+121 4.81443e+120 -8.91277e+120 -1.52307e+120 -4.67386e+120 
1.50238e+120 7.55601e+120 -1.3165e+121 1.61045e+121 2.55182e+120 1.77933e+120 -4.09942e+120 -2.8639e+121 7.03827e+120 1.32822e+121 1.11861e+121 -4.46692e+120 6.57186e+120 -7.04099e+119 -5.07486e+120 2.91043e+120 1.76574e+121 -1.44605e+121 1.67265e+121 -2.16855e+120 2.19841e+121 -6.96192e+120 -7.11746e+120 -4.50437e+120 -9.86002e+120 1.73028e+121 9.69402e+120 5.76482e+120 -4.1266e+120 -3.61535e+120 -2.99962e+120 -1.26717e+121 -1.1312e+121 1.1103e+120 -3.08614e+119 3.39309e+120 -1.02655e+121 -4.77291e+120 4.53305e+120 1.09011e+126 -2.76394e+125 8.43598e+125 6.34136e+125 -6.71549e+125 1.38816e+125 -4.39487e+125 2.21206e+125 8.11496e+125 6.11029e+125 1.44024e+121 -9.56214e+125 -1.88366e+125 -2.08908e+126 -6.3017e+124 -5.559e+125 7.05428e+125 -5.93101e+125 -1.61726e+126 -1.10162e+126 -9.8734e+125 2.43616e+119 -5.07417e+120 -7.98359e+120 3.4459e+120 1.48969e+118 8.55028e+120 -1.18268e+121 -7.88082e+120 1.03652e+119 1.91118e+120 -9.98225e+120 -9.33058e+120 1.29685e+121 1.52933e+120 -4.39709e+120 1.47343e+121 6.40659e+120 8.78421e+120 3.08614e+120 1.35648e+121 -3.13237e+120 -2.65435e+120 1.84894e+121 -2.22893e+120 -6.39509e+120 3.99264e+120 4.8086e+120 1.37677e+121 3.94439e+120 -1.68957e+120 3.89075e+120 -2.05823e+120 8.10896e+120 1.64065e+121 -4.66845e+120 -1.42327e+121 6.52606e+120 -1.20814e+121 -2.06455e+120 -6.33551e+120 
1.84812e+120 9.29486e+120 -1.61946e+121 1.98106e+121 3.13906e+120 2.1888e+120 -5.04281e+120 -3.52296e+121 8.65797e+120 1.63388e+121 1.37603e+121 -5.49487e+120 8.08422e+120 -8.66131e+119 -6.24273e+120 3.5802e+120 2.17209e+121 -1.77883e+121 2.05757e+121 -2.66759e+120 2.70432e+121 -8.56405e+120 -8.75538e+120 -5.54095e+120 -1.21291e+121 2.12847e+121 1.19249e+121 7.09146e+120 -5.07624e+120 -4.44734e+120 -3.68991e+120 -1.55879e+121 -1.39152e+121 1.3658e+120 -3.79634e+119 4.17394e+120 -1.26278e+121 -5.87128e+120 5.57622e+120 1.34097e+126 -3.39999e+125 1.03773e+126 7.80068e+125 -8.26091e+125 1.70761e+125 -5.40625e+125 2.72111e+125 9.98244e+125 7.51644e+125 1.77168e+121 -1.17626e+126 -2.31715e+125 -2.56983e+126 -7.75189e+124 -6.83827e+125 8.67766e+125 -7.2959e+125 -1.98943e+126 -1.35514e+126 -1.21455e+126 2.99679e+119 -6.24188e+120 -9.82083e+120 4.2389e+120 1.83251e+118 1.05179e+121 -1.45485e+121 -9.69442e+120 1.27506e+119 2.351e+120 -1.22794e+121 -1.14778e+121 1.59528e+121 1.88128e+120 -5.40898e+120 1.81251e+121 7.88093e+120 1.08057e+121 3.79635e+120 1.66864e+121 -3.85321e+120 -3.26518e+120 2.27443e+121 -2.74187e+120 -7.86678e+120 4.91146e+120 5.91519e+120 1.6936e+121 4.8521e+120 -2.07838e+120 4.78612e+120 -2.53188e+120 9.97505e+120 2.0182e+121 -5.74279e+120 -1.7508e+121 8.02788e+120 -1.48617e+121 -2.53966e+120 -7.79348e+120 
2.13816e+120 1.07536e+121 -1.87361e+121 2.29197e+121 3.6317e+120 2.53231e+120 -5.83422e+120 -4.07584e+121 1.00167e+121 1.89029e+121 1.59198e+121 -6.35722e+120 9.35294e+120 -1.00206e+120 -7.22244e+120 4.14207e+120 2.51297e+121 -2.058e+121 2.38048e+121 -3.08624e+120 3.12873e+121 -9.90807e+120 -1.01294e+121 -6.41053e+120 -1.40326e+121 2.46251e+121 1.37963e+121 8.20437e+120 -5.87289e+120 -5.14529e+120 -4.269e+120 -1.80342e+121 -1.6099e+121 1.58015e+120 -4.39213e+119 4.82898e+120 -1.46096e+121 -6.7927e+120 6.45134e+120 1.55142e+126 -3.93358e+125 1.20059e+126 9.0249e+125 -9.55735e+125 1.9756e+125 -6.2547e+125 3.14815e+125 1.15491e+126 8.69605e+125 2.04972e+121 -1.36086e+126 -2.68079e+125 -2.97314e+126 -8.96845e+124 -7.91145e+125 1.00395e+126 -8.4409e+125 -2.30165e+126 -1.56781e+126 -1.40516e+126 3.4671e+119 -7.22146e+120 -1.13621e+121 4.90414e+120 2.12009e+118 1.21686e+121 -1.68317e+121 -1.12158e+121 1.47516e+119 2.71996e+120 -1.42065e+121 -1.32791e+121 1.84564e+121 2.17652e+120 -6.25785e+120 2.09696e+121 9.11774e+120 1.25015e+121 4.39213e+120 1.93051e+121 -4.45793e+120 -3.77761e+120 2.63137e+121 -3.17217e+120 -9.10137e+120 5.68225e+120 6.8435e+120 1.95939e+121 5.61358e+120 -2.40456e+120 5.53724e+120 -2.92923e+120 1.15405e+121 2.33494e+121 -6.64404e+120 -2.02557e+121 9.28775e+120 -1.7194e+121 -2.93822e+120 -9.01657e+120 
2.36975e+120 1.19183e+121 -2.07655e+121 2.54022e+121 4.02506e+120 2.80659e+120 -6.46614e+120 -4.51731e+121 1.11017e+121 2.09504e+121 1.76441e+121 -7.0458e+120 1.0366e+121 -1.1106e+120 -8.00473e+120 4.59071e+120 2.78516e+121 -2.2809e+121 2.63832e+121 -3.42052e+120 3.46761e+121 -1.09812e+121 -1.12266e+121 -7.10487e+120 -1.55525e+121 2.72923e+121 1.52907e+121 9.09302e+120 -6.50901e+120 -5.70259e+120 -4.73139e+120 -1.99875e+121 -1.78427e+121 1.7513e+120 -4.86786e+119 5.35202e+120 -1.6192e+121 -7.52844e+120 7.15011e+120 1.71946e+126 -4.35964e+125 1.33063e+126 1.00024e+126 -1.05925e+126 2.18958e+125 -6.93216e+125 3.48914e+125 1.28e+126 9.63794e+125 2.27173e+121 -1.50826e+126 -2.97116e+125 -3.29517e+126 -9.93985e+124 -8.76837e+125 1.11269e+126 -9.35516e+125 -2.55095e+126 -1.73762e+126 -1.55736e+126 3.84263e+119 -8.00364e+120 -1.25927e+121 5.43532e+120 2.34973e+118 1.34866e+121 -1.86548e+121 -1.24307e+121 1.63494e+119 3.01457e+120 -1.57453e+121 -1.47174e+121 2.04555e+121 2.41226e+120 -6.93566e+120 2.32409e+121 1.01053e+121 1.38556e+121 4.86786e+120 2.13961e+121 -4.94078e+120 -4.18678e+120 2.91639e+121 -3.51576e+120 -1.00872e+121 6.29771e+120 7.58475e+120 2.17162e+121 6.2216e+120 -2.665e+120 6.13699e+120 -3.24651e+120 1.27905e+121 2.58784e+121 -7.36368e+120 -2.24496e+121 1.02937e+121 -1.90564e+121 -3.25647e+120 -9.99318e+120 
2.54393e+120 1.27943e+121 -2.22918e+121 2.72692e+121 4.3209e+120 3.01287e+120 -6.94139e+120 -4.84932e+121 1.19176e+121 2.24902e+121 1.89409e+121 -7.56366e+120 1.11279e+121 -1.19222e+120 -8.59307e+120 4.92812e+120 2.98986e+121 -2.44855e+121 2.83224e+121 -3.67192e+120 3.72248e+121 -1.17884e+121 -1.20517e+121 -7.62708e+120 -1.66956e+121 2.92982e+121 1.64145e+121 9.76134e+120 -6.98741e+120 -6.12173e+120 -5.07914e+120 -2.14566e+121 -1.91541e+121 1.88002e+120 -5.22564e+119 5.74539e+120 -1.73821e+121 -8.08178e+120 7.67563e+120 1.84583e+126 -4.68007e+125 1.42843e+126 1.07376e+126 -1.13711e+126 2.35051e+125 -7.44167e+125 3.74559e+125 1.37408e+126 1.03463e+126 2.4387e+121 -1.61912e+126 -3.18954e+125 -3.53736e+126 -1.06704e+125 -9.41283e+125 1.19447e+126 -1.00428e+126 -2.73844e+126 -1.86534e+126 -1.67182e+126 4.12506e+119 -8.5919e+120 -1.35183e+121 5.83481e+120 2.52243e+118 1.44779e+121 -2.00259e+121 -1.33443e+121 1.75511e+119 3.23613e+120 -1.69025e+121 -1.57991e+121 2.1959e+121 2.58956e+120 -7.44543e+120 2.4949e+121 1.0848e+121 1.4874e+121 5.22564e+120 2.29687e+121 -5.30392e+120 -4.4945e+120 3.13074e+121 -3.77416e+120 -1.08286e+121 6.76059e+120 8.14222e+120 2.33123e+121 6.67888e+120 -2.86088e+120 6.58806e+120 -3.48512e+120 1.37306e+121 2.77804e+121 -7.90491e+120 -2.40997e+121 1.10503e+121 -2.0457e+121 -3.49582e+120 -1.07277e+121 
2.66403e+120 1.33983e+121 -2.33441e+121 2.85566e+121 4.52489e+120 3.15511e+120 -7.2691e+120 -5.07826e+121 1.24803e+121 2.3552e+121 1.98351e+121 -7.92073e+120 1.16532e+121 -1.24851e+120 -8.99874e+120 5.16078e+120 3.13101e+121 -2.56414e+121 2.96594e+121 -3.84527e+120 3.89821e+121 -1.23449e+121 -1.26207e+121 -7.98715e+120 -1.74838e+121 3.06814e+121 1.71894e+121 1.02222e+121 -7.31729e+120 -6.41073e+120 -5.31892e+120 -2.24695e+121 -2.00584e+121 1.96878e+120 -5.47234e+119 6.01663e+120 -1.82027e+121 -8.46331e+120 8.038e+120 1.93297e+126 -4.90101e+125 1.49587e+126 1.12445e+126 -1.19079e+126 2.46148e+125 -7.79299e+125 3.92242e+125 1.43894e+126 1.08348e+126 2.55383e+121 -1.69556e+126 -3.34011e+125 -3.70436e+126 -1.11742e+125 -9.85721e+125 1.25086e+126 -1.05169e+126 -2.86772e+126 -1.9534e+126 -1.75075e+126 4.3198e+119 -8.99752e+120 -1.41565e+121 6.11027e+120 2.64151e+118 1.51614e+121 -2.09713e+121 -1.39743e+121 1.83796e+119 3.38891e+120 -1.77005e+121 -1.6545e+121 2.29957e+121 2.71182e+120 -7.79692e+120 2.61269e+121 1.13602e+121 1.55762e+121 5.47234e+120 2.4053e+121 -5.55432e+120 -4.70668e+120 3.27854e+121 -3.95234e+120 -1.13398e+121 7.07975e+120 8.52661e+120 2.44129e+121 6.99419e+120 -2.99594e+120 6.89908e+120 -3.64965e+120 1.43788e+121 2.90919e+121 -8.27809e+120 -2.52374e+121 1.1572e+121 -2.14228e+121 -3.66086e+120 -1.12341e+121 
2.73401e+120 1.37503e+121 -2.39574e+121 2.93068e+121 4.64376e+120 3.238e+120 -7.46006e+120 -5.21167e+121 1.28081e+121 2.41707e+121 2.03562e+121 -8.12882e+120 1.19594e+121 -1.28131e+120 -9.23515e+120 5.29636e+120 3.21327e+121 -2.63151e+121 3.04386e+121 -3.94629e+120 4.00062e+121 -1.26692e+121 -1.29522e+121 -8.19697e+120 -1.79431e+121 3.14874e+121 1.7641e+121 1.04907e+121 -7.50951e+120 -6.57915e+120 -5.45865e+120 -2.30598e+121 -2.05853e+121 2.0205e+120 -5.6161e+119 6.17469e+120 -1.86809e+121 -8.68565e+120 8.24916e+120 1.98375e+126 -5.02976e+125 1.53516e+126 1.15399e+126 -1.22207e+126 2.52614e+125 -7.99771e+125 4.02546e+125 1.47675e+126 1.11194e+126 2.62092e+121 -1.7401e+126 -3.42786e+125 -3.80167e+126 -1.14677e+125 -1.01162e+126 1.28372e+126 -1.07932e+126 -2.94305e+126 -2.00472e+126 -1.79674e+126 4.43329e+119 -9.23389e+120 -1.45284e+121 6.27079e+120 2.71091e+118 1.55597e+121 -2.15222e+121 -1.43414e+121 1.88625e+119 3.47794e+120 -1.81655e+121 -1.69796e+121 2.35998e+121 2.78306e+120 -8.00175e+120 2.68132e+121 1.16586e+121 1.59854e+121 5.61611e+120 2.46849e+121 -5.70023e+120 -4.83033e+120 3.36467e+121 -4.05617e+120 -1.16377e+121 7.26574e+120 8.75061e+120 2.50542e+121 7.17793e+120 -3.07464e+120 7.08032e+120 -3.74553e+120 1.47565e+121 2.98562e+121 -8.49556e+120 -2.59004e+121 1.1876e+121 -2.19856e+121 -3.75703e+120 -1.15292e+121 
2.75696e+120 1.38657e+121 -2.41585e+121 2.95527e+121 4.68273e+120 3.26517e+120 -7.52267e+120 -5.25541e+121 1.29156e+121 2.43735e+121 2.05271e+121 -8.19704e+120 1.20597e+121 -1.29206e+120 -9.31266e+120 5.34081e+120 3.24023e+121 -2.65359e+121 3.06941e+121 -3.97941e+120 4.0342e+121 -1.27755e+121 -1.30609e+121 -8.26577e+120 -1.80937e+121 3.17517e+121 1.77891e+121 1.05788e+121 -7.57254e+120 -6.63437e+120 -5.50447e+120 -2.32534e+121 -2.07581e+121 2.03745e+120 -5.66324e+119 6.22651e+120 -1.88377e+121 -8.75855e+120 8.31839e+120 2.0004e+126 -5.07198e+125 1.54805e+126 1.16368e+126 -1.23233e+126 2.54735e+125 -8.06484e+125 4.05925e+125 1.48914e+126 1.12127e+126 2.64292e+121 -1.75471e+126 -3.45663e+125 -3.83358e+126 -1.1564e+125 -1.02011e+126 1.2945e+126 -1.08837e+126 -2.96776e+126 -2.02154e+126 -1.81182e+126 4.4705e+119 -9.31139e+120 -1.46503e+121 6.32342e+120 2.73366e+118 1.56902e+121 -2.17029e+121 -1.44617e+121 1.90208e+119 3.50713e+120 -1.8318e+121 -1.71221e+121 2.37978e+121 2.80641e+120 -8.06891e+120 2.70383e+121 1.17565e+121 1.61195e+121 5.66324e+120 2.48921e+121 -5.74807e+120 -4.87087e+120 3.39291e+121 -4.09021e+120 -1.17353e+121 7.32672e+120 8.82405e+120 2.52645e+121 7.23818e+120 -3.10045e+120 7.13974e+120 -3.77697e+120 1.48804e+121 3.01068e+121 -8.56687e+120 -2.61178e+121 1.19757e+121 -2.21701e+121 -3.78856e+120 -1.1626e+121 
2.73401e+120 1.37503e+121 -2.39574e+121 2.93068e+121 4.64376e+120 3.238e+120 -7.46006e+120 -5.21167e+121 1.28081e+121 2.41707e+121 2.03562e+121 -8.12882e+120 1.19594e+121 -1.28131e+120 -9.23515e+120 5.29636e+120 3.21327e+121 -2.63151e+121 3.04386e+121 -3.94629e+120 4.00062e+121 -1.26692e+121 -1.29522e+121 -8.19697e+120 -1.79431e+121 3.14874e+121 1.7641e+121 1.04907e+121 -7.50951e+120 -6.57915e+120 -5.45865e+120 -2.30598e+121 -2.05853e+121 2.0205e+120 -5.6161e+119 6.17469e+120 -1.86809e+121 -8.68565e+120 8.24916e+120 1.98375e+126 -5.02976e+125 1.53516e+126 1.15399e+126 -1.22207e+126 2.52614e+125 -7.99771e+125 4.02546e+125 1.47675e+126 1.11194e+126 2.62092e+121 -1.7401e+126 -3.42786e+125 -3.80167e+126 -1.14677e+125 -1.01162e+126 1.28372e+126 -1.07932e+126 -2.94305e+126 -2.00472e+126 -1.79674e+126 4.43329e+119 -9.23389e+120 -1.45284e+121 6.27079e+120 2.71091e+118 1.55597e+121 -2.15222e+121 -1.43414e+121 1.88625e+119 3.47794e+120 -1.81655e+121 -1.69796e+121 2.35998e+121 2.78306e+120 -8.00175e+120 2.68132e+121 1.16586e+121 1.59854e+121 5.61611e+120 2.46849e+121 -5.70023e+120 -4.83033e+120 3.36467e+121 -4.05617e+120 -1.16377e+121 7.26574e+120 8.75061e+120 2.50542e+121 7.17793e+120 -3.07464e+120 7.08032e+120 -3.74553e+120 1.47565e+121 2.98562e+121 -8.49556e+120 -2.59004e+121 1.1876e+121 -2.19856e+121 -3.75703e+120 -1.15292e+121 
2.66403e+120 1.33983e+121 -2.33441e+121 2.85566e+121 4.52489e+120 3.15511e+120 -7.2691e+120 -5.07826e+121 1.24803e+121 2.3552e+121 1.98351e+121 -7.92073e+120 1.16532e+121 -1.24851e+120 -8.99874e+120 5.16078e+120 3.13101e+121 -2.56414e+121 2.96594e+121 -3.84527e+120 3.89821e+121 -1.23449e+121 -1.26207e+121 -7.98715e+120 -1.74838e+121 3.06814e+121 1.71894e+121 1.02222e+121 -7.31729e+120 -6.41073e+120 -5.31892e+120 -2.24695e+121 -2.00584e+121 1.96878e+120 -5.47234e+119 6.01663e+120 -1.82027e+121 -8.46331e+120 8.038e+120 1.93297e+126 -4.90101e+125 1.49587e+126 1.12445e+126 -1.19079e+126 2.46148e+125 -7.79299e+125 3.92242e+125 1.43894e+126 1.08348e+126 2.55383e+121 -1.69556e+126 -3.34011e+125 -3.70436e+126 -1.11742e+125 -9.85721e+125 1.25086e+126 -1.05169e+126 -2.86772e+126 -1.9534e+126 -1.75075e+126 4.3198e+119 -8.99752e+120 -1.41565e+121 6.11027e+120 2.64151e+118 1.51614e+121 -2.09713e+121 -1.39743e+121 1.83796e+119 3.38891e+120 -1.77005e+121 -1.6545e+121 2.29957e+121 2.71182e+120 -7.79692e+120 2.61269e+121 1.13602e+121 1.55762e+121 5.47234e+120 2.4053e+121 -5.55432e+120 -4.70668e+120 3.27854e+121 -3.95234e+120 -1.13398e+121 7.07975e+120 8.52661e+120 2.44129e+121 6.99419e+120 -2.99594e+120 6.89908e+120 -3.64965e+120 1.43788e+121 2.90919e+121 -8.27809e+120 -2.52374e+121 1.1572e+121 -2.14228e+121 -3.66086e+120 -1.12341e+121 
2.54393e+120 1.27943e+121 -2.22918e+121 2.72692e+121 4.3209e+120 3.01287e+120 -6.94139e+120 -4.84932e+121 1.19176e+121 2.24902e+121 1.89409e+121 -7.56366e+120 1.11279e+121 -1.19222e+120 -8.59307e+120 4.92812e+120 2.98986e+121 -2.44855e+121 2.83224e+121 -3.67192e+120 3.72248e+121 -1.17884e+121 -1.20517e+121 -7.62708e+120 -1.66956e+121 2.92982e+121 1.64145e+121 9.76134e+120 -6.98741e+120 -6.12173e+120 -5.07914e+120 -2.14566e+121 -1.91541e+121 1.88002e+120 -5.22564e+119 5.74539e+120 -1.73821e+121 -8.08178e+120 7.67563e+120 1.84583e+126 -4.68007e+125 1.42843e+126 1.07376e+126 -1.13711e+126 2.35051e+125 -7.44167e+125 3.74559e+125 1.37408e+126 1.03463e+126 2.4387e+121 -1.61912e+126 -3.18954e+125 -3.53736e+126 -1.06704e+125 -9.41283e+125 1.19447e+126 -1.00428e+126 -2.73844e+126 -1.86534e+126 -1.67182e+126 4.12506e+119 -8.5919e+120 -1.35183e+121 5.83481e+120 2.52243e+118 1.44779e+121 -2.00259e+121 -1.33443e+121 1.75511e+119 3.23613e+120 -1.69025e+121 -1.57991e+121 2.1959e+121 2.58956e+120 -7.44543e+120 2.4949e+121 1.0848e+121 1.4874e+121 5.22564e+120 2.29687e+121 -5.30392e+120 -4.4945e+120 3.13074e+121 -3.77416e+120 -1.08286e+121 6.76059e+120 8.14222e+120 2.33123e+121 6.67888e+120 -2.86088e+120 6.58806e+120 -3.48512e+120 1.37306e+121 2.77804e+121 -7.90491e+120 -2.40997e+121 1.10503e+121 -2.0457e+121 -3.49582e+120 -1.07277e+121 
2.36975e+120 1.19183e+121 -2.07655e+121 2.54022e+121 4.02506e+120 2.80659e+120 -6.46614e+120 -4.51731e+121 1.11017e+121 2.09504e+121 1.76441e+121 -7.0458e+120 1.0366e+121 -1.1106e+120 -8.00473e+120 4.59071e+120 2.78516e+121 -2.2809e+121 2.63832e+121 -3.42052e+120 3.46761e+121 -1.09812e+121 -1.12266e+121 -7.10487e+120 -1.55525e+121 2.72923e+121 1.52907e+121 9.09302e+120 -6.50901e+120 -5.70259e+120 -4.73139e+120 -1.99875e+121 -1.78427e+121 1.7513e+120 -4.86786e+119 5.35202e+120 -1.6192e+121 -7.52844e+120 7.15011e+120 1.71946e+126 -4.35964e+125 1.33063e+126 1.00024e+126 -1.05925e+126 2.18958e+125 -6.93216e+125 3.48914e+125 1.28e+126 9.63794e+125 2.27173e+121 -1.50826e+126 -2.97116e+125 -3.29517e+126 -9.93985e+124 -8.76837e+125 1.11269e+126 -9.35516e+125 -2.55095e+126 -1.73762e+126 -1.55736e+126 3.84263e+119 -8.00364e+120 -1.25927e+121 5.43532e+120 2.34973e+118 1.34866e+121 -1.86548e+121 -1.24307e+121 1.63494e+119 3.01457e+120 -1.57453e+121 -1.47174e+121 2.04555e+121 2.41226e+120 -6.93566e+120 2.32409e+121 1.01053e+121 1.38556e+121 4.86786e+120 2.13961e+121 -4.94078e+120 -4.18678e+120 2.91639e+121 -3.51576e+120 -1.00872e+121 6.29771e+120 7.58475e+120 2.17162e+121 6.2216e+120 -2.665e+120 6.13699e+120 -3.24651e+120 1.27905e+121 2.58784e+121 -7.36368e+120 -2.24496e+121 1.02937e+121 -1.90564e+121 -3.25647e+120 -9.99318e+120 
2.13816e+120 1.07536e+121 -1.87361e+121 2.29197e+121 3.6317e+120 2.53231e+120 -5.83422e+120 -4.07584e+121 1.00167e+121 1.89029e+121 1.59198e+121 -6.35722e+120 9.35294e+120 -1.00206e+120 -7.22244e+120 4.14207e+120 2.51297e+121 -2.058e+121 2.38048e+121 -3.08624e+120 3.12873e+121 -9.90807e+120 -1.01294e+121 -6.41053e+120 -1.40326e+121 2.46251e+121 1.37963e+121 8.20437e+120 -5.87289e+120 -5.14529e+120 -4.269e+120 -1.80342e+121 -1.6099e+121 1.58015e+120 -4.39213e+119 4.82898e+120 -1.46096e+121 -6.7927e+120 6.45134e+120 1.55142e+126 -3.93358e+125 1.20059e+126 9.0249e+125 -9.55735e+125 1.9756e+125 -6.2547e+125 3.14815e+125 1.15491e+126 8.69605e+125 2.04972e+121 -1.36086e+126 -2.68079e+125 -2.97314e+126 -8.96845e+124 -7.91145e+125 1.00395e+126 -8.4409e+125 -2.30165e+126 -1.56781e+126 -1.40516e+126 3.4671e+119 -7.22146e+120 -1.13621e+121 4.90414e+120 2.12009e+118 1.21686e+121 -1.68317e+121 -1.12158e+121 1.47516e+119 2.71996e+120 -1.42065e+121 -1.32791e+121 1.84564e+121 2.17652e+120 -6.25785e+120 2.09696e+121 9.11774e+120 1.25015e+121 4.39213e+120 1.93051e+121 -4.45793e+120 -3.77761e+120 2.63137e+121 -3.17217e+120 -9.10137e+120 5.68225e+120 6.8435e+120 1.95939e+121 5.61358e+120 -2.40456e+120 5.53724e+120 -2.92923e+120 1.15405e+121 2.33494e+121 -6.64404e+120 -2.02557e+121 9.28775e+120 -1.7194e+121 -2.93822e+120 -9.01657e+120 
1.84812e+120 9.29486e+120 -1.61946e+121 1.98106e+121 3.13906e+120 2.1888e+120 -5.04281e+120 -3.52296e+121 8.65797e+120 1.63388e+121 1.37603e+121 -5.49487e+120 8.08422e+120 -8.66131e+119 -6.24273e+120 3.5802e+120 2.17209e+121 -1.77883e+121 2.05757e+121 -2.66759e+120 2.70432e+121 -8.56405e+120 -8.75538e+120 -5.54095e+120 -1.21291e+121 2.12847e+121 1.19249e+121 7.09146e+120 -5.07624e+120 -4.44734e+120 -3.68991e+120 -1.55879e+121 -1.39152e+121 1.3658e+120 -3.79634e+119 4.17394e+120 -1.26278e+121 -5.87128e+120 5.57622e+120 1.34097e+126 -3.39999e+125 1.03773e+126 7.80068e+125 -8.26091e+125 1.70761e+125 -5.40625e+125 2.72111e+125 9.98244e+125 7.51644e+125 1.77168e+121 -1.17626e+126 -2.31715e+125 -2.56983e+126 -7.75189e+124 -6.83827e+125 8.67766e+125 -7.2959e+125 -1.98943e+126 -1.35514e+126 -1.21455e+126 2.99679e+119 -6.24188e+120 -9.82083e+120 4.2389e+120 1.83251e+118 1.05179e+121 -1.45485e+121 -9.69442e+120 1.27506e+119 2.351e+120 -1.22794e+121 -1.14778e+121 1.59528e+121 1.88128e+120 -5.40898e+120 1.81251e+121 7.88093e+120 1.08057e+121 3.79635e+120 1.66864e+121 -3.85321e+120 -3.26518e+120 2.27443e+121 -2.74187e+120 -7.86678e+120 4.91146e+120 5.91519e+120 1.6936e+121 4.8521e+120 -2.07838e+120 4.78612e+120 -2.53188e+120 9.97505e+120 2.0182e+121 -5.74279e+120 -1.7508e+121 8.02788e+120 -1.48617e+121 -2.53966e+120 -7.79348e+120 
1.50238e+120 7.55601e+120 -1.3165e+121 1.61045e+121 2.55182e+120 1.77933e+120 -4.09942e+120 -2.8639e+121 7.03827e+120 1.32822e+121 1.11861e+121 -4.46692e+120 6.57186e+120 -7.04099e+119 -5.07486e+120 2.91043e+120 1.76574e+121 -1.44605e+121 1.67265e+121 -2.16855e+120 2.19841e+121 -6.96192e+120 -7.11746e+120 -4.50437e+120 -9.86002e+120 1.73028e+121 9.69402e+120 5.76482e+120 -4.1266e+120 -3.61535e+120 -2.99962e+120 -1.26717e+121 -1.1312e+121 1.1103e+120 -3.08614e+119 3.39309e+120 -1.02655e+121 -4.77291e+120 4.53305e+120 1.09011e+126 -2.76394e+125 8.43598e+125 6.34136e+125 -6.71549e+125 1.38816e+125 -4.39487e+125 2.21206e+125 8.11496e+125 6.11029e+125 1.44024e+121 -9.56214e+125 -1.88366e+125 -2.08908e+126 -6.3017e+124 -5.559e+125 7.05428e+125 -5.93101e+125 -1.61726e+126 -1.10162e+126 -9.8734e+125 2.43616e+119 -5.07417e+120 -7.98359e+120 3.4459e+120 1.48969e+118 8.55028e+120 -1.18268e+121 -7.88082e+120 1.03652e+119 1.91118e+120 -9.98225e+120 -9.33058e+120 1.29685e+121 1.52933e+120 -4.39709e+120 1.47343e+121 6.40659e+120 8.78421e+120 3.08614e+120 1.35648e+121 -3.13237e+120 -2.65435e+120 1.84894e+121 -2.22893e+120 -6.39509e+120 3.99264e+120 4.8086e+120 1.37677e+121 3.94439e+120 -1.68957e+120 3.89075e+120 -2.05823e+120 8.10896e+120 1.64065e+121 -4.66845e+120 -1.42327e+121 6.52606e+120 -1.20814e+121 -2.06455e+120 -6.33551e+120 
1.10835e+120 5.57426e+120 -9.71214e+120 1.18807e+121 1.88254e+120 1.31266e+120 -3.02425e+120 -2.11277e+121 5.19231e+120 9.79859e+120 8.25224e+120 -3.29536e+120 4.84823e+120 -5.19431e+119 -3.74385e+120 2.1471e+120 1.30263e+121 -1.06679e+121 1.23396e+121 -1.59979e+120 1.62182e+121 -5.13599e+120 -5.25073e+120 -3.32299e+120 -7.27398e+120 1.27647e+121 7.15152e+120 4.25285e+120 -3.0443e+120 -2.66713e+120 -2.21289e+120 -9.34826e+120 -8.34513e+120 8.19093e+119 -2.27672e+119 2.50317e+120 -7.5731e+120 -3.52109e+120 3.34414e+120 8.04198e+125 -2.03903e+125 6.22343e+125 4.67818e+125 -4.95419e+125 1.02408e+125 -3.24221e+125 1.63189e+125 5.98661e+125 4.50772e+125 1.0625e+121 -7.05423e+125 -1.38963e+125 -1.54117e+126 -4.64892e+124 -4.10101e+125 5.20412e+125 -4.37546e+125 -1.19309e+126 -8.12696e+125 -7.28385e+125 1.79722e+119 -3.74334e+120 -5.88969e+120 2.54213e+120 1.09898e+118 6.30775e+120 -8.72494e+120 -5.81388e+120 7.6467e+118 1.40993e+120 -7.36415e+120 -6.8834e+120 9.56715e+120 1.12823e+120 -3.24384e+120 1.08699e+121 4.7263e+120 6.48033e+120 2.27672e+120 1.00071e+121 -2.31083e+120 -1.95818e+120 1.36401e+121 -1.64434e+120 -4.71782e+120 2.94547e+120 3.54742e+120 1.01568e+121 2.90988e+120 -1.24643e+120 2.8703e+120 -1.51841e+120 5.98218e+120 1.21035e+121 -3.44403e+120 -1.04998e+121 4.81443e+120 -8.91277e+120 -1.52307e+120 -4.67386e+120 
6.78075e+119 3.41027e+120 -5.94179e+120 7.2685e+120 1.15172e+120 8.0307e+119 -1.8502e+120 -1.29257e+121 3.1766e+120 5.99468e+120 5.04864e+120 -2.01606e+120 2.96609e+120 -3.17783e+119 -2.29045e+120 1.31357e+120 7.96937e+120 -6.52652e+120 7.54922e+120 -9.78737e+119 9.92212e+120 -3.14214e+120 -3.21234e+120 -2.03297e+120 -4.45015e+120 7.80934e+120 4.37522e+120 2.60185e+120 -1.86247e+120 -1.63172e+120 -1.35383e+120 -5.71917e+120 -5.10546e+120 5.01112e+119 -1.39287e+119 1.53141e+120 -4.63314e+120 -2.15417e+120 2.04591e+120 4.92e+125 -1.24745e+125 3.80743e+125 2.86206e+125 -3.03092e+125 6.2652e+124 -1.98355e+125 9.98373e+124 3.66255e+125 2.75777e+125 6.50027e+120 -4.3157e+125 -8.50159e+124 -9.4287e+125 -2.84416e+124 -2.50896e+125 3.18382e+125 -2.67686e+125 -7.2992e+125 -4.97199e+125 -4.45619e+125 1.09952e+119 -2.29014e+120 -3.60325e+120 1.55525e+120 6.72345e+117 3.85902e+120 -5.33783e+120 -3.55687e+120 4.67817e+118 8.62579e+119 -4.50531e+120 -4.21119e+120 5.85308e+120 6.90238e+119 -1.98455e+120 6.65008e+120 2.8915e+120 3.9646e+120 1.39288e+120 6.12222e+120 -1.41374e+120 -1.19799e+120 8.34487e+120 -1.00599e+120 -2.88631e+120 1.80201e+120 2.17028e+120 6.21381e+120 1.78023e+120 -7.62556e+119 1.75602e+120 -9.28946e+119 3.65984e+120 7.40477e+120 -2.10702e+120 -6.42368e+120 2.94542e+120 -5.45274e+120 -9.31798e+119 -2.85942e+120 
2.27377e+119 1.14356e+120 -1.99244e+120 2.43732e+120 3.86203e+119 2.69291e+119 -6.20423e+119 -4.33433e+120 1.0652e+120 2.01018e+120 1.69294e+120 -6.76041e+119 9.94611e+119 -1.06561e+119 -7.6805e+119 4.40476e+119 2.67234e+120 -2.18852e+120 2.53146e+120 -3.28197e+119 3.32715e+120 -1.05364e+120 -1.07718e+120 -6.81709e+119 -1.49225e+120 2.61868e+120 1.46713e+120 8.7247e+119 -6.24536e+119 -5.47161e+119 -4.53974e+119 -1.91779e+120 -1.712e+120 1.68036e+119 -4.67068e+118 5.13524e+119 -1.55362e+120 -7.2235e+119 6.86049e+119 1.64981e+125 -4.18305e+124 1.27673e+125 9.59727e+124 -1.01635e+125 2.10089e+124 -6.65137e+124 3.34781e+124 1.22815e+125 9.24756e+124 2.17971e+120 -1.44717e+125 -2.85081e+124 -3.1617e+125 -9.53724e+123 -8.4132e+124 1.06762e+125 -8.97623e+124 -2.44762e+125 -1.66724e+125 -1.49428e+125 3.68699e+118 -7.67945e+119 -1.20827e+120 5.21517e+119 2.25455e+117 1.29403e+120 -1.78992e+120 -1.19271e+120 1.56872e+118 2.89246e+119 -1.51075e+120 -1.41213e+120 1.9627e+120 2.31455e+119 -6.65473e+119 2.22995e+120 9.69599e+119 1.32944e+120 4.67069e+119 2.05294e+120 -4.74065e+119 -4.01719e+119 2.79826e+120 -3.37335e+119 -9.67858e+119 6.04262e+119 7.27753e+119 2.08366e+120 5.9696e+119 -2.55705e+119 5.88841e+119 -3.11501e+119 1.22724e+120 2.48302e+120 -7.06542e+119 -2.15403e+120 9.87679e+119 -1.82845e+120 -3.12457e+119 -9.58841e+119 
0.695637 -0.701365 -0.481457 -0.474861 -0.746782 -0.584745 0.234587 -0.271211 -0.573719 0.553234 0.629576 0.13619 0.494291 0.91876 0.979538 -0.636791 -0.350757 -0.705741 0.976003 0.865312 -0.337476 -0.292918 -0.234656 0.831911 0.218226 0.328285 -0.325506 0.529384 0.686518 0.11575 0.94757 0.436374 -0.600457 -0.839553 -0.165418 -0.0316838 -0.632685 0.69689 0.239084 0.486036 0.547405 -0.481904 -0.375601 -0.174271 -0.812816 0.724454 -0.493 -0.928725 -0.801891 0.783803 -0.617243 -0.496419 -0.907757 -0.195846 0.163915 -0.556667 0.315467 -0.135445 -0.937025 0.693037 0.432188 -0.128099 -0.910131 -0.756199 0.146235 -0.626898 -0.996228 -0.157007 -0.693718 -0.555246 0.138565 0.605703 0.879947 0.571562 -0.888087 -0.222707 0.88953 0.852278 -0.124054 -0.492866 -0.968669 0.203862 0.546595 0.216707 -0.231432 0.405451 0.706607 -0.0237482 -0.569627 0.599432 -0.255357 0.677233 -0.727187 0.335479 -0.803765 0.513633 -0.580056 -0.428447 0.273461 0.29265 
-0.800058 0.156716 -0.0900907 0.207433 0.305411 -0.699581 -0.996984 0.120887 -0.415603 -0.339891 -0.0554345 -0.77362 -0.855634 0.989705 -0.750613 0.217588 0.351956 0.269147 0.825837 -0.0126976 0.870441 -0.586433 -0.25044 0.330616 -0.169671 -0.977587 -0.178618 -0.0582863 0.714593 -0.315872 0.0549296 -0.648889 0.827571 0.258261 -0.536558 0.490127 -0.909323 -0.213638 -0.986777 -0.955677 0.724538 0.143485 0.177346 0.366809 -0.906229 0.344932 -0.0465255 0.459401 0.43608 -0.708974 0.509121 -0.330725 -0.628522 -0.344095 -0.20996 0.465147 -0.9007 -0.0384765 0.606314 -0.540888 -0.676761 0.921424 0.827744 0.432308 0.586926 -0.373486 -0.579927 -0.374291 -0.418868 -0.0825276 0.86298 0.350772 -0.064319 0.336781 -0.199158 0.279979 -0.775652 0.863811 0.668291 0.941278 -0.131431 -0.149531 0.0635276 0.578262 0.519636 0.241155 -0.679249 0.922976 -0.129495 -0.594152 0.647905 -0.438995 -0.223627 -0.633333 -0.871824 -0.953063 -0.0566635 0.508424 0.375366 -0.676817 
-0.444326 -0.527111 0.76666 0.824382 0.286082 -0.8066 -0.748588 -0.269585 -0.693924 0.464918 -0.88116 -0.887916 0.0969575 -0.224599 0.227523 -0.808041 0.566723 -0.250801 0.766331 -0.108507 -0.106481 -0.317674 0.21401 -0.0338508 -0.223731 -0.123402 -0.544742 -0.581164 0.0511873 -0.208701 0.529402 -0.912293 -0.460534 -0.529188 -0.168829 -0.657735 0.161841 -0.283428 0.675571 0.570139 -0.906193 -0.190664 0.0961136 0.0759133 0.744083 0.00269393 -0.394288 0.33118 0.207833 0.51471 0.0184375 0.868861 -0.378602 0.122573 -0.788007 0.921015 -0.754973 -0.172746 0.671033 0.745748 0.195122 -0.140001 -0.809505 -0.327015 -0.218541 0.354199 -0.259507 -0.0104499 -0.892435 -0.875092 -0.8203 0.802155 -0.126799 -0.607596 0.931501 0.0504565 -0.0734216 0.18618 -0.763963 -0.647205 0.481107 0.138883 -0.736894 0.387564 -0.941293 0.148034 -0.560086 -0.490199 -0.434611 0.86101 0.319835 0.183968 -0.969289 -0.10988 0.209577 -0.650003 0.0139341 -0.643597 0.134861 -0.749349 
0.259375 0.867974 -0.368478 -0.463827 0.443766 -0.634359 0.25104 0.372707 -0.372267 -0.330577 -0.800773 -0.551584 -0.880382 0.41662 0.788489 0.0643213 0.851063 0.308754 0.160449 0.17194 0.143422 -0.138943 -0.766927 -0.654326 -0.275757 -0.749352 -0.948792 0.998157 -0.855966 -0.171928 0.76638 0.912704 0.580895 0.712294 0.286521 -0.0609734 0.121332 -0.403901 0.472813 0.487517 -0.471957 -0.000748882 -0.32017 -0.164654 -0.305548 -0.827834 0.0992536 -0.957227 -0.0699329 0.217806 0.617326 0.166288 0.202717 0.425442 0.671397 0.843677 -0.507988 -0.0313839 0.297061 0.450255 0.940666 -0.712733 0.561886 0.495529 0.806465 -0.550076 -0.503203 0.430758 -0.390269 0.331844 -0.277878 -0.995819 0.0661706 -0.930863 -0.826261 0.764462 -0.953484 -0.508002 0.0535331 -0.884259 -0.454498 0.983223 0.0742564 0.47283 -0.363127 0.463286 0.40993 0.470757 -0.367158 0.0955754 -0.64726 0.165376 -0.476198 0.205312 -0.239338 0.0885288 0.193177 -0.850013 0.668509 0.232665 
0.718906 -0.128071 -0.72273 -0.839198 -0.355731 -0.691434 0.365711 0.755519 -0.28664 -0.0581152 -0.55879 -0.887842 -0.131013 -0.7468 -0.145465 0.167613 -0.217373 0.189768 0.494506 -0.453897 0.615358 -0.143483 0.447762 -0.45203 0.769748 0.344318 -0.971669 -0.244797 -0.571695 -0.104709 -0.866654 -0.266152 -0.635306 -0.280759 -0.127562 -0.83077 0.348203 -0.3206 0.963139 -0.186999 -0.43192 -0.469829 0.761764 0.70893 0.588339 0.134078 0.328281 0.741056 -0.838411 -0.044245 -0.139766 -0.728766 -0.634094 0.302178 -0.483307 0.598014 0.909319 0.945262 0.0417248 -0.298629 -0.327259 -0.122875 -0.631625 -0.131705 -0.578019 -0.571921 0.673958 -0.576052 0.978768 -0.0905345 -0.24887 -0.101626 0.231575 0.683077 0.233893 0.278655 -0.232831 -0.888236 -0.899244 0.658191 -0.332962 0.180998 -0.631541 0.0913086 0.233203 0.150423 -0.171113 0.162784 0.759671 -0.101567 0.843693 -0.400171 0.281668 0.0211207 0.0743511 0.142388 0.194159 -0.483783 0.153845 0.698797 
-0.595219 -0.931722 -0.631724 -0.498871 0.28484 0.902494 0.715259 -0.557181 -0.778205 -0.0349556 -0.772133 0.139408 -0.438391 -0.904084 -0.661136 -0.98865 -0.361961 0.349524 0.114176 -0.193301 0.415224 0.404672 -0.610207 -0.193955 -0.919464 0.4348 0.446966 0.260379 -0.406709 0.540153 -0.637682 0.681523 -0.236004 -0.996377 -0.472583 0.100029 0.623968 0.97924 0.3339 0.761037 0.875824 0.689345 -0.324282 -0.0319328 0.0613348 -0.396459 -0.246842 -0.518194 0.796428 0.0188643 0.291824 0.0151885 -0.299339 -0.594611 0.26875 -0.557256 -0.193227 -0.0408168 -0.408698 0.753207 -0.884186 -0.133187 -0.72331 -0.309963 -0.700316 0.150465 0.442593 -0.0533499 -0.352131 0.858623 -0.416505 0.781286 -0.981693 -0.275085 -0.4202 0.0781784 -0.729349 0.357659 -0.0200875 0.439205 0.00935339 0.409 -0.116957 -0.219891 -0.860668 -0.246917 -0.71512 0.609951 0.2416 0.738021 -0.635527 0.768418 0.741662 0.283822 -0.160485 -0.502082 0.583456 0.714388 0.755305 -0.557079 
0.843907 -0.383606 0.80298 -0.334425 0.856616 -0.69803 -0.927271 -0.796152 -0.446687 -0.225994 0.103278 -0.00444197 0.431123 0.188315 -0.775913 0.287726 -0.319856 -0.736081 0.174864 -0.952938 -0.0598101 0.644 -0.453702 0.17411 0.290523 0.303285 -0.810091 0.604089 0.552667 0.453478 -0.334165 -0.46735 -0.544873 0.197651 -0.885655 0.948791 0.749021 -0.266149 -0.187125 -0.522541 0.502539 -0.554046 0.854055 0.107097 0.913992 0.231194 0.905826 0.325292 0.369749 0.484305 -0.7512 0.93369 0.181074 0.391146 0.183175 -0.580828 0.499403 -0.151427 0.102444 -0.548095 0.242052 -0.5913 -0.737639 -0.405753 0.25062 -0.980618 -0.738572 0.630931 -0.597693 0.469311 0.9687 0.729762 0.36541 -0.344501 -0.361938 0.615744 0.0165307 0.995829 0.321791 0.119262 -0.411756 0.44778 -0.782875 0.0839988 -0.648965 0.103012 0.266426 0.170519 -0.26324 -0.814756 -0.385922 -0.566681 0.221813 -0.901627 -0.651655 0.147692 0.0383993 -0.949827 0.686723 -0.301119 
-0.443505 -0.0436874 0.865007 -0.787815 0.62959 -0.113719 -0.823429 -0.152129 -0.546527 0.59707 -0.67745 -0.146242 0.175798 -0.715448 -0.771209 -0.622849 -0.954086 -0.974196 0.905937 0.179322 0.82627 0.0410525 -0.798942 -0.452797 -0.657177 -0.392937 -0.742924 0.893296 0.68859 0.641228 -0.165421 -0.281891 -0.325843 0.1332 0.537748 0.561272 -0.763157 -0.833189 -0.0211236 0.681582 -0.557711 -0.62784 -0.610334 0.173572 -0.916507 0.703664 0.334373 -0.903217 0.944069 -0.440776 0.036693 -0.0552203 0.412225 0.0394156 0.718645 0.0582477 -0.58044 -0.117814 -0.697782 -0.21578 0.505286 0.539177 0.228973 -0.151637 0.310816 -0.29318 -0.0379953 0.92365 0.962068 0.972588 -0.993938 -0.00593797 -0.474409 -0.696072 0.895434 0.970701 -0.115022 0.568333 0.193925 0.600885 0.944702 -0.912408 -0.903355 -0.631396 -0.0254025 -0.30311 0.187315 0.685743 0.960516 -0.348864 0.614034 0.400055 0.801278 0.77554 -0.604102 -0.000890648 -0.709556 0.587854 0.0959466 0.745142 
-0.527646 0.333693 -0.712441 0.5162 -0.970323 -0.186502 -0.566949 -0.832159 -0.420679 -0.13934 0.0541892 0.360222 0.408908 0.499097 0.00521442 -0.343622 0.722825 0.369284 0.225954 0.403512 0.543634 0.335403 -0.294905 0.365651 -0.962156 -0.433577 0.416849 -0.137882 -0.703245 -0.673801 0.779072 0.546293 -0.30455 -0.806183 -0.798978 -0.833416 0.119951 -0.341574 -0.327464 0.913409 -0.827845 -0.803188 0.395804 -0.304328 -0.460524 0.453807 0.218961 -0.00574282 -0.997203 0.473694 0.289924 -0.110865 0.574945 0.170594 -0.49577 -0.513429 0.0148766 -0.788171 0.846841 -0.0476132 0.617342 0.741362 -0.614142 -0.248979 0.124945 -0.5269 0.122594 0.990704 -0.322128 0.235154 0.0164884 -0.22559 0.0472646 0.738373 -0.418953 -0.754221 0.854994 0.626968 0.47285 -0.900479 0.622745 -0.443744 0.560874 0.60196 -0.370146 0.0887505 -0.5288 0.830319 0.356 -0.0302558 -0.392298 0.159932 -0.495362 0.658082 -0.475635 -0.456983 0.279189 -0.645366 -0.998178 -0.93384 
-0.924978 -0.284339 0.601979 -0.234881 0.605084 0.860547 -0.496873 0.765611 -0.303999 -0.538273 -0.860778 0.553603 -0.268569 -0.112216 0.820703 -0.945751 -0.460783 -0.548207 0.378072 -0.382581 0.847747 -0.0759555 -0.918628 0.194497 0.71722 -0.819982 -0.285578 0.743707 0.134209 0.695626 -0.899443 -0.101756 -0.442571 0.0444745 0.546138 0.47099 -0.285483 -0.450935 0.946294 -0.0376175 0.832506 -0.298722 -0.450115 0.549208 -0.0863614 -0.687407 -0.470476 0.969967 0.62345 -0.819314 -0.332167 -0.988738 -0.192637 -0.71033 -0.856217 -0.678326 -0.781789 -0.10562 0.95386 0.64072 0.223183 -0.935743 -0.796149 -0.160383 0.820912 0.973901 0.384222 -0.605976 -0.524277 -0.103171 0.100979 -0.669007 0.0381362 -0.237621 0.192488 0.707548 0.826734 0.0822375 -0.721604 -0.849801 0.89925 -0.107713 0.0672845 -0.693211 -0.673631 -0.686846 -0.582393 0.60173 -0.378671 0.28731 -0.288601 -0.675915 -0.283701 -0.256734 0.450498 -0.888248 0.159198 -0.127182 0.113447 -0.473188 
0.0153367 0.579295 0.476383 -0.922974 0.236694 -0.666321 0.613959 -0.337896 -0.2463 -0.334963 0.563095 -0.471344 0.370849 0.666019 -0.146946 -0.066271 0.570548 0.521292 0.0948544 -0.873169 0.671969 -0.867023 0.290788 -0.346556 0.683496 0.280489 0.998386 0.529342 0.754879 0.397245 0.124746 -0.512842 0.501447 -0.785916 0.645199 0.929089 0.413363 -0.658803 0.855993 -0.711626 0.713127 -0.459325 0.865119 0.172715 -0.374977 -0.772485 0.2776 0.875994 -0.0820175 -0.307524 -0.99664 -0.488834 0.821146 0.839997 -0.247705 -0.361119 0.402971 -0.734082 -0.480155 0.0442269 -0.724759 0.601752 -0.974229 -0.870924 -0.628108 -0.660281 -0.115174 0.376098 0.273721 0.957493 -0.252925 0.611087 -0.774369 -0.832542 0.360032 0.382188 0.643628 -0.906155 0.313185 0.529029 -0.146676 -0.35215 -0.135703 0.354368 -0.506405 -0.735219 -0.100196 0.969683 0.65637 0.434598 -0.515607 0.345191 0.428799 -0.138251 -0.22539 0.475384 0.64287 0.681239 -0.202661 0.853645 
0.684536 0.273771 0.465748 0.796007 -0.675134 0.496704 0.616911 -0.842458 -0.882661 -0.72567 0.568726 -0.143054 -0.5862 0.293775 0.54559 0.0939342 0.147376 0.688714 -0.256739 0.43355 -0.0202258 -0.834421 -0.733169 -0.716623 0.208331 -0.516629 0.558745 -0.563576 -0.548579 -0.9844 -0.0612973 0.0168691 0.435564 0.176946 -0.0507072 -0.861841 -0.691333 0.114061 -0.245418 -0.586614 -0.973085 0.123226 -0.134931 -0.383734 -0.18144 -0.994304 -0.140095 0.227541 0.145234 0.289538 -0.203699 0.0213912 0.0500352 -0.673723 -0.259987 -0.296638 0.00160729 -0.109868 0.155165 -0.287069 -0.457661 -0.992563 0.142763 -0.700659 -0.587486 0.612506 -0.809627 -0.296515 0.546606 -0.825503 0.390308 -0.933859 0.437934 0.837296 0.131789 0.360402 0.26515 0.115111 0.816362 -0.0361869 0.709638 -0.662519 -0.0158876 -0.597709 -0.775478 -0.784125 -0.43487 0.958283 -0.275601 0.642494 -0.788965 -0.452993 -0.537592 -0.241975 0.231796 -0.839153 -0.262122 0.408182 0.0740933 -0.43764 
-0.964484 -0.0699846 0.721154 0.433821 -0.862094 -0.608505 0.478164 0.911753 -0.0826343 -0.0536174 -0.730151 0.0892069 0.556833 -0.397723 -0.800805 -0.334174 0.646157 0.426904 0.161853 0.0222458 -0.805213 0.572038 -0.833607 0.413921 -0.571885 -0.27174 0.569224 -0.074765 -0.294377 0.366846 -0.768851 0.0525148 -0.520423 0.135069 -0.24497 0.326781 0.206198 -0.113223 -0.312533 -0.993935 0.660679 0.638149 0.15642 -0.982151 -0.927441 0.328405 0.766512 -0.795448 -0.458125 0.235648 0.608295 -0.517317 0.22302 0.591111 0.990976 -0.688227 0.533938 0.690942 -0.496299 0.044429 0.202203 0.14404 -0.873242 0.647592 0.767613 0.323556 0.0749215 -0.337413 0.869486 -0.606794 -0.707773 0.365359 0.289913 0.51175 -0.340275 -0.0690563 0.260022 0.695164 -0.158839 -0.989633 -0.95189 -0.462773 -0.194518 0.150206 -0.841865 0.249387 0.381955 -0.438351 0.00862759 -0.96917 -0.890798 -0.483601 0.125758 -0.564568 -0.756129 -0.555433 0.984649 -0.729556 -0.729301 0.902196 
-0.930305 0.0900001 0.643872 0.591782 0.465394 -0.190225 0.535054 0.0396158 0.248949 0.24288 0.701113 -0.906888 0.874966 -0.137206 0.650159 0.607009 -0.232389 -0.0411185 0.645219 -0.985221 -0.486585 -0.16119 -0.622597 0.495959 -0.807863 -0.848912 -0.873117 -0.317513 -0.00872375 0.830745 0.226853 0.0377529 -0.058772 0.138486 -0.511639 0.879499 -0.255129 -0.147312 0.818833 -0.0644938 -0.707201 0.34855 0.201456 0.476247 0.379527 -0.550767 -0.214896 -0.842667 0.994608 0.0133459 0.531246 -0.98538 -0.116207 0.443722 -0.747097 0.320545 0.13629 0.0435155 -0.156461 -0.452017 -0.91114 0.62992 -0.92206 0.97508 0.310294 -0.592514 0.303909 -0.86556 -0.609428 0.710415 -0.583356 0.490729 -0.173514 0.190274 0.691016 0.781486 0.746015 0.0157673 -0.432511 0.975899 -0.412372 -0.86953 -0.986303 0.215957 0.0236817 0.814785 -0.877272 0.861794 0.631432 -0.579506 0.658376 0.393492 0.826042 0.804786 0.569096 -0.725894 0.57013 0.231071 -0.154976 0.841411 
-0.94748 0.575617 -0.095033 0.00144531 -0.720466 -0.297988 -0.516451 0.607499 -0.768594 0.459778 -0.0493525 -0.147998 -0.712971 -0.28037 0.823885 -0.458119 -0.520673 0.957532 -0.489368 0.687501 0.541317 0.402054 0.650961 -0.784912 0.987194 0.0581774 -0.122158 0.685957 -0.859731 0.402477 0.733979 -0.529781 -0.390097 0.899895 -0.0138977 0.315812 0.596394 0.206868 0.574256 0.381119 -0.79367 0.486224 -0.877027 0.858558 -0.457169 0.079182 -0.867806 -0.722668 0.179862 -0.304359 0.178923 0.504764 -0.587244 0.0269696 -0.0992525 -0.793042 0.0797025 -0.295255 -0.410736 -0.477572 -0.832592 0.15442 -0.818575 0.485662 0.615222 -0.131866 0.00213618 0.888487 0.488741 -0.42192 -0.245547 0.0898485 0.0719744 0.100107 -0.0235563 -0.757544 -0.330169 0.505109 0.536209 -0.282134 -0.649918 0.108682 -0.928702 -0.731456 0.965375 -0.814022 0.337258 0.697579 -0.916538 -0.354651 -0.221096 0.180897 -0.232725 0.309633 0.429601 -0.0192868 0.788054 -0.619026 0.397154 0.273617 
0.709604 -0.495882 -0.043031 -0.0631636 -0.700177 0.992207 0.52923 0.619073 0.376455 0.272765 -0.31908 0.919287 0.758943 -0.408339 -0.733171 0.836076 0.485598 -0.0304715 0.429325 -0.510002 -0.438453 0.0634578 -0.916635 0.520088 0.601651 0.625023 -0.039189 -0.711944 0.238101 -0.36315 0.716031 -0.190351 -0.371274 -0.174644 -0.395041 0.196022 -0.0446806 0.497374 0.716943 0.930142 0.962133 -0.320148 -0.23002 0.187037 0.208247 -0.720758 -0.332527 -0.505442 -0.862893 0.635782 0.0659764 0.738134 -0.281873 0.200457 -0.839841 -0.687184 0.188045 0.909111 0.460612 0.246003 -0.796739 0.523547 0.962483 0.809227 0.570336 0.854667 -0.670664 -0.324946 -0.845164 -0.300591 -0.541857 0.180598 0.427504 -0.927385 0.0492171 -0.771812 0.90071 0.00976499 -0.246043 -0.386776 0.85736 -0.905586 0.133354 -0.033729 0.700214 0.164279 0.792535 0.316623 0.162067 -0.718021 0.771781 0.436028 0.664672 0.555877 0.538315 0.637345 -0.0589215 0.925436 -0.310786 0.924293 
0.0722214 -0.541638 -0.540346 -0.747202 0.203231 -0.699301 -0.67807 -0.948296 -0.350475 -0.93746 0.650244 -0.489071 -0.251452 -0.339742 0.595642 -0.660887 0.658119 -0.580186 0.250527 0.219599 0.661964 -0.344474 -0.613669 0.568914 -0.0816037 0.622805 -0.830741 0.45053 0.162215 0.564708 0.197761 -0.789854 -0.517597 -0.068454 -0.0912154 -0.172521 0.77174 0.208758 0.276688 0.806574 -0.607943 -0.605049 -0.0386445 -0.169035 -0.19492 0.947882 -0.346917 0.116732 0.0313214 -0.532384 -0.782774 0.633323 0.231406 -0.288674 -0.365476 -0.573269 0.781633 -0.954969 0.529919 -0.675298 -0.558556 -0.316419 0.0609761 -0.480386 -0.629283 0.210486 -0.941173 -0.966073 -0.151711 0.237732 0.255955 0.00104659 0.418782 -0.680003 0.430385 -0.849045 0.94332 0.077489 0.293883 0.154721 -0.366916 0.881845 0.84934 0.767326 0.250022 0.510541 0.448501 0.324668 -0.307324 0.476233 0.419961 -0.729669 0.0435638 0.981236 0.0791067 0.537806 0.518574 0.58953 -0.209482 0.151799 
-0.20559 0.587378 -0.327367 -0.352234 -0.854135 0.283862 -0.392052 0.0759819 0.541033 -0.972407 -0.559964 0.350343 -0.219213 -0.951916 0.0120958 -0.43927 0.909281 0.361109 0.992518 -0.734543 0.387838 0.0395241 -0.458908 -0.829533 -0.582231 0.00594581 -0.0263163 -0.0328698 -0.826276 0.997906 -0.0326446 0.981317 -0.704663 0.743388 -0.913867 0.312817 -0.870246 -0.295066 -0.834639 0.948922 -0.326061 -0.26282 0.384046 -0.0258281 0.707924 0.0501149 -0.281844 0.670344 0.662099 -0.591839 -0.289097 0.791272 -0.963717 -0.913701 -0.0161609 0.194744 -0.115147 0.57785 -0.376051 -0.433903 -0.653229 0.780684 0.808231 0.859509 -0.160135 0.98493 -0.305683 -0.307885 -0.62174 -0.572694 0.699267 0.27527 0.0683107 -0.552725 -0.979778 -0.465812 0.676424 0.60515 -0.10239 -0.261544 0.333699 -0.981345 -0.741417 -0.0839555 -0.874087 0.500375 0.752486 0.128122 0.124748 0.405342 -0.723696 0.988498 -0.968812 -0.0247854 -0.329775 0.621941 0.146702 -0.552402 -0.772802 0.959591 
-0.984792 0.301517 0.263577 0.700146 -0.096316 0.0628069 -0.0546497 0.531364 0.423007 0.0444542 -0.0749579 0.864259 -0.646853 -0.435398 -0.795504 -0.0659258 -0.101148 0.974151 0.603376 -0.400193 -0.68745 0.544242 0.567828 0.067064 0.93465 -0.736206 -0.47177 0.682813 -0.834597 -0.146435 -0.2669 0.699812 -0.917059 0.590872 -0.165781 -0.420152 -0.916921 0.470724 0.446152 -0.839481 0.321298 0.193064 -0.694422 0.523958 -0.494511 -0.841143 0.161934 -0.976238 -0.758159 -0.334447 -0.0574694 0.950999 0.821685 -0.453976 -0.0624621 0.416873 0.373145 -0.599001 -0.0469301 -0.00984771 -0.842595 -0.516565 -0.204315 -0.213636 -0.67986 -0.930174 0.0639399 0.324742 -0.228008 0.963648 -0.328973 0.911168 0.953637 0.00661294 0.308301 -0.965597 -0.767884 -0.215499 0.0776559 0.466765 0.634558 -0.433264 0.155924 0.00586385 0.678958 -0.153829 0.668723 -0.528535 0.916275 0.310594 -0.0758635 0.324357 0.685305 -0.551634 -0.200808 0.0183325 -0.751731 0.79994 0.884751 -0.224202 
0.359299 0.67113 0.865593 0.934827 0.139496 -0.190055 -0.215786 0.889791 -0.357192 0.986666 -0.184507 -0.269951 -0.603627 -0.106498 0.632469 -0.229707 -0.660926 0.858302 -0.943861 0.615059 -0.815723 0.116782 -0.809947 0.845341 -0.405736 -0.318157 0.862933 0.301363 -0.955654 -0.748057 -0.860864 -0.944114 0.0572707 0.988917 0.247994 0.183341 -0.348939 -0.45401 0.946045 -0.736915 0.0146415 -0.219396 -0.938054 0.453618 0.137567 -0.224514 -0.871029 0.413363 0.917263 -0.838625 -0.271155 -0.653322 -0.0892313 0.763304 -0.303645 -0.101118 -0.0254226 0.0504625 -0.65593 0.0688881 0.739204 0.35224 0.94321 -0.891654 0.211065 -0.578879 0.452223 0.147194 -0.80067 -0.692482 0.700012 -0.309162 0.141967 -0.772096 0.104204 0.0895154 0.44288 -0.077373 0.237689 0.290344 0.0802091 0.340349 -0.914776 0.546357 0.0470192 0.935886 0.999084 0.870093 -0.108408 0.514791 0.996352 -0.647661 0.495699 -0.97595 0.51458 0.40036 0.0706935 -0.70727 0.484229 0.598388 
0.276177 -0.676565 0.999457 0.195505 -0.827867 0.983975 0.643159 0.97351 0.716167 0.975069 0.85653 0.515164 -0.31662 -0.742358 0.719975 0.946596 -0.318595 0.2821 0.755927 0.714288 -0.631213 0.863685 -0.711328 -0.60506 0.678299 -0.953232 0.79218 -0.114229 -0.951642 0.700007 -0.911396 0.0641087 0.464637 -0.671918 0.797652 0.808177 0.0704581 0.447348 -0.240297 -0.32449 -0.797977 -0.0841926 -0.55021 -0.516711 0.853585 0.0789728 0.641121 0.383849 -0.766874 0.303142 0.548114 0.838501 0.454528 -0.582494 0.239707 -0.310824 0.442984 -0.557255 -0.504459 0.16341 -0.368378 -0.706119 -0.272308 0.162086 -0.0139773 0.729362 -0.253839 -0.978799 0.602507 -0.0638788 -0.749579 -0.03901 0.225774 0.27422 -0.133064 0.973634 0.933376 -0.00333452 0.274497 0.496278 -0.821998 -0.937403 -0.91177 0.908036 -0.917757 -0.868733 0.452354 0.087504 0.501444 0.500523 0.601922 0.0950051 0.731182 0.53422 -0.595669 0.574252 -0.376069 -0.7289 0.54417 0.272898 
0.674504 -0.572694 -0.228032 -0.98279 0.568127 0.166289 0.630418 -0.569143 -0.282034 -0.053149 -0.335884 -0.35597 -0.700639 0.436981 0.867033 0.754584 -0.140573 0.20442 -0.218363 -0.850293 -0.512881 -0.529188 -0.748979 -0.887503 -0.349514 0.236037 -0.700515 -0.431317 0.343815 -0.340994 -0.15667 0.167221 0.662011 0.273819 -0.148169 0.693723 0.568366 0.637718 -0.320325 -0.828831 -0.610086 -0.850249 0.686869 -0.497505 0.102303 -0.184871 0.907563 0.311369 -0.701058 0.154113 -0.256769 -0.726134 0.738078 0.422309 -0.541272 0.321274 0.5003 0.0274467 -0.0566917 -0.155747 -0.597141 0.627051 0.735253 -0.320093 -0.887807 0.871124 0.916018 0.0406398 0.437347 -0.444042 -0.677606 -0.211258 -0.254194 0.0751667 0.887863 0.707633 -0.708984 -0.708266 0.428544 0.65088 0.0208302 -0.593584 -0.279671 -0.275866 -0.293813 0.242741 0.610793 -0.600481 0.780862 -0.0554481 0.8396 -0.856638 0.541326 0.899711 -0.957257 0.334504 0.673651 0.143792 -0.562584 -0.908995 
-0.444661 0.293867 0.141845 0.390417 0.948537 0.84786 0.849825 0.621551 -0.431711 0.179964 0.442516 0.898751 0.83792 -0.705699 -0.210361 -0.171575 -0.95981 -0.0282521 -0.941954 0.338295 0.765977 0.577287 -0.300039 0.842888 0.75041 -0.50471 -0.374225 0.18863 -0.805122 0.650749 0.0447568 -0.160367 -0.11222 -0.00373357 0.199125 -0.194681 -0.990451 0.212323 -0.521727 0.709433 -0.0936918 0.85426 -0.421727 -0.802565 0.516595 -0.0734856 0.661004 0.966052 -0.0320431 0.547754 0.263601 -0.950367 0.619181 -0.515089 -0.981234 -0.95072 0.552564 0.409891 -0.939876 0.634434 -0.906398 -0.869738 -0.00121697 -0.378079 0.93565 -0.0806335 -0.366026 -0.0979433 -0.564096 -0.651711 0.0307576 -0.666519 -0.261466 -0.697282 -0.626282 0.989945 -0.126274 0.509974 0.164691 -0.216709 0.979684 -0.818394 -0.455329 -0.763235 -0.172626 0.0635777 0.773671 0.647701 -0.28293 -0.658764 0.108795 -0.7724 -0.456971 0.644723 -0.31743 -0.411838 0.0974439 0.504596 -0.830536 -0.759883 
-0.594871 -0.298363 0.714324 0.0830579 0.743516 0.684171 -0.153507 0.0747008 0.109643 -0.547103 0.46066 0.489362 -0.820501 0.0632233 -0.29295 0.713756 -0.535566 -0.567768 0.746156 -0.932981 -0.759054 0.787599 -0.21487 -0.186152 0.670512 -0.378974 0.323239 0.513611 -0.766715 -0.561673 0.373318 -0.299165 0.438377 0.0166122 0.660849 0.018589 0.924117 -0.625425 -0.370048 -0.089678 0.546572 0.149392 -0.599457 -0.561873 -0.834004 0.601379 -0.68088 0.157802 0.740357 0.471969 0.165071 -0.727248 0.857909 0.458616 -0.101528 -0.0737793 0.823369 0.577082 0.429303 0.853851 0.691906 -0.423745 0.132001 0.60287 0.13984 -0.572765 -0.833261 -0.0277713 0.498808 -0.113159 0.566528 -0.737014 0.214031 -0.663527 0.142798 0.460837 0.415689 -0.0334105 -0.951726 -0.179581 -0.56337 0.653544 -0.534229 -0.422836 -0.802551 0.766469 0.409944 0.986323 -0.413876 0.681076 -0.118942 -0.515201 0.86088 -0.0032647 -0.970342 -0.704314 -0.575397 0.24649 -0.798719 0.0141586 
0.303978 0.180578 0.675013 -0.869478 -0.0220623 0.795319 0.658363 0.559851 0.384012 -0.0144166 0.790444 0.177376 0.118336 0.595421 0.973918 0.461262 -0.89783 -0.273837 0.986701 -0.157537 -0.161006 0.648158 0.45339 0.193731 0.613704 0.766684 -0.132735 -0.491814 -0.633773 -0.254844 0.741471 -0.323094 0.899965 0.108039 -0.394743 -0.380428 0.471211 0.450224 0.652165 0.614795 0.765172 -0.756786 0.867347 -0.0545014 -0.356556 0.817094 0.628776 -0.91683 -0.48391 -0.334594 0.429574 0.599472 -0.516746 0.867471 -0.629405 -0.798098 0.406726 0.984954 -0.888984 -0.732147 -0.86807 -0.103007 -0.0764531 0.321918 0.6146 -0.186489 -0.488705 0.123998 0.946059 -0.312629 -0.929575 -0.613479 -0.983483 -0.379912 0.329928 0.0110425 0.983683 -0.56201 0.641995 0.559044 0.487621 -0.537753 -0.798545 0.360787 -0.108393 0.161465 -0.781734 0.611606 0.539368 -0.618886 0.1098 -0.03278 0.363337 -0.22733 0.946256 -0.25366 0.393955 0.262447 0.782953 -0.948617 
-0.627317 0.913322 0.0281204 0.887944 0.170111 -0.18426 0.541223 -0.923663 -0.0332835 0.353646 -0.121674 -0.837838 -0.135892 -0.305615 -0.0152761 -0.263644 0.522595 0.600233 -0.324465 -0.193874 0.546845 0.090565 0.191124 -0.0229764 -0.128424 0.492182 0.675754 0.981612 -0.577945 -0.182904 0.354038 -0.815808 -0.400734 0.117225 0.799356 0.380115 -0.774283 -0.0983513 0.860987 0.811846 0.125765 -0.34874 -0.804963 -0.788328 -0.726028 0.98175 -0.245381 -0.891603 -0.0842582 0.476506 -0.210856 -0.605915 0.413987 0.454727 -0.828243 0.97626 0.789743 -0.709006 0.429945 0.236001 0.938173 -0.48036 -0.528867 -0.00887491 0.611805 -0.950717 0.812165 -0.913628 0.478458 -0.281272 -0.590301 -0.349551 0.894555 -0.646902 0.599569 0.278749 -0.543986 0.438355 -0.380602 -0.336742 -0.254152 -0.808223 0.703958 -0.967238 0.692683 0.603192 -0.841032 0.138725 7.66643e-05 0.404873 0.361697 -0.470556 -0.185489 0.911926 -0.33282 0.903512 0.695031 -0.947452 0.611976 -0.288122 
0.793787 0.674129 0.801539 0.536853 0.185448 0.6932 -0.684486 0.45404 -0.423433 0.806581 0.850379 0.481161 -0.318567 -0.369098 0.565439 -0.40737 -0.0501567 -0.803136 -0.307912 -0.173923 -0.059194 -0.417554 0.31115 -0.54228 -0.902655 0.533437 0.565054 0.133198 -0.544299 -0.296359 0.55413 0.297485 -0.24142 -0.82757 -0.897929 0.761188 -0.665448 -0.234333 0.115932 -0.868239 -0.702366 0.490785 -0.515574 0.846798 -0.753748 -0.165205 0.547706 -0.835236 0.134448 0.630215 -0.541239 -0.147404 -0.29799 -0.828519 -0.294928 -0.110233 -0.548983 0.269023 0.798765 -0.843214 0.665698 -0.631396 0.702224 0.338526 0.168415 -0.447084 0.873186 -0.841398 0.734831 -0.0693722 -0.259219 -0.578482 0.530015 0.607447 0.719586 0.437749 0.654917 -0.0821821 -0.931776 0.91401 0.0219172 0.679069 -0.984906 -0.000204904 -0.924583 0.878101 -0.263877 -0.303387 0.660933 0.933569 -0.728323 -0.374048 -0.535244 -0.762149 0.356812 -0.0953418 -0.712571 0.911308 0.490065 0.352377 
-0.62012 -0.0504129 -0.795605 -0.788046 0.0442428 -0.563011 -0.073476 0.0327962 0.19088 0.214838 0.586174 -0.663417 -0.130094 -0.713804 -0.38334 -0.606965 0.661337 -0.269651 0.270484 0.047836 -0.374296 -0.347539 0.0102062 -0.0817083 0.374519 -0.411473 0.317749 -0.763762 -0.651462 0.0714756 0.48857 -0.596403 -0.577006 -0.158284 0.0494689 -0.367498 -0.837773 0.631561 0.438623 0.737618 -0.956433 -0.171009 0.430259 -0.924402 -0.242372 -0.64946 0.639999 -0.6347 0.290113 0.131659 0.475803 -0.467412 -0.0568403 0.653474 -0.946365 0.482198 0.496385 0.903263 0.943422 0.661504 -0.72381 0.564865 -0.58763 0.67875 -0.184015 0.415147 0.270622 -0.662737 0.924164 0.899044 -0.746293 0.754099 -0.93702 -0.563896 -0.65681 -0.289578 -0.0754165 -0.532141 0.172043 0.95715 0.570059 0.858278 -0.168644 0.0206573 0.250838 -0.776682 0.801957 0.451745 -0.791657 -0.539244 -0.814084 -0.121047 -0.737843 0.52389 0.947963 -0.123793 0.668976 0.0660942 0.766912 -0.051507 
0.947322 -0.899265 -0.822803 0.142064 0.919626 -0.712285 -0.977108 0.496065 -0.646044 0.202867 0.178748 -0.0157109 0.435185 -0.318078 0.463406 -0.868081 0.73804 0.13265 -0.640408 0.447643 -0.55823 0.786736 -0.908474 0.778458 0.0605798 0.51485 -0.863327 0.249021 0.832516 0.422306 0.217072 -0.653237 0.152522 -0.80209 -0.399039 0.0107996 0.61029 0.641452 -0.465028 0.490614 0.413989 0.106579 -0.520207 0.336117 0.308061 -0.399841 -0.384741 -0.473523 -0.666995 -0.206385 0.856138 0.136155 0.231349 -0.935574 0.87422 -0.179387 -0.377691 0.353036 0.23501 0.703422 -0.519296 -0.374202 0.206686 -0.436044 0.96985 0.295921 0.77492 0.380665 -0.320649 0.708081 0.897597 0.795961 0.733264 -0.584812 0.0854278 -0.683353 -0.658869 -0.232948 0.279031 0.650524 -0.213742 -0.0681042 0.856946 -0.98787 0.645745 0.581021 0.307409 -0.303948 0.404309 -0.0978312 0.788976 0.622157 -0.480778 0.42651 -0.756361 -0.974003 -0.657386 0.616553 0.299944 0.0991838 
-0.292713 -0.868686 -0.57795 -0.270883 0.257668 0.343309 0.698421 -0.465283 0.420348 -0.0359292 -0.553951 0.517325 0.121113 0.665488 -0.790652 0.910663 0.98251 0.815182 0.936477 -0.131325 0.26 -0.806305 0.137082 -0.4926 -0.540104 0.557634 0.00593707 -0.158965 0.804634 -0.294037 -0.348086 0.241829 -0.113307 0.822169 -0.393798 0.446463 -0.599286 -0.621572 0.7155 -0.187022 0.0627188 -0.443629 -0.185916 -0.809844 -0.0555564 -0.446989 -0.890631 -0.649182 0.819957 -0.611528 0.0914077 -0.556828 -0.872436 0.88289 0.929888 0.0716831 -0.890535 0.373483 0.33083 -0.962197 -0.160977 -0.187362 -0.00333178 -0.0265397 0.176725 -0.0258718 -0.803001 -0.718947 -0.337755 -0.378061 0.805455 0.839196 -0.38827 0.821832 -0.039518 0.115275 -0.600449 0.440264 0.482708 -0.210293 -0.0579732 0.7628 0.822549 0.630616 -0.681415 0.496128 -0.662515 -0.983814 0.707521 -0.270853 0.817726 0.591832 -0.605607 0.487049 -0.922011 -0.828064 -0.106429 -0.987641 0.530126 -0.149737 
-0.8447 -0.780166 -0.664423 -0.841383 0.50637 0.0919331 -0.50832 -0.860971 0.695777 -0.0854656 -0.803582 0.521291 0.763854 -0.0697362 0.342031 0.467661 -0.572415 0.951012 0.643248 -0.879775 -0.215468 0.390897 -0.327065 -0.987733 0.478302 0.716404 -0.561186 -0.172096 0.661523 0.786394 0.83264 0.817102 0.537456 0.83738 -0.674837 0.260444 -0.316267 -0.72567 0.181349 -0.291973 -0.166121 -0.865264 -0.476759 0.439478 0.0986561 0.283562 0.345781 0.372556 -0.30593 -0.291709 0.564143 0.429441 -0.587656 0.169632 -0.445811 0.332998 0.0531939 0.245579 0.749146 0.114346 -0.417809 0.534683 0.128978 0.787834 -0.0947927 -0.360019 0.886192 -0.0251318 0.432836 0.085193 0.996381 0.118875 0.515837 0.0480554 -0.884934 -0.832478 -0.308779 0.9434 0.495045 -0.847884 -0.959165 -0.0785236 0.410177 0.390377 0.836277 -0.958495 0.172914 0.27997 0.683063 0.9595 -0.247201 -0.194237 -0.958713 0.0810901 -0.489225 -0.193635 -0.749143 0.501815 -0.589782 -0.0516973 
-0.745425 0.981886 0.551625 -0.293023 0.742295 0.158914 -0.851787 0.285003 0.105004 -0.167073 0.0304421 0.659617 0.0407701 0.244378 -0.490415 0.529963 0.695185 -0.341553 -0.750811 0.309913 0.260913 -0.76977 0.233455 0.284759 0.0539656 0.933102 0.990646 0.840055 0.970026 -0.244671 0.966332 -0.702739 -0.380593 -0.155699 -0.82248 -0.468894 -0.409711 0.420664 0.231705 -0.727009 -0.744886 0.239341 0.144768 -0.506691 0.859202 -0.877818 0.453416 0.245577 0.632849 0.676047 0.483987 0.177439 0.318517 -0.149399 -0.785983 -0.714079 -0.420354 0.828631 0.548733 -0.487657 0.399346 -0.0346788 0.646739 0.500432 -0.802599 0.00210264 0.213197 -0.718706 -0.22456 0.261551 -0.278667 0.771702 0.660873 0.968887 0.130177 0.369239 0.916154 -0.424847 0.341224 0.114934 0.263325 0.329294 0.307242 -0.186792 0.482664 -0.227628 0.963596 -0.369324 0.910793 -0.570462 0.987287 -0.575055 0.918962 -0.539808 0.80922 -0.163909 -0.867577 -0.600796 0.196785 0.716522 
-0.115671 0.390646 0.78578 -0.270543 0.459802 -0.869398 0.274968 -0.29507 -0.16435 -0.72683 0.760666 0.893096 -0.771644 0.616571 -0.236408 -0.954414 0.588215 -0.29784 -0.569333 0.485806 0.25225 -0.241813 0.24312 0.399994 -0.15782 0.406512 -0.590491 -0.593484 0.496308 0.625877 -0.656206 -0.804623 0.863012 -0.682727 0.825277 -0.603802 0.651797 0.795601 0.107765 -0.532849 0.0969389 -0.971861 -0.82256 -0.895727 0.512699 -0.741824 -0.196779 -0.863892 -0.722239 0.54029 -0.708442 -0.842982 -0.709761 0.955385 -0.817845 0.43725 0.861221 -0.639056 0.110532 -0.398976 0.805942 -0.632253 0.511439 -0.305377 -0.194145 0.704646 0.288395 -0.998718 0.96354 -0.464263 -0.35195 0.747326 0.545248 -0.474265 0.420159 0.645994 0.979559 -0.984119 -0.253185 0.318525 0.22239 -0.0666474 0.751122 0.55695 -0.319099 0.113574 -0.215662 -0.436422 -0.675537 -0.979568 -0.3981 0.712245 0.989593 0.959696 0.936029 0.970613 0.253797 -0.437362 0.163897 -0.213531 
0.0435622 -0.714554 -0.520844 0.543185 0.62026 0.243891 -0.71829 -0.166821 0.0266773 0.126394 -0.209223 0.602035 -0.659361 0.508408 -0.00869837 0.92242 0.258965 -0.971407 0.365555 0.75873 -0.297854 0.784155 0.762867 -0.205661 -0.82002 -0.45781 0.94368 -0.0428845 0.80876 -0.970463 -0.942154 -0.538694 0.378506 -0.847792 -0.987038 -0.259316 -0.19554 -0.762074 -0.316847 0.0496147 0.457324 -0.321202 0.31266 -0.660531 -0.0492698 0.88344 0.754467 0.867564 -0.852101 0.0750706 0.800697 0.79193 -0.449954 0.204666 0.778455 0.254355 -0.201423 0.591772 -0.692151 -0.75877 -0.0877323 -0.148732 -0.72567 0.111673 -0.414218 -0.647656 0.545774 -0.573404 -0.836867 -0.167081 -0.884101 0.898021 0.0626406 -0.832699 0.0635442 -0.635449 0.0306372 0.283468 -0.182036 -0.410616 0.365214 0.469612 -0.850683 0.994544 0.795258 -0.350314 0.430557 -0.892602 0.162155 -0.30241 -0.935369 0.656491 0.0250737 -0.754885 0.964266 -0.211825 0.0176477 0.152226 -0.739104 0.523562 
-0.796018 -0.15923 0.500238 0.468573 0.220077 0.513039 0.516758 0.159257 0.628729 0.920261 -0.824538 -0.162082 -0.724181 -0.770564 -0.0922995 -0.947876 -0.155915 0.244462 -0.450441 0.935049 -0.492359 0.17527 -0.54541 0.141822 -0.0636255 -0.0366148 -0.161429 0.287447 -0.386522 -0.308287 0.709104 0.933224 0.173791 -0.316572 -0.459336 0.847952 -0.791828 -0.871088 -0.223816 -0.809752 0.613308 -0.683888 0.0147298 0.724216 -0.934581 -0.482954 -0.479418 0.451888 -0.540386 0.0699672 0.0999054 -0.489787 -0.831064 -0.875328 0.16378 0.126629 -0.628798 0.728556 0.0298352 -0.374774 -0.168154 -0.31006 -0.170188 -0.896055 0.176334 0.429093 -0.286499 0.510829 -0.368582 -0.652309 0.998825 0.894142 0.074692 0.29647 0.831021 -0.108082 0.991829 -0.884953 -0.890906 -0.0817879 -0.0264696 0.450402 0.795685 0.733886 -0.714832 0.232876 -0.708286 -0.921703 -0.269426 0.522628 0.878256 -0.824968 -0.165109 0.795819 -0.538869 0.697225 0.293269 0.791913 -0.794212 0.348676 
0.0239423 0.126476 0.885786 0.193853 -0.452278 -0.498141 -0.41383 -0.5493 -0.589251 -0.0514783 0.802067 0.178557 0.0809968 -0.376513 -0.373215 0.30342 -0.130138 -0.184114 -0.837165 -0.53944 -0.381921 -0.81214 0.549999 0.0966995 -0.864619 0.683799 0.175995 0.551894 0.285898 0.858085 -0.271804 0.855037 -0.382702 0.676314 0.19867 0.123902 -0.949852 0.395062 -0.214753 0.531238 -0.431928 -0.494907 -0.715506 -0.951523 0.602073 0.815622 0.336277 0.206375 0.642445 0.0915003 -0.124271 -0.269179 -0.590439 -0.905179 -0.698644 0.268452 -0.713334 0.489896 0.421114 0.205681 0.00043465 0.591333 0.949188 -0.622504 -0.988027 -0.850299 0.0852289 0.232139 -0.145657 -0.734579 -0.388294 0.12313 -0.0187078 0.716945 0.469267 -0.837484 -0.437641 -0.419345 0.228816 -0.564358 -0.468104 0.808406 0.223208 -0.0865212 -0.842095 0.814936 0.634084 0.589582 -0.56966 -0.929686 0.762976 -0.280345 0.323014 0.646674 -0.669156 -0.584846 0.434223 0.161002 -0.380585 -0.412388 
0.199453 0.234281 -0.465796 0.291511 0.110784 -0.203138 -0.560692 -0.99126 -0.128518 -0.951027 0.296431 -0.299073 0.710844 0.826159 -0.721658 0.457236 -0.156641 0.753848 0.630125 -0.988896 -0.357366 0.411804 0.781109 -0.287587 -0.0399871 0.898343 0.853331 -0.604342 -0.34458 -0.889629 -0.0588568 0.455327 0.24551 0.853053 -0.218604 0.545914 -0.359463 -0.486911 0.122943 0.859693 0.615553 0.433732 0.244887 0.793027 0.891949 0.109724 -0.898692 0.601496 -0.576923 0.280073 -0.854777 -0.842912 0.231543 0.960182 -0.639305 0.415727 0.271773 0.370737 0.0120706 0.492194 0.420242 0.944476 0.746112 -0.932997 -0.943009 0.694394 0.699312 0.0735179 0.910731 -0.243646 0.356549 0.918314 -0.294325 -0.342633 -0.0893176 -0.760304 0.0615573 0.489335 -0.048405 -0.787858 -0.223619 0.699567 -0.60463 0.764166 -0.365466 -0.458435 -0.195448 0.45847 0.936246 0.181421 -0.392844 -0.313281 0.232281 -0.663868 0.432787 0.502544 0.256431 0.133256 -0.51416 -0.160742 
0.589622 0.56868 -0.609979 -0.411336 0.514429 -0.232494 -0.666645 -0.171837 0.840882 -0.685134 0.33586 -0.342443 -0.55872 -0.431706 -0.882875 -0.626807 -0.677953 0.784621 0.259597 0.86461 0.850005 -0.207609 0.250812 -0.850743 -0.225545 -0.446141 0.707479 0.846977 -0.302361 0.69112 0.562075 0.710167 0.871088 -0.472032 0.915153 -0.932308 -0.284729 -0.724522 -0.767388 -0.111838 -0.730804 -0.478013 -0.566007 -0.37975 0.748256 0.711939 -0.400282 0.912173 0.30977 0.896063 -0.318225 -0.0711581 -0.804378 0.287709 0.946619 -0.158858 0.912841 -0.777619 -0.798938 -0.901293 -0.020896 0.635512 -0.0553141 -0.699666 0.26033 0.113095 0.566269 -0.977781 0.357055 0.376834 -0.397976 -0.202064 0.645154 -0.529657 0.286917 0.0140479 0.561157 0.119373 0.732122 0.75727 -0.913272 0.143359 -0.491467 0.173872 0.988643 0.53621 0.828647 -0.258268 -0.141972 -0.578068 -0.396748 -0.275349 -0.467198 0.787885 -0.713263 0.42387 -0.0826757 0.498386 0.541213 -0.96704 
0.517334 -0.579556 0.963401 0.00304115 0.54568 -0.868687 -0.997236 0.307937 0.385799 -0.763245 0.674945 0.990872 -0.507309 0.910909 0.650102 0.212509 0.652352 0.638622 -0.764247 -0.233239 0.352821 -0.715726 -0.727375 0.665357 -0.264695 0.343661 0.873562 -0.469423 0.604228 -0.310127 -0.36373 0.670177 0.278357 -0.258569 0.762204 0.332165 -0.432707 -0.697806 0.953016 0.925249 -0.0643012 -0.982835 -0.1524 -0.884488 0.369073 -0.999803 -0.18961 -0.958988 0.912224 -0.399512 -0.0341148 -0.248909 0.941593 -0.392224 -0.656488 0.215282 -0.401665 0.670883 0.112139 0.638346 0.0831078 0.704077 0.51261 -0.371231 -0.397469 0.602372 -0.285097 0.970205 0.720921 -0.552682 0.78447 -0.897297 -0.368634 0.936101 0.114145 0.852607 0.66615 0.706127 0.576894 0.577967 0.195277 0.190697 -0.628482 -0.58116 -0.465899 -0.778524 0.857778 0.230697 0.677512 -0.0956043 -0.931768 -0.847933 -0.0475376 -0.870126 0.410943 0.0317443 0.920734 0.116135 0.0557838 0.963163 
-0.239868 -0.303448 -0.369964 0.182048 -0.779779 -0.914453 -0.192491 0.229987 -0.608689 -0.435886 0.370214 -0.94889 0.335366 -0.489524 0.306215 0.525399 0.938236 -0.855806 -0.507488 -0.793584 -0.687278 0.509949 0.347354 -0.118207 0.39121 0.897642 0.689877 -0.350176 0.582312 0.407762 0.215149 -0.0162238 -0.0564328 0.204725 -0.884675 0.656442 0.276895 0.892435 -0.774394 0.277086 -0.964777 -0.347857 -0.172146 -0.606257 -0.727864 0.711863 -0.28053 -0.449321 -0.244932 -0.059949 -0.317179 0.445564 0.193033 -0.29747 -0.0410834 -0.495903 -0.456023 -0.517516 -0.140609 0.0686555 0.0966803 0.820047 0.132724 -0.251148 -0.309802 0.418954 -0.918741 0.0770575 0.176839 0.416655 0.11782 -0.958216 0.254843 0.14666 0.855733 0.423902 -0.0288554 0.0376293 -0.462014 -0.138761 -0.789565 -0.220425 -0.663043 -0.265975 0.478898 -0.621493 -0.733783 0.888927 0.119096 0.896255 0.654383 -0.792638 0.0161201 -0.201831 0.444991 0.0541769 -0.112672 0.0388941 0.404061 -0.87041 
0.774138 -0.439007 -0.369687 0.844551 0.395888 0.993098 0.61765 0.960078 -0.840246 0.89278 -0.902395 0.950386 0.602081 -0.58453 -0.707864 -0.944154 0.84462 0.876844 -0.0257017 -0.591873 0.315807 -0.553061 -0.146857 -0.966767 -0.790406 -0.983944 -0.718418 0.601835 0.438796 -0.116772 -0.120631 0.329132 0.245594 -0.537708 0.274012 0.976984 -0.0873218 0.907165 -0.356081 0.0251739 -0.311229 0.93553 0.968833 -0.301087 -0.61081 -0.833756 0.203685 0.21079 0.861729 0.980578 0.699498 0.418949 0.266093 -0.0590311 0.699248 -0.369648 0.466118 -0.722036 0.658926 -0.591588 0.937508 -0.0164663 0.896285 0.729471 0.209465 0.444939 0.481339 0.413245 0.428306 -0.304947 0.193113 -0.119229 -0.909438 0.107669 -0.191547 -0.228075 -0.622983 -0.670414 0.576951 -0.473562 0.980567 0.635221 0.822394 -0.997107 -0.432305 0.100931 0.259586 -0.921417 -0.540897 -0.039979 0.267153 0.318932 -0.997386 0.458599 -0.331785 0.688922 -0.0730967 0.500493 -0.439943 0.545187 
-0.403268 -0.497016 -0.864764 -0.134401 -0.81995 -0.437188 0.398792 0.425477 0.021415 -0.960815 -0.880754 0.735789 0.215491 -0.198068 0.505537 0.0228663 0.246273 0.64797 -0.855887 -0.106072 0.00699677 -0.237641 0.239232 0.481885 -0.27678 -0.0717535 -0.867309 -0.468409 -0.958077 0.225116 -0.732748 0.557274 -0.59128 -0.370928 -0.310779 -0.178476 -0.483028 0.182272 -0.429603 -0.269985 -0.447014 -0.849808 -0.820759 0.667298 0.885681 0.726656 -0.918656 0.642325 -0.95492 0.80887 0.321424 0.218396 0.136521 -0.00344127 0.282089 -0.763407 0.84787 0.0522769 -0.137353 0.667837 -0.0703949 -0.358396 0.0719661 -0.59301 -0.235798 0.809771 -0.743261 0.197043 0.411189 -0.604664 -0.282357 -0.943467 0.00978974 -0.607491 -0.35385 -0.453382 0.502173 0.0977544 0.732324 0.430553 -0.952658 0.871405 -0.872842 0.262129 0.0349074 -0.803957 -0.0587399 -0.162883 -0.167461 0.303298 -0.885793 -0.773248 0.0134914 0.114396 0.906676 0.588372 -0.214852 0.27504 0.121461 -0.87345 
-0.583514 -0.445537 -0.305348 0.84312 0.988867 -0.254816 0.00772312 0.925361 0.828463 -0.148367 -0.932998 -0.0983235 -0.397365 0.711785 0.0156296 -0.806547 0.972747 -0.93213 0.581989 -0.438426 -0.970703 -0.864063 -0.102482 -0.417503 -0.714913 -0.82955 -0.471658 0.404898 0.0416664 0.0813346 0.0568622 0.881472 -0.141736 -0.747738 0.869148 -0.830371 0.981666 -0.293483 0.951696 -0.650343 -0.431172 -0.0576693 0.137175 0.482147 0.206626 0.333381 -0.904813 0.33549 0.945583 0.641404 0.598058 -0.392004 0.0392211 0.857649 -0.0381587 0.422715 0.0230815 -0.746131 -0.824239 0.404179 0.970097 -0.60781 -0.34463 0.448366 0.456035 -0.168444 0.597445 -0.811532 -0.122479 0.557389 0.716727 -0.2158 0.733836 0.522774 0.0402435 -0.726735 0.910226 0.0933831 0.809532 0.255387 -0.625741 0.20517 0.246481 -0.117694 0.269679 0.400353 -0.616784 0.0879985 0.288937 0.0832354 0.953616 0.96554 0.188586 -0.462899 0.941777 0.055544 -0.130162 0.399015 0.192526 0.62193 
0.311599 -0.398743 -0.869051 -0.644256 -0.0309337 -0.014484 0.283178 0.264547 0.748701 -0.554003 0.611007 -0.0335437 0.41876 0.306214 0.0593293 0.736758 0.0579153 -0.417149 0.997591 0.257146 0.348239 0.541003 -0.0690299 -0.631853 0.789812 0.562244 0.178794 0.247433 -0.881519 -0.926311 0.33648 -0.251818 0.0480498 0.437423 -0.244595 -0.399608 0.818025 0.975921 0.19792 -0.270051 -0.888414 0.306777 -0.0684176 -0.363011 0.305876 0.507181 -0.210569 -0.721988 -0.245245 -0.0355397 -0.664103 0.750217 -0.871113 0.343129 -0.607939 -0.231062 0.0760595 0.379337 -0.719782 -0.615472 -0.891226 0.0878531 0.957811 -0.437799 0.367339 -0.660482 0.654356 -0.180128 -0.0250328 -0.538021 -0.905773 -0.962702 -0.60615 0.541009 -0.27291 -0.79812 -0.231651 -0.429161 0.271235 -0.748632 0.446495 0.868542 0.156045 -0.268718 -0.900882 0.938256 0.75018 0.633272 -0.336596 -0.319961 0.811299 0.214542 0.727038 -0.500974 0.346071 -0.190156 0.16606 0.872282 0.538049 -0.317195 
-0.130454 -0.00154855 -0.656423 -0.135775 -0.379793 0.40154 0.0504339 -0.890415 0.0603977 0.897042 -0.856222 -0.197002 -0.535924 0.364945 -0.613702 0.995023 0.632185 -0.931309 -0.633194 -0.3841 0.552178 0.636793 -0.276088 -0.207204 -0.175937 -0.0827375 0.191768 0.572951 -0.293531 0.123141 0.903445 -0.49428 0.501944 0.85474 -0.734192 0.296381 0.168018 -0.354179 -0.144917 0.264443 -0.73729 -0.0688546 -0.5052 0.0510921 -0.774592 0.220028 -0.831711 0.0149524 -0.271035 0.501833 0.48848 0.693828 0.774041 0.085796 0.89415 -0.619118 -0.0426608 0.161946 -0.342584 -0.592407 0.721113 0.260787 0.155583 -0.695062 -0.42936 -0.655828 0.665031 -0.24763 0.634857 0.216968 0.575922 0.822329 0.392496 0.731207 -0.674338 -0.785357 0.746542 0.539395 0.936773 0.403652 0.777867 -0.473407 -0.217219 -0.629801 -0.404813 -0.780998 -0.195481 -0.260331 -0.0155141 0.430785 -0.761746 -0.666162 -0.601807 -0.405919 -0.828753 0.758325 0.693233 0.241032 -0.562584 -0.773432 
-0.318089 -0.65858 -0.782809 0.249555 -0.815066 0.367135 0.291264 0.505526 -0.14708 0.152794 0.126307 0.0937399 -0.826991 -0.468406 0.00862612 -0.98042 0.362431 0.434164 0.243877 -0.340729 -0.502461 0.328585 0.0993268 -0.214018 -0.646066 -0.446662 -0.905659 -0.164367 -0.198823 -0.714067 0.360488 0.835568 0.924336 -0.652442 0.198634 -0.147289 -0.581895 -0.601074 -0.642767 0.0954802 -0.063954 -0.118093 -0.924596 0.882409 -0.703843 -0.632585 0.955303 0.0900282 0.160489 0.67007 0.166461 -0.37214 -0.012145 0.335691 0.037228 -0.813232 0.996506 -0.967543 0.596156 0.59574 0.250478 -0.271144 -0.0824042 -0.630001 0.070387 -0.750572 0.725267 -0.509219 -0.849165 -0.0279423 0.896862 -0.8569 0.61623 -0.848398 -0.928767 -0.486576 0.674166 0.0785581 -0.853051 0.0664982 -0.0749888 0.71793 -0.846566 -0.299164 0.938936 0.524233 0.212997 -0.550766 0.377788 -0.917479 0.917553 0.690517 0.26461 0.0730534 0.495832 0.674223 -0.522162 -0.117856 -0.827624 0.0107275 
-0.292543 -0.125071 -0.0350302 -0.387215 -0.812877 0.332848 0.664156 0.455768 -0.519808 0.845543 0.587213 -0.0782284 -0.562984 0.379069 -0.0586129 -0.614879 -0.208295 0.871922 -0.644939 0.832745 -0.431423 0.795206 -0.538132 0.994281 -0.776928 -0.401903 -0.711398 -0.879996 0.0121016 -0.00989319 0.449513 0.119575 0.740502 0.18792 -0.597168 -0.135412 0.695292 -0.249026 -0.602525 0.657555 -0.135339 -0.301117 -0.942675 -0.231932 -0.655552 -0.442419 -0.892083 0.779463 0.619017 0.646896 0.918596 0.799523 0.467914 0.839593 -0.606926 0.697672 -0.842364 -0.270291 -0.0481699 0.93274 0.421251 -0.57871 -0.0382745 -0.768024 -0.632409 -0.775218 -0.390424 0.925643 -0.985952 -0.733998 0.792988 -0.538982 -0.846457 -0.776536 -0.294533 -0.847446 0.870739 -0.960174 -0.486392 -0.939147 0.523074 0.720865 0.535651 -0.923047 0.694066 -0.395134 0.944921 0.159136 0.285823 -0.0595357 -0.524248 0.484091 -0.0901149 0.72101 0.542766 -0.719431 0.393298 0.145456 -0.0828796 0.12729 
0.863353 -0.40577 -0.681709 -0.799031 -0.523691 0.914839 -0.452721 0.307142 0.938074 0.0462593 -0.0746051 -0.352335 -0.141802 -0.732997 -0.52555 0.542889 -0.945617 -0.0934818 0.910504 0.747613 -0.386428 0.585729 -0.0260227 0.341726 0.0159176 0.281847 -0.0808222 -0.821833 0.423288 -0.996658 -0.0395641 -0.266049 -0.262787 0.225356 0.474117 0.927653 -0.768249 -0.110904 0.45887 0.483129 0.136211 -0.125936 0.0754234 -0.802681 -0.515117 -0.630068 0.869163 -0.0503656 0.976401 -0.708603 0.0851488 0.669812 0.431191 0.933584 0.6772 -0.88066 -0.532883 -0.329551 -0.658869 0.424465 0.266964 -0.467831 -0.521468 0.706888 -0.488541 -0.397878 0.896643 0.796199 0.879239 0.201446 -0.216145 -0.72166 0.150461 -0.683625 -0.0484713 0.718644 0.838227 0.146088 0.714233 0.606932 -0.281424 0.355741 -0.792055 0.674029 -0.692968 0.200609 0.904455 -0.564809 0.866795 0.883965 -0.542327 -0.887806 0.737174 -0.637892 -0.917255 -0.163333 -0.922126 0.658389 -0.0601884 -0.915724 
-0.752358 0.925016 -0.945997 0.0439761 0.89069 0.520843 -0.651531 0.472375 0.230618 0.698297 0.293637 0.0423553 -0.819888 0.37244 -0.119277 0.792947 -0.844316 0.742864 0.540837 0.450889 0.520438 0.852362 0.0500297 -0.962562 -0.835626 -0.0321599 0.419353 0.0412545 0.178981 0.502464 -0.583535 0.813059 0.704311 0.425266 -0.883753 0.466668 -0.233961 0.44838 0.984595 -0.438366 0.692291 0.575122 -0.351471 -0.505375 -0.705678 -0.39643 0.319946 0.902482 -0.145533 -0.879238 0.563986 0.891575 0.413829 -0.583217 0.698255 0.578329 -0.13249 -0.588484 0.880752 0.966655 -0.228022 -0.965195 0.926827 0.622669 -0.490046 -0.450996 -0.912726 -0.918928 -0.812469 -0.541651 0.921131 0.814519 0.663051 -0.385102 0.48201 0.742003 -0.6698 -0.324141 -0.104385 0.776157 0.311322 -0.208989 -0.870912 -0.520288 0.137769 0.294118 0.259493 -0.839938 0.356733 0.650862 -0.647942 -0.861867 0.680602 -0.846828 0.0874518 0.101239 -0.197958 0.0945441 0.877236 0.959074 
0.412183 0.353176 -0.358488 0.975726 0.0736738 0.876859 0.433113 -0.163124 0.581687 0.811858 0.582636 -0.330196 0.0184439 -0.281864 -0.872893 -0.240345 0.650024 0.0549582 -0.876211 0.431916 0.802946 0.150113 0.173991 -0.750391 0.231834 -0.445838 -0.426745 0.0887846 0.532656 0.752709 0.98743 0.457864 0.511902 -0.583607 -0.0361344 0.86153 0.384652 -0.973716 -0.414301 0.455908 -0.290138 -0.94933 -0.126019 0.304981 0.498826 -0.732596 -0.0152823 -0.758815 0.848275 -0.224765 -0.0776405 -0.485057 -0.735678 0.996264 0.52086 0.693078 0.3272 -0.612266 -0.972253 -0.0892733 -0.89336 0.015587 0.327557 -0.766133 0.659738 -0.957334 0.51376 0.108663 0.244278 -0.450047 -0.977295 -0.308233 -0.584214 0.56605 -0.988203 -0.435949 0.541835 -0.113904 0.391681 -0.248528 -0.57376 -0.591227 0.297865 0.702234 0.381648 -0.35701 -0.0853042 0.492522 0.467499 0.681215 -0.0223286 0.179082 -0.00450654 0.807054 -0.0403607 0.603892 0.695382 0.352788 -0.853341 -0.901009 
0.8698 -0.815367 -0.737461 0.765011 0.620897 -0.432502 0.811196 0.874903 -0.963451 0.863332 0.193035 0.173886 0.536023 -0.621529 0.730628 -0.393909 -0.760484 0.686287 0.0251201 -0.594357 -0.340195 -0.487822 0.900772 -0.630463 -0.425325 0.168421 -0.103341 0.203 0.792926 0.777795 -0.685768 0.876127 0.118603 -0.0806355 0.962934 0.414362 -0.403538 -0.132046 -0.883431 0.98614 -0.847142 -0.25305 0.68862 -0.671124 -0.699886 -0.710966 0.093251 -0.772562 0.568582 -0.147834 0.0442493 0.702063 0.482531 -0.294742 0.624528 0.824186 0.567872 -0.993177 0.9371 0.760718 -0.63033 0.648507 0.112461 -0.490545 -0.614043 0.985348 0.961683 -0.839615 -0.702641 -0.578993 0.348087 0.635056 -0.666531 -0.207414 0.840585 0.888271 0.637702 0.746549 0.957769 -0.0205189 -0.589292 -0.529232 0.109121 -0.661908 -0.529095 -0.0124261 -0.0494309 0.263585 -0.916212 -0.976278 -0.366356 0.125471 0.233124 -0.770043 0.356161 -0.708737 0.228602 -0.77925 -0.15901 0.18508 
-0.116949 0.596851 -0.511292 -0.0771297 -0.693251 0.18621 -0.692899 -0.542837 -0.353558 0.608422 0.258767 0.138629 0.257709 -0.433427 -0.996866 0.845244 -0.146945 -0.482127 0.17062 -0.574701 -0.830476 -0.413882 -0.376419 0.786593 -0.153837 0.898869 0.507656 0.156596 -0.60006 0.860069 0.87125 -0.86508 -0.0920967 0.12672 0.491969 0.65557 -0.911383 0.573843 0.376511 0.0120109 -0.415103 -0.127087 0.717999 0.798934 0.150116 0.267017 -0.0358379 0.525368 -0.654048 -0.463405 -0.909953 -0.899738 0.753873 -0.693321 -0.631536 0.909133 -0.640823 0.133346 -0.27017 0.661908 0.0622425 -0.104751 -0.63238 -0.29323 -0.534307 -0.88121 -0.55166 0.690542 0.0797725 0.427398 0.0954126 0.106444 0.563607 0.691869 -0.27168 0.763468 0.121947 0.249884 0.646631 0.466373 -0.85478 0.683632 0.441395 -0.159221 -0.661399 -0.23941 0.919289 -0.451549 0.783982 0.080224 -0.527461 0.0359005 -0.110058 -0.916718 0.121282 -0.800568 0.148606 0.271545 0.457131 0.987459 
-0.813012 -0.841367 -0.876371 -0.946098 -0.472477 -0.442235 0.911735 -0.907218 -0.5795 0.123924 0.203949 -0.238045 0.826736 -0.959882 -0.216204 0.96207 -0.5494 0.443235 0.990763 0.0896013 -0.0980624 0.589685 -0.560506 -0.734465 -0.458666 0.142437 -0.20538 -0.316367 0.648098 -0.107764 -0.991349 0.483754 0.28355 0.933416 -0.507804 0.730883 -0.630361 -0.976731 0.283144 0.678081 -0.14261 -0.349491 0.906807 -0.0425807 0.0442728 0.994976 0.718844 -0.819653 -0.0945888 -0.303373 -0.437505 -0.636579 -0.07366 0.631668 -0.932974 -0.317389 -0.24858 -0.723016 -0.416636 -0.668524 0.858724 0.51486 0.456593 0.278876 0.480191 -0.663903 -0.909814 0.359918 -0.435863 -0.511244 0.24329 -0.083582 -0.0784819 0.136987 -0.850653 0.761841 0.910655 0.450363 -0.656317 0.530246 -0.109674 0.140533 -0.997486 -0.143538 0.649423 0.957598 0.947713 -0.397179 -0.525535 0.702398 0.823242 0.868682 0.158741 -0.700517 -0.953202 -0.302902 -0.629943 -0.472846 -0.299904 -0.789359 
-0.314927 -0.450689 -0.435431 0.163214 -0.286665 -0.369682 -0.784231 -0.277068 -0.128875 0.314911 -0.863712 0.190308 0.459548 -0.115755 0.8966 0.472675 0.403556 -0.701492 0.74643 0.012222 0.544464 -0.883595 0.124716 -0.845521 -0.581392 0.158434 0.807217 -0.757372 0.118976 0.842174 0.700444 0.0863376 -0.817867 -0.259566 -0.862763 0.464416 -0.913452 0.147618 0.854493 0.32371 0.387977 0.885575 -0.793015 0.713661 0.502289 0.824723 0.624998 0.717102 -0.260892 0.131488 -0.898631 0.583624 -0.915439 0.678819 -0.955753 -0.853973 0.826064 -0.822257 -0.36663 0.863519 -0.0415025 0.360819 -0.0194667 -0.00715489 -0.0639245 -0.927557 -0.329823 0.52227 0.893425 0.122757 0.121334 -0.626981 0.990263 0.565456 0.161759 0.76281 0.597883 0.934224 0.401824 0.596554 -0.0521957 -0.907249 -0.198151 0.344033 0.54071 0.870663 0.464957 -0.70837 -0.327262 0.330058 0.428702 -0.731736 0.916491 0.202014 0.54052 -0.978428 0.718537 0.170677 -0.0728257 0.807747 
-0.391408 0.0501658 0.166617 0.139112 -0.661759 -0.938057 -0.629042 0.859041 -0.86406 -0.684559 -0.894466 0.184104 -0.42412 -0.798432 0.0918071 0.830092 -0.910444 -0.203936 -0.173923 -0.713604 -0.561335 -0.0490603 0.00187505 0.954993 -0.529229 0.640264 -0.90104 -0.506632 -0.160622 -0.0664908 0.0782735 -0.144839 0.420175 -0.982156 0.0419698 -0.838239 0.478984 0.489605 -0.350001 0.28028 0.818007 -0.853838 -0.818943 0.589252 -0.304281 -0.328072 0.0984939 0.105631 0.586397 0.137974 0.563632 -0.789351 0.623176 -0.544221 -0.0744068 0.96793 0.986197 -0.657748 -0.141993 0.383445 0.507135 0.907482 0.832144 -0.11596 -0.757407 0.201547 0.60082 0.508677 -0.856969 0.852308 0.771848 -0.0714331 0.0878412 -0.965885 0.854109 0.776099 0.689963 0.101928 -0.0911105 -0.438212 -0.764702 -0.573392 0.628132 -0.0263578 -0.763469 0.0992757 -0.0162083 0.168477 0.0529284 -0.29432 -0.80333 0.748962 0.234093 -0.527503 -0.856791 -0.302878 -0.314555 0.919076 0.94487 -0.827986 
-0.19611 -0.735262 0.411886 0.206827 -0.88911 -0.28731 0.26899 -0.0182072 0.439166 0.766699 -0.539032 0.350618 -0.896494 -0.54601 0.236357 -0.702119 0.707321 0.310816 -0.426886 -0.448183 0.767208 0.0490057 -0.961214 -0.540557 -0.0264454 -0.931851 0.563896 0.197451 -0.427643 0.369887 0.687928 0.743409 0.878429 0.943324 0.75151 -0.743452 -0.0290312 -0.302255 -0.87559 -0.251277 -0.326049 0.344394 -0.995818 -0.84009 0.371486 0.479563 0.0476119 -0.995442 -0.820337 0.0492136 -0.054157 -0.330448 -0.894424 -0.517608 -0.713655 0.810034 -0.409411 -0.693025 -0.689106 0.138782 0.0136628 -0.613763 -0.779011 -0.216435 0.0217273 0.728035 -0.0136776 -0.0674526 -0.912501 -0.44935 0.00400339 -0.757625 -0.171719 -0.536876 -0.285883 0.763327 0.211446 -0.387015 0.579866 0.742527 0.97893 0.748933 -0.486245 -0.798231 0.852053 0.996755 0.657937 0.304954 -0.256397 -0.136621 -0.121057 -0.661712 -0.141491 -0.230247 0.223908 -0.551042 0.31058 0.974112 0.282587 -0.989641 
-0.440276 0.17207 0.366486 -0.296127 0.125421 0.0879189 -0.613184 0.738592 -0.448801 -0.139603 -0.371055 -0.111176 0.982325 -0.8365 0.105646 -0.766712 0.57263 -0.50398 0.0556519 -0.0316717 -0.508471 -0.859128 0.900699 0.843985 0.57242 0.44046 0.428619 0.341928 -0.894788 -0.78456 0.484758 0.179428 -0.476582 0.185566 0.450773 -0.394785 0.813978 -0.229775 -0.146352 0.348473 0.974757 -0.286035 0.806097 -0.441954 -0.557816 -0.423406 -0.348972 0.719029 -0.721641 -0.534488 -0.123866 0.513809 0.827896 0.712478 -0.272489 0.572227 0.29521 -0.653637 -0.99031 0.225448 0.00155679 -0.462263 -0.81524 -0.0367503 0.223056 0.772383 0.82931 -0.279095 -0.774668 -0.0927081 -0.449645 0.300651 0.699394 -0.0402856 -0.826557 0.809056 0.568889 -0.392295 -0.516175 -0.0486578 0.176969 0.0405203 -0.0412045 0.929527 0.432284 0.0668957 -0.843784 0.598833 0.366364 -0.283284 0.499646 0.96164 0.218482 0.318327 0.790679 0.679243 -0.812032 -0.164967 -0.295907 -0.142821 
0.948482 0.60938 -0.273922 0.194472 0.119848 -0.12879 -0.298696 -0.561239 0.159449 -0.980611 0.828825 0.632665 0.767657 -0.628887 0.0427297 0.935785 -0.441959 -0.844496 -0.269498 0.331037 0.837717 0.926221 0.0433055 0.989973 -0.075017 0.618434 -0.293483 -0.282946 0.30187 0.884795 0.428401 0.0207343 -0.42784 -0.409739 -0.8065 0.953298 0.638969 -0.531067 0.403691 0.920866 -0.0117519 0.121501 -0.058535 -0.360672 0.58078 -0.386813 0.566629 0.962686 -0.75851 0.0755893 0.377621 -0.776934 -0.670869 0.701015 0.671494 0.661393 0.55503 0.0509546 0.441688 -0.826481 0.922079 0.736127 -0.37421 -0.481719 -0.941367 -0.102763 -0.956102 -0.0177906 -0.987484 -0.897418 -0.659821 0.819184 0.612726 0.386569 -0.752485 -0.600395 0.643417 -0.177566 0.260219 0.245637 -0.718467 0.777652 0.114005 -0.258009 0.899045 -0.253613 0.118974 0.174868 -0.427464 0.840795 -0.787583 0.792269 0.0371037 0.981337 0.0870969 0.345468 0.510546 -0.902514 -0.408588 0.107532 
0.28178 0.100005 0.907414 -0.573846 0.427037 -0.498213 -0.253329 -0.0923574 0.72703 -0.00164828 0.245906 -0.914838 0.936725 0.370759 -0.831617 0.651374 -0.320341 -0.352405 -0.725038 -0.892478 0.253756 0.697162 -0.183582 -0.240856 0.261612 0.195988 -0.424417 0.0509272 -0.89499 0.23242 0.0966183 0.696439 0.586208 0.527396 0.79435 -0.801445 -0.768464 0.13345 0.434288 0.689736 0.796809 0.0923417 -0.301213 -0.656734 0.153397 0.11214 -0.752605 -0.626811 -0.616203 0.700381 0.742209 -0.562834 -0.143991 0.838012 0.965696 0.887272 -0.238662 0.79911 0.452469 -0.786236 0.76216 0.961019 0.473216 -0.120371 0.885503 0.566909 -0.640296 0.27049 0.809695 0.564963 -0.639774 0.361692 -0.982519 -0.142476 -0.81312 0.242483 -0.719516 0.268893 -0.198086 0.617278 -0.103574 0.2641 0.549726 0.686205 -0.53031 -0.914409 0.862386 -0.943119 -0.91921 0.238833 0.998958 0.0349704 -0.00137391 0.22693 0.108101 0.108843 -0.91828 0.0979942 -0.900872 -0.450744 
-0.792657 0.101124 -0.228492 -0.577563 -0.502458 -0.481874 -0.178093 -0.501172 -0.51915 0.921868 0.337079 -0.963585 0.739155 -0.271726 0.348545 -0.704465 0.735504 0.18833 -0.506902 -0.0513608 0.528504 -0.48067 0.934316 0.708037 0.893137 -0.38294 -0.354009 0.930286 -0.353699 0.418338 -0.712103 -0.881546 -0.567086 -0.0870309 0.535748 0.796593 0.614137 -0.112536 0.662132 0.798665 -0.182013 -0.677388 -0.339632 0.360085 -0.112843 -0.112614 0.550791 -0.620244 -0.652734 0.0628109 -0.461753 -0.900569 0.839541 -0.954508 0.868241 0.0196226 -0.526462 0.427686 -0.202218 0.184748 0.420673 -0.432791 0.873664 -0.00639774 0.60991 -0.928747 -0.765227 -0.127221 0.36779 -0.954361 -0.913815 -0.635121 0.0819759 -0.197514 0.894662 0.626502 -0.583185 -0.0126347 0.380815 -0.402545 -0.223154 -0.551331 0.135365 0.246435 -0.0892476 0.453694 -0.776834 0.54386 0.946796 0.792862 -0.6046 -0.565622 -0.217856 0.0184453 0.0407088 0.330674 -0.177549 0.742253 0.801656 -0.564729 
0.979141 0.575181 0.465548 0.452675 0.338194 0.848645 0.0483431 0.526826 -0.86357 0.633427 -0.614318 0.271125 -0.000121114 0.518186 -0.464962 0.546115 -0.692278 0.731946 -0.299237 0.77598 -0.471466 -0.146591 0.326183 0.439897 -0.968329 0.546063 0.948427 -0.89696 -0.597972 0.0302301 0.619426 0.189154 0.514854 0.694047 0.668301 0.781061 -0.193785 -0.128138 -0.857144 -0.448774 -0.227722 0.583308 0.309527 -0.830817 0.570337 0.831071 -0.0869038 0.802866 -0.802051 -0.0654817 0.45433 -0.136927 0.800416 0.362745 0.941434 -0.0468691 0.292207 0.87795 -0.874254 -0.441133 -0.192571 -0.0681635 0.449838 -0.215416 0.232686 -0.898168 0.760382 0.658983 0.0702896 -0.414116 0.833522 0.40349 0.0333419 -0.238574 0.629631 -0.643065 0.259908 -0.249675 -0.422956 -0.726935 0.425163 0.136541 -0.388118 0.909135 0.551629 0.637784 0.429657 0.0226195 0.609426 -0.70597 0.637406 0.876674 -0.755803 -0.370691 0.762923 0.641649 -0.708848 0.461986 -0.9222 0.824497 
0.908043 0.577236 -0.51841 -0.845592 0.15031 -0.0333222 -0.717687 0.0116198 0.416077 0.359095 0.230888 0.578009 -0.0499638 -0.567793 0.203813 -0.199121 0.340253 0.734161 0.13049 -0.261007 0.499017 -0.527142 -0.25936 0.0512729 -0.362197 0.116413 0.195038 -0.495487 -0.141751 0.887685 -0.961655 0.122786 0.819986 -0.873197 -0.50269 0.853958 -0.637843 -0.370232 -0.155029 -0.572933 0.45414 0.25799 0.210017 -0.826679 0.069963 0.00794985 -0.882034 0.447633 -0.144306 -0.658061 -0.235723 -0.348959 0.450666 -0.491928 0.440674 0.658683 -0.927403 0.844574 -0.877344 0.905249 -0.189656 0.560083 -0.0359532 0.228357 0.0719623 -0.409579 -0.257379 -0.915529 -0.870702 0.237804 0.91711 -0.394796 -0.651982 0.758372 0.796548 -0.815239 0.336561 0.396089 0.458079 0.689944 -0.201934 0.971466 -0.359177 0.506941 0.852164 -0.789981 -0.798659 -0.837013 -0.398825 -0.0397583 -0.00815902 0.509982 0.407693 0.941762 0.407368 0.0298683 0.496631 -0.311474 0.11544 0.0303294 
0.31291 -0.524834 -0.43343 -0.63583 0.0389361 -0.979622 0.596435 -0.431244 -0.650487 0.372268 -0.798916 0.0774307 -0.539922 0.132668 -0.241851 0.00370477 0.0443741 0.951198 0.0679267 -0.662373 -0.231361 -0.493824 0.327126 0.557471 -0.614311 -0.0274849 -0.0940776 -0.240947 -0.127346 -0.997192 0.374703 -0.51748 0.0866498 0.980701 0.670821 0.233927 0.906102 0.95811 0.31751 0.324923 -0.500207 -0.848637 -0.401119 -0.866677 -0.346319 0.233886 -0.42321 -0.120651 -0.370131 -0.574979 -0.742859 -0.110873 -0.233066 -0.25199 -0.0440764 -0.0879999 0.253866 -0.849369 0.153635 -0.305304 0.945371 0.759694 -0.775802 -0.858257 -0.177799 -0.194359 0.2099 -0.47809 0.277945 -0.513455 -0.94988 -0.629084 -0.573829 0.93771 0.245713 0.189573 0.116462 0.972938 -0.915479 -0.662195 -0.994026 0.588213 0.636299 -0.565227 -0.279544 -0.0425669 0.673819 0.849881 -0.855875 -0.576354 0.189062 -0.82834 0.99899 -0.39054 0.628987 -0.675899 -0.679522 0.732951 0.550707 -0.931123 
-0.365451 0.421152 0.611727 -0.0178159 0.127441 -0.104869 -0.290093 0.650338 -0.231512 -0.666023 -0.650329 0.361064 0.0737828 0.593279 -0.0732955 0.465224 -0.835087 0.982381 -0.160997 -0.483526 -0.661869 0.527644 0.0174946 0.982428 -0.285874 0.908278 0.672588 -0.245506 0.473187 0.213955 -0.979645 -0.957366 0.761854 -0.104912 0.902268 -0.628804 -0.800415 -0.46977 0.603624 -0.354402 0.697376 0.801254 -0.0593742 -0.692167 -0.0370392 0.299658 -0.374312 0.281912 0.659975 0.118545 0.826569 0.840832 0.619011 -0.53596 -0.693562 -0.146907 0.633784 -0.627302 -0.729555 -0.179731 -0.0128913 0.538367 -0.100133 0.433334 -0.2783 -0.972621 -0.156472 0.100751 -0.00520087 -0.247232 -0.109752 -0.438387 0.363995 -0.43963 0.496141 -0.910286 -0.272087 -0.2625 0.981884 0.846684 -0.0160391 0.432667 -0.338807 0.546922 0.0558287 -0.132835 0.0781622 0.367638 0.428092 0.349771 -0.0792338 0.929018 0.219636 -0.426848 0.185878 -0.394573 0.440453 0.315185 -0.349951 -0.247532 
