100 100
-0.749194 -0.665947 -0.641577 -0.620939 0.914204 0.542725 -0.553454 -0.345104 -0.48655 -0.396893 -0.895189 -0.67689 -0.0470415 -0.581355 0.993091 -0.503192 0.00874728 -0.388092 0.856239 -0.309001 -0.969633 0.83192 0.708865 0.97981 -0.348602 0.689393 0.641762 -0.206351 0.75016 -0.33194 0.990349 0.971582 0.00860579 -0.261168 -0.703175 0.183958 0.953873 -0.189634 -0.82771 -0.772811 0.0759414 0.268876 0.630516 0.316963 0.554935 0.50474 -0.828518 -0.526439 -0.789406 -0.31064 0.0657865 -0.589398 -0.904649 0.848074 0.158371 0.873741 0.977302 0.419318 0.518625 0.910627 -0.382705 -0.508194 -0.281948 -0.599498 0.240382 -0.313309 -0.370336 -0.370293 -0.214076 -0.66124 0.0901765 0.0102949 -0.947365 -0.0418255 0.944121 0.139361 0.749204 0.510297 0.970725 -0.30132 -0.017664 0.0394458 0.714187 -0.0962828 -0.50485 0.76768 -0.815745 0.249326 -0.0397503 0.0835727 -0.494295 -0.212447 -0.335799 0.197387 0.618206 0.298222 -0.485918 0.836166 0.22555 -0.701315 
-0.757493 -0.69209 -0.564072 -0.856262 0.470067 0.936293 0.697798 0.215131 -0.0238701 -0.723666 -0.803381 -0.690053 -0.364548 -0.429243 0.2506 0.170291 -0.048922 -0.382285 -0.873544 0.0923396 0.311843 0.746947 0.976688 0.536155 0.669687 -0.293348 0.811401 0.980925 0.663478 -0.810791 -0.421028 0.875791 -0.015922 0.299309 -0.219497 -0.104553 0.453985 -0.252099 -0.53717 0.14864 -0.623778 -0.116576 0.394715 0.907604 -0.994374 0.576844 0.603201 0.826371 -0.712974 0.700916 -0.243149 0.299396 0.951039 0.692363 -0.942381 0.142495 0.20164 -0.561757 -0.453231 -0.655695 -0.556554 -0.0738999 0.374552 0.226796 -0.124148 -0.978502 -0.221031 0.978037 -0.7122 0.0535835 0.300459 -0.8464 0.9468 0.190763 0.631383 -0.9477 0.364004 -0.184324 -0.0313272 -0.819021 0.874593 0.549091 -0.677659 0.052738 -0.75621 -0.734939 -0.645623 -0.488049 0.873977 -0.244966 -0.0545446 0.72108 0.87367 0.746221 -0.711981 0.181785 0.838283 0.0252119 0.924218 -0.897901 
0.0518371 -0.352042 -0.836667 -0.65882 -0.619005 -0.517252 0.194478 -0.75327 0.508582 0.218474 -0.740237 0.941812 -0.246126 -0.207522 0.254484 -0.450587 -0.424417 -0.0538697 0.484383 0.284127 -0.769922 -0.741641 -0.996444 -0.794268 0.300745 -0.387619 0.495226 -0.532897 -0.683347 -0.547184 0.913508 -0.0553555 0.805737 -0.853244 0.405492 0.899789 0.972321 0.411637 0.82087 -0.197764 0.991332 0.629268 -0.994194 0.681474 -0.948682 0.452787 -0.845714 -0.85516 -0.810887 -0.726372 0.159995 -0.161396 0.404716 0.453468 -0.379406 -0.151725 0.239546 -0.0454448 -0.621882 0.0656902 -0.144835 -0.494338 0.565472 0.648817 0.837409 0.384713 -0.274292 0.618311 0.673066 0.399736 -0.895168 0.569506 -0.532691 -0.44186 0.442987 -0.362447 0.584081 -0.190133 -0.317399 -0.518991 -0.419065 -0.0671882 -0.305169 0.321105 0.915499 0.934083 0.980127 0.0159258 0.899566 -0.321759 -0.278007 0.921869 -0.453316 0.151706 -0.771567 -0.167737 0.687625 0.785946 -0.336861 0.651604 
0.809086 0.121267 -0.816671 0.923911 -0.0501278 -0.736894 0.631661 -0.282585 0.736208 -0.431886 0.169973 -0.196205 0.640075 0.291012 -0.59018 0.45048 -0.698036 0.832516 0.382175 0.52359 -0.989991 0.700339 0.0201957 -0.21423 0.548981 -0.716166 -0.487371 -0.941753 0.749008 0.363567 0.232918 0.599661 -0.636683 -0.936282 0.0651754 -0.452511 -0.706851 0.271001 -0.712129 -0.553056 -0.395763 0.0403103 -0.249402 0.433573 -0.304521 0.496503 -0.275726 -0.992785 -0.0894074 -0.300856 0.744339 -0.329269 -0.730175 0.119738 0.0907633 -0.605167 -0.536281 -0.727177 0.440729 0.617593 -0.800086 -0.508989 0.357018 0.502144 -0.436211 0.0259592 -0.441683 0.589584 -0.166624 -0.953115 -0.200698 -0.657196 -0.111685 0.282711 0.840137 -0.134324 0.672456 -0.0633663 0.982852 -0.311346 -0.124407 -0.727315 0.896332 -0.342279 0.730946 0.765281 -0.193855 -0.306841 0.514694 0.265128 -0.662408 0.15664 0.47924 0.109203 -0.415606 0.192097 0.747876 0.78693 0.975166 0.386266 
-0.53388 0.12611 -0.911598 0.459163 -0.268176 -0.946404 0.172727 -0.733924 -0.280094 0.814597 -0.781091 0.923127 0.649601 0.834806 0.283976 -0.463073 0.536135 0.387815 0.691109 0.463202 -0.570759 0.0772304 -0.240558 0.942067 -0.00393843 -0.640569 -0.637291 0.969777 0.936988 0.375438 -0.56233 -0.372862 0.471188 0.616552 -0.566533 0.281637 -0.0242556 -0.969557 0.343079 -0.918595 0.52135 0.741208 0.493439 0.852756 0.495187 0.448434 0.786382 0.365905 -0.473386 -0.0718419 -0.699665 0.144215 0.125459 0.14166 0.6635 -0.665754 -0.0329951 -0.00320047 -0.799582 -0.452913 -0.932989 -0.564155 -0.205892 -0.510608 -0.540368 0.628573 -0.728629 0.0473016 0.26232 0.603018 0.573708 0.803798 -0.244274 -0.649255 -0.440364 -0.702731 0.807246 -0.252723 -0.401308 0.952939 0.334793 0.593107 -0.00469278 0.947635 -0.427154 -0.442091 -0.688264 -0.266498 -0.112377 -0.173393 0.621869 -0.292984 0.0722803 -0.609217 -0.8536 0.655253 -0.516792 0.217613 0.612379 -0.830006 
-0.479907 -0.783054 -0.887055 0.799352 -0.786051 -0.203779 0.570619 -0.129708 0.447589 0.408878 -0.137682 -0.938378 -0.948139 0.716782 -0.346739 -0.892832 -0.223017 -0.464142 -0.200958 0.625883 0.352715 0.151236 -0.564909 0.337669 0.912182 -0.100247 0.988333 0.406233 -0.745286 -0.241906 -0.734087 -0.457577 0.336977 -0.198374 -0.713158 0.0394634 0.703256 0.328087 0.127815 0.540476 0.718791 -0.566149 -0.527307 -0.811908 0.150317 -0.6092 -0.360688 0.26497 0.628121 -0.904534 0.271365 0.283853 0.648028 0.872899 -0.738755 0.213677 -0.864178 0.325844 -0.834902 -0.620677 -0.602603 -0.880621 0.716012 0.0713861 -0.630178 -0.608978 0.950591 -0.825064 -0.593399 -0.112168 -0.522099 -0.391236 0.351875 -0.132687 -0.299831 -0.342963 0.686493 -0.0220152 -0.796404 -0.960706 0.421255 -0.401769 -0.85086 0.625015 -0.00997381 0.323946 -0.83736 -0.381207 -0.888395 0.769537 -0.666477 0.881609 -0.178919 0.218269 0.32755 0.100504 -0.205758 -0.319791 0.752135 -0.168807 
0.810429 0.158467 -0.472391 0.348409 -0.618766 -0.354099 0.698771 -0.00951802 -0.106859 -0.416523 0.250555 -0.828786 -0.610021 0.565125 0.904004 -0.816893 0.743725 -0.808996 0.688755 -0.591648 -0.368014 0.460523 0.872721 -0.622136 0.566202 -0.23449 -0.353406 0.857049 -0.696857 -0.202391 -0.857625 -0.198402 0.744346 -0.187804 0.74747 -0.38584 -0.940168 -0.143905 -0.872164 0.47929 0.349322 -0.941384 0.822688 0.150782 -0.336087 -0.571961 0.883123 -0.235649 0.243429 -0.763544 0.53082 0.455135 0.919726 0.502121 0.432969 -0.825954 0.924053 -0.106338 0.907419 -0.838833 -0.980299 0.20553 -0.631084 -0.759547 -0.484607 0.437468 -0.695139 -0.826411 -0.444983 0.444378 -0.191085 0.138626 -0.123238 0.109256 -0.6223 -0.471412 -0.44177 -0.246554 -0.6129 0.977954 -0.0940988 0.188121 0.207556 -0.312442 -0.639646 -0.507696 -0.776073 0.647583 0.692091 -0.655673 0.302544 -0.579515 0.299297 -0.483814 0.579704 0.740479 0.105252 0.991751 -0.343725 0.816613 
-0.996417 -0.0860114 0.865878 0.0610123 -0.443499 0.11529 0.0744856 0.0948353 -0.324842 -0.430221 -0.122436 0.555289 -0.0510131 0.275398 0.298131 0.88725 -0.239426 -0.475433 -0.733677 0.151898 -0.461116 0.556311 0.554849 -0.311639 0.96992 -0.553082 -0.56887 -0.302035 -0.918315 -0.734223 0.999181 -0.122579 0.799478 -0.425741 -0.388835 -0.496371 -0.346863 0.389104 -0.723176 0.346916 0.897915 -0.337358 -0.480177 0.561754 0.709355 0.649289 -0.465997 0.0628935 -0.35254 0.933899 0.697477 0.286515 0.522856 -0.720858 -0.0352283 0.44714 0.0918632 0.0939165 -0.364577 0.787385 -0.559563 0.712504 0.630273 -0.0728392 0.63853 0.382153 -0.258753 0.259548 -0.0341883 -0.561467 -0.501915 0.336711 0.492773 0.999512 0.191711 0.341239 -0.611239 0.516162 -0.749226 0.508349 -0.453145 0.300535 -0.381524 -0.645129 0.927361 0.3016 0.782287 0.773466 0.749328 0.769959 -0.449934 -0.175539 -0.815258 0.60025 -0.798056 0.0262865 -0.6044 0.773352 -0.192639 0.0935978 
-0.235142 -0.0181986 -0.378737 0.0452837 -0.602784 -0.0522017 -0.596425 0.39875 0.297479 0.589797 0.921883 0.00289403 0.602843 0.66734 -0.184691 -0.12904 -0.0974347 -0.106489 0.362449 -0.739386 0.525584 0.817247 0.142834 0.401632 -0.0794492 -0.186819 -0.919404 0.457532 0.289712 -0.0808533 0.98817 0.842558 0.913333 -0.86527 0.850387 -0.679984 0.55769 -0.384911 0.348457 -0.450158 -0.784072 -0.683843 -0.124975 0.406441 -0.30755 -0.539806 0.923148 0.72559 0.992903 -0.134749 -0.495664 -0.575609 0.689002 0.672496 -0.400088 0.525155 0.80646 -0.0323166 0.994811 -0.728397 -0.882127 0.804928 0.646197 0.856705 0.158265 0.953286 0.975377 -0.0492148 -0.0706329 -0.988476 -0.496813 0.849108 -0.890259 0.888897 -0.27197 0.309672 0.528628 -0.2858 0.983064 0.0774176 -0.935243 -0.846878 0.272635 0.104502 -0.0326717 -0.385881 0.0517931 0.832434 0.314113 -0.993764 -0.430336 -0.0987341 0.422868 0.758279 -0.463132 -0.451462 0.289722 -0.496532 -0.630546 0.92545 
-0.754879 0.179346 -0.0191758 0.895376 -0.502131 -0.583628 0.810681 0.25698 -0.379418 -0.244431 0.907888 0.51188 0.827279 0.31394 -0.726859 0.293185 0.772921 0.281825 -0.210631 -0.276461 -0.780296 -0.949108 -0.562851 -0.448705 -0.899706 0.216627 -0.508 0.15957 0.0688908 0.0101401 0.868662 -0.683534 -0.211109 0.503588 0.273566 -0.614839 0.713695 -0.102158 -0.332737 0.595023 -0.79583 -0.58412 -0.332387 0.1125 0.0364255 -0.643326 -0.676139 0.858749 -0.0236301 0.219381 -0.443165 0.442408 -0.881728 0.997885 0.307912 0.977633 0.12696 0.67923 0.50991 -0.476338 0.406582 -0.216215 -0.656617 -0.51523 0.395961 -0.188621 -0.815039 -0.424021 0.784397 0.447003 0.291263 -0.365902 0.579562 0.945359 -0.634471 0.77181 -0.795934 -0.442661 -0.848646 0.15122 -0.586867 -0.812987 -0.633975 -0.581238 -0.577651 0.638833 -0.959695 -0.512293 -0.165228 -0.133224 0.00528443 -0.797052 -0.382886 -0.602172 -0.828727 -0.0504005 -0.945839 0.947991 -0.768144 -0.785481 
0.983679 -0.3366 0.68258 0.652986 0.744721 -0.846485 -0.288697 0.0695215 0.56807 0.150677 -0.00349678 -0.97297 -0.895589 0.753844 -0.465677 -0.120968 0.841729 0.728064 0.361754 0.986864 0.753585 -0.775053 0.285157 -0.5496 0.478545 -0.903904 -0.585363 -0.113057 -0.894273 -0.0706867 -0.0144119 -0.125609 -0.42249 -0.190138 0.244523 -0.241526 0.424418 -0.532944 -0.187564 0.264347 -0.640445 0.204083 -0.491278 -0.480498 0.489268 0.182096 0.95266 -0.203365 0.583312 0.87241 -0.728863 0.579758 0.277196 -0.239356 -0.706771 -0.0517858 -0.179785 -0.606467 -0.0221941 0.184101 -0.251764 -0.627468 -0.360945 -0.0768072 -0.347372 -0.172652 0.460116 0.309842 -0.217955 -0.648353 0.533808 0.41282 -0.713719 -0.253447 -0.958192 0.63969 0.868203 -0.893701 0.535214 -0.569804 -0.614014 0.386554 -0.172422 -0.55339 0.307574 -0.73657 -0.506415 0.938503 0.413361 -0.466608 0.429251 -0.36161 0.0745467 -0.679861 -0.394245 -0.413247 0.329899 -0.912479 -0.577871 0.430172 
-0.367765 -0.341548 -0.988722 -0.517568 -0.00477327 -0.102001 -0.131257 -0.173571 -0.809308 0.356456 -0.428445 0.808119 0.626606 0.303779 -0.248051 0.348292 0.971839 -0.836385 -0.0418964 -0.600698 0.484907 0.922461 0.943628 -0.833385 -0.188719 0.524956 -0.698941 0.455485 -0.0640541 -0.114525 0.404511 0.968228 -0.591181 0.134575 0.0946579 0.655915 0.421582 -0.521383 -0.163322 0.0500736 0.280909 -0.842702 0.656339 -0.592007 0.563834 -0.737418 0.296843 -0.040799 -0.731578 -0.0120425 0.661353 0.600816 0.329336 0.0981137 0.866082 0.243504 0.753906 -0.321336 0.136277 -0.881355 -0.766845 0.49706 -0.83472 -0.677804 0.452152 -0.594037 -0.991644 0.619527 -0.515031 -0.81766 0.706873 -0.669375 0.793599 0.793523 -0.912308 0.217735 -0.662703 0.0269586 0.616368 0.904147 0.170475 -0.717301 0.690305 0.891131 -0.682279 0.260986 -0.979332 -0.382642 0.24477 -0.391203 -0.294765 0.637671 -0.338599 -0.471843 0.144043 0.731835 -0.087193 -0.408418 -0.426965 0.758331 
0.591466 0.830393 0.218607 -0.913813 0.86538 -0.591862 -0.873288 0.308211 -0.572249 -0.808069 0.119481 0.711857 -0.774959 -0.352728 -0.486172 0.523169 -0.394012 0.528014 -0.729205 -0.79841 0.0587361 0.11525 -0.00394377 -0.237491 0.390074 0.839948 0.10258 -0.972562 -0.334626 -0.273117 0.269741 -0.442598 -0.1446 0.774478 -0.191667 -0.383696 0.149496 -0.726154 -0.112643 0.868743 0.0144307 -0.0770224 -0.574271 0.553144 -0.718197 -0.586799 -0.75488 0.161978 0.9635 0.0607364 -0.537121 0.0955572 -0.99467 -0.846845 0.542549 0.426289 -0.392801 0.999089 -0.80137 -0.564869 -0.851992 0.593116 -0.5711 0.596555 -0.902235 0.324073 -0.41479 -0.553233 0.905075 -0.974265 0.494008 -0.183323 -0.217458 0.30471 0.799083 0.0605471 0.416631 -0.317274 0.118016 0.942022 -0.92582 -0.107785 -0.442115 0.502368 0.0116583 -0.620872 0.431528 -0.11925 -0.521555 -0.269265 -0.464655 -0.0993522 0.808722 -0.87062 0.70883 -0.525795 0.888473 0.318917 0.488524 0.270735 
0.0768309 0.223559 -0.773134 -0.0887574 0.256027 -0.0502165 0.305556 0.998065 0.0925041 -0.693706 -0.2906 0.50451 0.184617 0.683604 -0.94984 -0.73845 -0.103447 -0.972065 0.721824 -0.535882 -0.57541 -0.621283 0.684302 -0.732419 0.121168 -0.978659 -0.544083 0.480301 -0.34921 -0.63351 -0.437824 -0.784815 -0.00358365 0.39029 -0.69873 -0.799291 0.0786212 0.206964 -0.136992 0.385873 -0.314132 0.989131 0.364938 -0.154987 -0.258499 -0.680519 0.17455 -0.956298 -0.422183 0.371052 -0.849004 -0.508478 -0.224263 -0.123328 -0.2027 0.80647 0.356623 0.639121 -0.52624 -0.405223 -0.59641 -0.698517 0.322071 -0.264056 0.714269 0.686732 -0.895765 -0.036036 -0.416414 -0.51895 -0.905245 -0.702615 -0.0238025 -0.575588 -0.251026 -0.672576 -0.628605 0.405235 -0.0895506 0.688514 0.751846 0.572042 0.350476 0.0874376 0.249078 0.736801 -0.655324 -0.507222 -0.825284 -0.391093 -0.281773 -0.666149 0.922932 -0.942154 0.8028 -0.810091 0.0101485 0.6499 0.802595 -0.550974 
0.0485876 0.641426 -0.386965 -0.647972 -0.137795 0.218001 0.773476 0.901582 0.705563 -0.0358433 -0.256002 -0.574642 0.793622 0.340639 -0.638079 -0.502015 -0.295648 -0.729632 -0.746223 -0.55548 0.421937 0.639467 -0.72568 0.940928 0.593144 -0.0410982 -0.0794381 0.891596 -0.506241 -0.333149 0.0689656 -0.0895611 -0.239417 0.994046 0.910099 -0.380259 -0.773667 0.642653 0.33218 0.0197603 -0.255184 0.539888 -0.665064 -0.561958 -0.851268 -0.609911 0.293121 -0.487748 0.914482 -0.331604 -0.173143 0.720848 0.663224 -0.565348 0.0554735 0.425586 0.889609 0.963962 -0.886125 0.552095 -0.726365 -0.843403 0.839185 0.0757773 0.698712 0.358016 -0.555273 -0.0243381 0.643477 -0.480257 0.839681 -0.277402 0.738472 0.2153 0.587554 0.821103 0.731201 -0.566309 -0.548077 -0.820651 0.487235 -0.457617 0.42602 0.476129 0.686853 0.114697 0.600203 0.832133 0.746961 -0.622082 -0.716893 -0.557124 0.439287 0.612428 0.0178288 0.591247 0.819374 0.696106 -0.595479 -0.729123 
-0.951129 0.943673 0.614158 0.813722 0.326071 -0.753807 -0.211765 0.726794 -0.247397 0.155731 -0.715929 0.442159 0.569914 0.85864 -0.645521 0.411766 0.98919 0.341372 0.0521353 0.560219 0.276736 -0.0654724 -0.0986873 0.0654507 0.367794 -0.861871 0.223633 0.643236 -0.434554 -0.0741066 -0.427577 0.917223 -0.0310575 -0.500476 -0.47105 0.591184 0.671214 0.119764 0.264031 -0.970734 -0.271191 0.253902 -0.107902 -0.208652 -0.580123 0.830004 -0.0752105 -0.927506 -0.908177 0.855263 0.296893 -0.856663 -0.257519 0.695509 0.414836 0.000548984 0.879544 0.973503 -0.174222 0.132759 -0.00394553 0.0602349 0.142045 -0.0858715 0.803489 0.419141 0.899705 -0.113787 -0.919729 -0.646425 -0.723164 -0.706645 -0.144408 0.280135 0.451824 -0.830649 0.312902 0.573747 0.583727 0.645653 -0.0821062 0.89961 0.347792 0.857328 0.681286 -0.0639781 -0.975103 0.939868 0.347216 0.655426 0.0906045 -0.551183 0.1572 -0.106574 0.907741 0.075914 0.248049 -0.122625 0.422911 0.857204 
-0.267462 0.253348 -0.340329 0.904398 0.368448 -0.530246 0.300211 -0.407314 0.540228 -0.111177 0.0162866 0.35053 -0.843349 0.891753 -0.493871 0.300362 -0.381535 -0.023061 0.783744 -0.0609431 0.280162 0.521947 0.895144 0.796768 0.119826 0.209374 -0.653413 0.769258 -0.755544 0.695082 0.643094 -0.429709 -0.522107 0.694461 -0.841315 -0.997542 0.366789 -0.967629 0.205043 -0.641039 0.36204 0.918517 0.32269 -0.0673095 0.477785 -0.950155 0.904681 0.180393 -0.980893 0.603375 -0.00244355 0.445408 0.729914 0.119772 -0.473223 0.922887 0.517645 0.906445 -0.504776 0.727447 -0.0622862 0.808003 -0.858722 0.558202 0.537588 0.0654873 -0.8762 0.566521 -0.840269 0.572728 0.695425 0.442924 -0.740304 -0.538667 -0.50248 -0.510584 0.778851 0.857839 0.308631 -0.133575 -0.758709 0.498793 -0.433507 0.0232079 -0.823885 -0.78253 0.88633 -0.534219 -0.309494 0.333783 0.0516412 0.639853 0.356828 0.387566 0.198869 0.14947 -0.768021 -0.0440141 -0.636114 -0.255946 
-0.273388 0.836594 -0.509622 -0.108463 0.17079 -0.297461 0.346319 -0.293797 0.103811 0.468884 0.0546152 0.161006 -0.335158 -0.824573 0.81359 -0.402513 -0.621959 -0.83408 0.963497 0.668871 0.451176 0.535866 -0.826809 -0.03478 0.41522 -0.931718 0.98187 0.361679 -0.625121 -0.252582 -0.63969 0.673983 -0.47649 -0.542985 -0.140916 0.980898 0.611715 0.24079 0.00754602 0.381698 0.428282 -0.54543 0.572232 0.659998 0.493462 0.688581 -0.78205 0.709017 -0.268274 -0.121887 -0.569053 -0.864316 0.345101 -0.560638 0.0118994 0.120114 0.746977 -0.385731 -0.586834 0.514702 0.648296 0.677188 -0.595714 -0.55248 0.219495 0.826748 -0.513749 0.529175 -0.501238 0.314355 -0.999422 0.781505 0.775102 0.0288849 -0.102904 -0.690075 -0.484265 0.307379 0.96195 0.384173 0.649031 0.898322 -0.215053 -0.0621029 0.004857 0.0761291 -0.518879 0.734749 0.854247 0.53729 -0.905425 0.841313 0.82393 0.640774 -0.357542 0.514881 0.231385 0.19716 -0.0829297 -0.844714 
-0.666663 0.649738 -0.508628 0.719955 0.971116 -0.119054 -0.963105 0.489842 -0.630633 -0.429588 -0.978334 0.831117 -0.729362 0.518612 0.100824 0.280347 0.857131 0.0316873 -0.828707 -0.625374 -0.305521 -0.828158 -0.988523 0.683552 0.0948377 -0.71661 0.248735 -0.645898 -0.820557 -0.762564 0.00283351 0.513771 -0.973117 0.473429 0.723253 0.449727 -0.714397 0.749351 -0.297338 0.196834 -0.146564 -0.120261 0.56278 -0.108823 0.389286 0.575983 -0.947574 -0.189306 0.861617 -0.930598 0.644433 -0.313149 -0.958428 0.56391 0.779881 0.577945 0.934437 -0.62477 0.375312 0.264183 0.192173 0.286845 0.00826632 -0.579606 0.833446 0.135622 -0.931711 -0.941478 -0.204888 -0.137625 0.698157 0.778388 0.49382 0.211301 0.30174 -0.821314 0.132875 -0.641246 -0.997944 -0.328358 -0.748089 0.194884 -0.345762 0.458649 0.209572 0.163325 -0.244068 0.2566 -0.586003 0.675388 -0.633264 -0.348076 -0.00274615 -0.407987 0.220281 0.303769 -0.702799 -0.637733 -0.493758 -0.214661 
-0.64999 0.519242 -0.583939 0.72085 -0.117703 0.897624 0.220788 -0.546746 -0.502792 0.706999 0.276794 -0.0564166 -0.392595 0.12244 -0.0455174 0.419209 -0.222582 -0.825359 0.907816 0.365177 -0.756191 0.848104 -0.113718 -0.125317 -0.553113 -0.300813 0.472679 0.0178708 -0.810355 0.467394 -0.640911 -0.0466043 0.416346 0.427202 -0.613285 0.253695 -0.0475675 -0.714273 0.298105 0.296238 -0.945604 0.510545 -0.774125 -0.18717 0.0710452 0.752365 -0.323204 0.483525 0.635723 -0.828184 -0.475226 -0.74803 0.28026 0.374321 0.493344 0.905953 0.135166 0.770359 -0.789283 -0.128343 0.456547 -0.0909586 0.407242 0.484491 0.662089 0.153658 0.87104 -0.0458477 0.118983 -0.331897 -0.708469 -0.191596 0.175975 0.696649 -0.219674 0.557642 -0.727004 0.490322 -0.389699 -0.366813 0.465688 -0.820609 0.575816 0.43737 -0.432979 -0.374489 0.559866 -0.281154 -0.0634148 0.322331 0.632147 -0.975159 -0.217239 -0.031402 0.536383 -0.914727 0.163927 0.101878 0.15604 -0.53336 
0.854252 0.331948 0.934662 -0.761319 0.563533 -0.540349 0.950718 0.628878 0.389379 0.912417 0.448826 0.634549 -0.00207935 -0.544027 0.64392 0.512302 -0.697213 0.389249 -0.425279 -0.377959 -0.529728 -0.248801 -0.685148 0.200036 -0.956987 -0.0356404 0.442575 0.0255452 0.850208 -0.663382 0.155691 -0.00777316 -0.0830518 0.472939 -0.163671 -0.391888 0.154386 0.366227 0.980298 -0.966773 -0.939465 0.507092 0.170781 0.313854 -0.102341 -0.590856 0.179648 -0.474802 0.704949 0.38772 0.53854 0.547085 0.235845 -0.88201 -0.262611 -0.132911 -0.389971 0.846355 0.592499 -0.529972 -0.552822 0.744459 -0.182833 0.838843 -0.602005 0.527975 0.0366811 0.685605 0.772735 -0.231232 0.81783 0.734922 0.212492 -0.838815 -0.052065 -0.0161457 0.555076 -0.177633 -0.160047 0.529356 -0.954078 -0.0171946 -0.830818 -0.282415 0.905721 0.916563 -0.126803 -0.545902 0.300166 0.181174 0.175423 -0.088976 0.8973 0.83334 0.427643 0.364947 -0.436449 0.132013 -0.770455 -0.914539 
-0.953116 -0.986147 0.192809 -0.07434 0.562428 0.60105 0.0740145 -0.997537 0.984297 0.205503 0.193689 -0.211609 -0.306485 0.0340188 -0.443184 -0.582858 -0.688484 -0.194103 -0.565472 -0.513023 0.783075 -0.0830607 -0.66396 -0.791057 -0.799734 0.978089 0.0112463 0.434961 0.0882749 -0.318725 0.632407 0.0203458 0.295913 0.0731521 0.363814 0.767291 0.372262 -0.645029 -0.124591 -0.8124 0.301163 -0.652981 0.0740094 0.828294 -0.318908 -0.0410157 0.0303462 0.588177 0.269047 -0.957178 0.430993 -0.294153 0.432416 -0.592239 -0.978924 0.455077 0.325412 0.288357 -0.541513 0.991113 -0.600449 0.846621 0.0733776 0.993564 -0.769576 0.275354 -0.708385 0.124852 0.591482 -0.660238 -0.0961581 0.410567 0.271169 0.744528 -0.714343 0.159824 0.329413 0.809378 0.452027 0.196966 0.265663 -0.784536 0.870173 -0.745514 0.891181 -0.0199531 -0.786709 -0.771983 -0.573191 -0.817832 0.63602 0.37691 0.303343 0.119231 0.191144 0.215226 0.642391 0.513138 -0.25073 -0.685152 
-0.923353 0.464383 -0.184835 -0.321138 0.237824 0.718174 -0.305476 0.101133 -0.681827 -0.579885 -0.883231 0.77625 -0.692504 0.626246 -0.859365 0.678068 -0.039109 0.153827 -0.364096 -0.196599 -0.045748 0.659112 0.256902 0.594214 0.925213 -0.180408 -0.353688 0.60846 0.0932281 -0.993616 -0.100815 0.806481 0.59388 -0.195907 0.488152 0.152271 0.502577 0.393051 -0.0651909 -0.791109 0.334356 0.581179 0.693993 0.581537 0.683201 -0.897442 -0.282715 0.203668 -0.525667 -0.783311 0.733788 -0.00889919 0.0982702 0.570555 0.213725 -0.614537 0.26956 -0.183763 0.569698 0.0225011 -0.546604 -0.931186 0.197612 0.618301 0.234352 -0.47681 -0.717819 0.12003 -0.127433 0.00987467 -0.775158 -0.538475 -0.613492 0.345391 -0.977198 -0.626302 -0.346287 0.94698 -0.0134481 -0.105001 0.595052 -0.365131 0.286439 -0.577457 -0.222708 -0.972337 0.912006 0.399535 0.841045 -0.744063 0.587678 -0.282805 -0.845838 0.542697 0.346139 -0.484522 -0.735777 -0.950814 0.300375 0.109762 
-0.367666 0.156147 -0.347186 -0.840714 0.394681 -0.881648 0.593427 -0.792269 -0.0203235 0.316796 0.954577 -0.435753 0.76599 0.0190439 -0.146588 0.403303 -0.172945 -0.593184 0.481681 0.0556328 0.626191 -0.158467 -0.0267368 -0.776907 0.407827 0.461867 0.624259 -0.900611 -0.391919 -0.343663 0.128853 -0.318628 -0.803214 -0.450767 0.821774 0.00302972 0.189505 0.683067 -0.957547 0.488125 0.211015 -0.133361 -0.768585 -0.117785 0.618935 -0.00191942 0.471029 -0.102202 0.374114 -0.489122 -0.942546 -0.0759045 -0.0798742 -0.257025 -0.834888 -0.781086 0.655331 0.38381 -0.125052 0.333851 0.383866 0.530342 -0.869631 -0.857978 0.734011 0.163557 0.0714591 0.856574 0.0556267 -0.831551 0.397447 0.750356 -0.112418 -0.506428 0.783118 -0.619881 0.45854 -0.87895 -0.35024 0.533106 -0.2442 0.361889 0.854189 -0.210003 0.0721748 -0.669004 -0.664867 0.641023 -0.43974 0.637196 -0.516229 0.242378 0.127095 -0.798512 -0.985601 -0.454224 0.572933 0.69815 -0.0959097 0.648051 
0.457798 -0.265627 0.239827 -0.173644 -0.362098 0.16301 0.600074 0.743737 0.117005 0.743768 0.0583713 -0.40166 0.730054 -0.719775 -0.469598 0.217253 0.777972 0.858323 -0.143462 0.434193 -0.267497 0.954403 -0.627679 -0.510215 -0.143612 0.38384 0.112452 -0.981178 0.000513549 -0.546946 0.613405 -0.634571 0.238578 -0.974075 0.172401 0.730768 0.554873 0.18391 -0.394798 -0.831586 0.996714 0.787403 -0.562404 0.0238466 0.85751 0.500114 -0.670495 -0.0204375 0.548953 -0.696061 -0.217602 0.777568 -0.593005 -0.0476391 -0.695398 -0.777294 -0.388011 0.094097 -0.590565 -0.825711 0.681755 0.189368 -0.937066 -0.65821 -0.121559 0.498991 0.729768 0.506218 -0.377584 0.298199 0.590688 0.102101 0.636407 -0.986715 -0.740201 -0.951768 -0.777499 0.606089 0.814411 0.341802 0.273509 -0.966128 0.958887 -0.778725 -0.402993 -0.663808 -0.39448 0.813444 0.325297 -0.463148 -0.874088 -0.79276 -0.579996 -0.341133 -0.248396 -0.766272 -0.539206 0.34754 0.333004 0.329312 
-0.341053 -0.689049 -0.155722 0.128428 0.144808 -0.340214 0.306433 0.322578 0.421066 -0.767337 0.955826 -0.274888 0.241893 0.685755 -0.494803 -0.532379 0.521521 -0.316371 0.133065 -0.647785 -0.287535 -0.394048 -0.394674 -0.746625 -0.0274793 0.296957 -0.838908 0.385755 -0.697832 -0.779715 -0.297671 -0.147021 0.295788 0.629572 -0.852823 0.808514 -0.840997 0.423006 -0.631468 -0.259468 -0.0745891 0.539924 -0.0874829 -0.915262 -0.134083 -0.364007 -0.290224 -0.0860819 0.126009 -0.18221 -0.716218 -0.659092 -0.74744 -0.936603 -0.663737 0.668663 0.285037 -0.494908 0.875307 -0.862517 -0.857837 -0.50898 0.544527 -0.999219 -0.225359 0.310644 -0.626884 -0.501841 0.497977 -0.0907961 0.387224 0.306904 -0.573371 -0.539796 -0.42261 0.41627 -0.195592 -0.252371 0.877911 -0.423082 0.48972 0.0531355 0.813164 0.0947537 -0.562581 0.821291 -0.0359567 0.132904 -0.113257 -0.781764 0.403299 -0.0414481 0.44402 0.531646 -0.0709411 -0.279122 -0.545919 -0.362234 0.0778994 -0.845621 
-0.351289 0.328582 -0.256881 0.580362 -0.166205 -0.824194 -0.251287 0.179358 -0.709509 0.442916 -0.0447938 -0.326257 -0.122197 -0.231729 0.154575 -0.663256 0.654051 -0.976039 0.964065 0.820855 0.46301 0.31651 0.022917 -0.302397 0.462988 0.367038 0.858431 -0.661585 0.245529 -0.338178 -0.8961 -0.935356 0.529543 0.429867 0.739064 -0.493254 0.359637 -0.442475 0.446229 0.321457 0.0443178 -0.749879 -0.874288 0.117767 0.72179 -0.711516 -0.268221 -0.569719 0.639048 -0.0966283 -0.204053 0.583025 -0.199514 0.266529 -0.0426488 -0.453094 0.0261765 -0.020926 -0.194447 0.00360375 -0.758164 0.916279 0.130582 -0.569114 -0.384194 0.393696 0.529265 -0.550517 -0.67961 0.260663 -0.276703 0.16972 0.819627 -0.326346 -0.0339519 0.781505 -0.808946 0.44227 0.161955 0.939927 0.947023 0.44546 -0.120787 -0.0815387 0.562015 0.74447 -0.789863 -0.410979 0.722619 0.976713 -0.138787 -0.44499 0.953227 0.6378 -0.374872 0.300752 0.863025 -0.256671 0.329255 -0.701477 
-0.92307 0.0899135 -0.322942 -0.985862 -0.962385 0.956001 0.419732 -0.671788 -0.397915 -0.208014 0.592842 0.66432 -0.224069 -0.459343 0.48078 0.666417 -0.528781 0.254365 0.880341 0.882952 -0.340943 0.559145 -0.789632 -0.665242 0.772524 0.0769769 -0.668104 0.00450159 -0.228435 0.00819993 -0.00281981 -0.117564 -0.799379 0.015247 -0.134191 0.810887 0.466192 -0.686735 -0.983434 -0.022055 -0.116577 -0.304277 -0.468239 0.891481 -0.110743 0.561158 0.451811 -0.556088 0.485348 -0.283554 -0.360744 -0.318316 0.645622 -0.469235 -0.0720146 0.115451 0.586865 -0.545145 0.862144 0.419988 0.866209 -0.867722 0.597679 0.851272 0.120362 -0.26815 0.0333745 0.0724396 0.28328 0.000340552 -0.37279 -0.969819 -0.470248 0.623358 -0.308453 -0.608613 0.872561 0.694801 -0.951694 -0.153727 -0.358779 0.249654 -0.206885 0.25319 0.187796 0.00821857 0.498016 -0.467214 0.530137 0.357938 -0.910695 -0.613179 -0.618284 0.417164 0.459519 -0.893343 0.663324 -0.864176 -0.25602 0.773564 
-0.81181 0.357379 0.207934 -0.382048 -0.00593336 0.970568 0.240398 0.816253 -0.383672 -0.704088 -0.027169 0.44584 0.0152453 -0.0172774 0.585224 0.692628 0.532933 -0.785859 0.978341 0.36097 -0.638087 0.0699036 0.51509 -0.137857 0.168901 -0.537066 0.921216 0.0472346 -0.326216 0.192341 -0.269377 -0.246529 -0.404205 -0.495611 -0.9559 -0.696448 0.90729 0.692394 0.493384 0.249709 0.193639 -0.274535 0.313949 0.895601 0.632507 0.988858 -0.835712 -0.320068 0.545972 -0.950712 0.408971 0.461962 0.0691871 0.86312 0.489468 -0.266508 -0.92801 -0.590679 -0.769472 -0.183833 -0.0909824 0.64711 0.421633 0.704044 0.947466 -0.0296306 -0.1231 -0.0868577 -0.111075 -0.543872 -0.55597 -0.369954 0.644582 -0.530804 0.339618 -0.865008 0.208914 0.306906 -0.152753 -0.108948 0.073753 -0.29485 0.0258469 0.706984 -0.0995664 -0.283772 0.475899 0.0238423 -0.571901 -0.488954 -0.252426 0.486574 0.721642 0.240374 -0.905696 -0.758919 -0.448779 -0.66452 0.0197785 -0.816473 
0.46554 0.454822 -0.747072 -0.558881 -0.522714 0.340644 0.693954 0.760698 -0.247227 0.546479 -0.582974 -0.124537 -0.968732 -0.0214611 0.00085888 -0.646751 -0.783752 0.751709 -0.297317 0.951877 -0.984345 -0.847851 -0.521054 -0.99087 0.0103196 0.0220345 0.75478 0.0582972 0.7802 -0.839515 -0.731384 -0.309981 0.504633 -0.676154 0.8206 -0.0195196 0.676612 0.596503 0.782971 -0.748809 -0.69009 -0.123773 0.0620079 0.643991 -0.831179 -0.506474 -0.098384 0.325072 -0.770936 -0.0976727 -0.310665 -0.581823 -0.40549 0.0107617 -0.317722 -0.406604 0.618962 -0.731012 0.397317 -0.689651 -0.815855 -0.344542 -0.130824 0.264469 0.814826 0.587944 -0.699767 0.909042 -0.911545 -0.930729 -0.958583 -0.57797 -0.373446 -0.140636 0.365619 -0.0695733 0.0258607 0.198573 0.903353 0.434023 -0.255883 -0.0444425 -0.492157 -0.0941628 0.285202 -0.710572 -0.506913 -0.279439 0.709521 -0.512606 0.0250695 -0.349117 0.323427 0.366299 -0.116999 -0.0602516 -0.0436601 -0.626483 -0.335578 -0.910777 
0.859558 0.966208 0.946614 0.793924 -0.868948 0.744286 0.97473 -0.160118 -0.176688 0.0882675 -0.664477 0.322641 -0.202995 0.852646 -0.389173 -0.458432 -0.25209 -0.945368 -0.721353 -0.281999 -0.173274 -0.114334 -0.491297 -0.707193 0.827887 0.876439 0.747268 0.944848 -0.0527926 0.78048 -0.0644491 0.693344 -0.16737 -0.212143 -0.149643 0.708402 -0.277322 -0.206323 -0.763022 -0.299095 -0.0127983 0.356404 -0.525816 0.405093 0.74079 0.889583 -0.949688 0.281122 0.235547 0.53756 0.0836526 0.295675 0.186636 0.182622 -0.888336 -0.589274 -0.254305 -0.101071 -0.753615 0.20229 -0.30573 0.896872 -0.230515 0.169641 0.514005 0.169073 0.879118 0.153756 0.966767 -0.761047 0.344133 0.89623 0.118286 0.28211 -0.562338 0.419807 -0.665887 -0.790487 0.890325 0.723477 0.336547 -0.102165 -0.954284 0.59661 -0.565035 0.111725 0.750706 -0.370002 -0.0111231 -0.0201603 0.309638 0.289894 -0.528936 0.421449 0.0835362 0.557117 -0.213214 -0.0647847 0.785627 -0.6021 
-0.765179 0.0253665 -0.0184967 0.831228 -0.81901 0.667842 -0.289489 -0.151673 0.538381 -0.273637 -0.9039 0.420826 0.937624 -0.865353 0.275708 -0.384452 -0.409507 -0.109675 0.107687 0.709229 0.487236 0.150291 0.437958 0.908404 -0.868563 0.926279 -0.983718 0.466355 -0.355061 -0.854412 0.283897 0.407845 0.256317 0.328373 0.159816 -0.54657 0.275113 0.566077 0.655944 -0.0906055 0.19171 0.455167 -0.668647 0.610472 -0.472717 -0.502097 -0.0683871 0.998387 0.527774 0.0162543 0.0056336 -0.738074 0.149988 0.312861 0.429019 0.749802 -0.358195 0.574903 0.0942224 0.281924 -0.631414 0.760098 -0.316632 -0.380328 -0.451718 -0.769042 -0.0798976 -0.05547 -0.456645 0.896725 0.106653 -0.930413 -0.162505 0.61932 0.755642 0.784865 0.448511 0.85452 0.0639819 -0.228821 0.928966 0.778567 0.714449 0.55126 -0.00263076 0.31572 -0.923814 -0.848378 -0.167751 0.119966 -0.738232 -0.938187 -0.584908 -0.55658 -0.461856 -0.314657 -0.952167 -0.429809 0.790839 0.689032 
-0.90736 -0.0838046 0.130381 0.859716 -0.889374 -0.102668 -0.594656 0.852806 -0.995792 -0.145303 -0.734607 0.00252486 0.67689 0.0132094 0.322321 -0.977726 -0.688824 -0.401405 0.441462 -0.708946 -0.711957 0.322791 0.866636 -0.8788 0.973508 -0.320009 -0.840822 -0.753973 0.125734 -0.769183 0.455162 -0.675469 0.631074 0.0595848 0.936408 -0.964443 -0.825935 -0.240999 -0.61802 0.740084 0.914654 -0.0351786 -0.756206 0.50377 0.38006 0.00822099 -0.824427 -0.94279 0.875329 -0.839493 0.986153 -0.106971 -0.663316 -0.450419 0.207736 -0.362219 -0.0776195 -0.0729743 -0.325055 0.100686 -0.723841 -0.440848 -0.906727 -0.939822 -0.695111 0.268066 0.137927 0.0215601 -0.768438 0.262116 -0.481411 -0.879196 0.666424 -0.16642 -0.470084 0.23995 -0.705512 -0.667515 0.984403 -0.759064 0.375762 0.890941 -0.21001 0.791117 0.883828 -0.638642 0.429701 0.520983 0.276261 -0.478644 0.332892 -0.613597 0.396383 -0.458641 -0.453693 0.614621 0.756307 -0.272594 0.442999 -0.291876 
0.73422 0.205316 0.459612 -0.957543 -0.767152 -0.839765 0.289703 0.358365 0.899645 -0.241359 0.779701 0.645965 -0.150655 0.159536 0.529764 0.940717 -0.413675 -0.948119 -0.769952 -0.801218 -0.498055 -0.669487 0.378808 0.641179 0.952304 -0.610201 0.635745 -0.852541 -0.336729 -0.888905 -0.191286 -0.289459 -0.895002 -0.858006 0.428843 -0.483562 0.339371 0.683795 -0.342225 -0.40348 -0.878219 -0.91992 0.403476 0.892022 0.391581 -0.974098 0.347492 -0.818386 -0.689785 -0.147544 0.358929 0.54821 0.268318 0.521881 0.606619 0.167268 0.985992 -0.107378 -0.469523 0.892459 0.166301 0.697403 -0.323738 0.060956 0.99902 0.562326 -0.777037 0.231383 -0.810292 -0.831997 -0.141035 -0.940036 -0.263928 0.998075 -0.501593 0.544273 0.13649 -0.71188 0.00317036 -0.859583 -0.202117 0.918501 -0.137499 -0.727871 -0.948767 0.231501 0.272828 -0.0134806 0.907631 0.589128 0.0371697 -0.805591 0.140012 0.106997 -0.837023 -0.704901 0.725348 0.0135039 -0.26566 0.807591 
0.142326 0.471907 -0.327083 -0.10961 -0.0388955 0.389243 0.299084 0.772665 0.194177 0.56031 -0.344549 0.450593 0.963431 0.11538 0.0811124 0.569326 0.258779 0.207315 -0.401448 -0.0642441 0.41673 0.926986 0.870887 -0.876927 -0.0881607 -0.38163 0.756932 -0.0900329 0.687637 -0.485376 -0.579759 -0.145506 -0.369001 0.472955 -0.642786 0.29634 0.689221 -0.353835 0.994291 0.868791 0.812131 0.379321 -0.625287 0.0663589 0.703858 -0.959436 -0.712927 0.895256 0.000822797 0.582548 0.0615125 -0.0641351 -0.552223 0.701311 -0.292644 0.150339 0.608733 0.882465 -0.888043 0.267304 -0.669066 -0.119953 -0.101128 0.338787 0.325981 0.732699 -0.0308839 0.451182 0.135677 -0.209536 0.585262 0.542041 0.584691 -0.421283 -0.0090404 -0.157389 0.261687 -0.47566 -0.57904 0.664375 0.217711 0.957808 0.00841296 -0.206024 0.84453 0.511396 0.769281 0.32965 -0.201003 -0.921586 -0.400411 -0.124181 0.750494 0.618199 0.192329 0.789843 -0.275388 0.402845 0.958851 0.719712 
-0.945415 -0.891725 0.695344 0.413957 -0.250953 0.958347 0.89194 0.0149738 0.445199 0.793238 0.0480917 0.489408 0.655135 0.597527 0.612574 -0.437909 -0.898317 0.327063 -0.0763386 -0.387328 0.123166 -0.0355618 -0.840861 0.359843 0.162727 -0.669436 0.760149 -0.783929 0.288133 0.145915 -0.367582 -0.59339 -0.828084 -0.893889 0.279175 0.653462 -0.128958 -0.176785 -0.206456 0.192978 -0.964185 0.797925 -0.417311 -0.508452 -0.358181 0.373431 -0.964419 -0.238671 -0.916743 0.861907 -0.00077791 0.514845 0.547292 -0.872458 0.0125955 -0.579079 0.724099 0.418619 0.629563 0.368934 0.627095 0.432337 -0.302941 -0.829193 -0.6242 -0.982711 -0.398899 -0.749559 0.869669 -0.196557 0.179441 -0.179564 -0.206825 0.317202 -0.461462 0.640413 -0.431736 0.00312421 0.303001 0.655853 -0.120477 -0.966314 0.591077 -0.658246 0.684906 0.283875 -0.889154 0.726718 -0.764208 -0.323609 -0.167875 -0.864179 -0.183288 0.319799 -0.840116 -0.142496 0.998402 -0.861551 0.18613 -0.628226 
0.410065 -0.296124 0.338333 -0.679569 0.446446 0.0828381 -0.597584 -0.494205 -0.30212 0.42892 -0.637357 0.353028 -0.200773 0.815027 -0.64813 -0.345062 -0.590492 -0.589208 0.62003 -0.113546 -0.304286 -0.596046 -0.0769443 -0.6268 -0.712474 -0.609438 -0.769032 0.344091 0.949365 -0.4719 -0.188278 0.408334 0.389333 -0.765334 0.78292 -0.661911 -0.328916 0.865099 0.173519 -0.15478 0.663631 0.60805 0.729148 0.317123 -0.0829631 -0.477226 -0.589295 -0.683843 0.102866 0.527639 0.892815 -0.202745 -0.29717 -0.00875 0.756561 -0.705673 0.551847 0.00161584 0.756487 -0.847437 0.131013 0.581697 -0.962599 -0.462252 -0.766992 0.332776 -0.915919 -0.136466 -0.742611 0.400583 0.40136 -0.238832 -0.455281 -0.174423 -0.612089 0.591981 0.86617 -0.153232 0.185126 0.843438 -0.500452 -0.192806 -0.715294 0.606601 0.22319 -0.845115 0.238538 -0.821205 -0.694333 0.614727 -0.69194 0.744266 0.540606 -0.650503 -0.426765 -0.995175 0.993548 0.946025 -0.988689 -0.107871 
0.351419 0.513571 -0.989889 -0.96181 0.517826 0.0778257 0.0048927 0.258584 -0.410278 0.36708 -0.97456 0.603561 -0.823997 -0.374873 -0.508323 -0.891184 -0.166245 0.811598 -0.951485 -0.533566 0.198865 -0.0881635 0.889994 0.972696 -0.502563 0.835215 -0.833206 -0.200529 -0.0798073 0.146418 -0.495694 0.520176 0.367617 -0.596289 0.898407 0.193498 -0.954883 -0.642168 0.290733 -0.478661 -0.393273 0.710357 0.243619 0.286193 -0.000275608 0.116819 0.276439 0.0967975 -0.667514 -0.035987 -0.962437 0.497229 -0.112309 -0.206154 0.0606092 0.550477 0.38634 0.48649 0.850702 -0.686341 0.294204 -0.426432 -0.571312 0.727068 -0.320549 -0.353287 -0.626443 -0.286972 0.149382 0.829588 -0.0955491 0.609208 0.97485 0.981025 0.741742 0.0359411 0.412896 0.397613 -0.941105 0.13792 0.340232 0.515288 -0.760491 -0.196166 0.373861 0.152066 -0.121022 0.985313 -0.603983 0.00857257 -0.910616 0.308318 0.294374 0.0404747 0.623673 0.112565 -0.586195 -0.981311 0.541333 -0.303226 
-0.220984 0.454974 -0.896666 -0.275043 0.562539 -0.0672226 -0.675294 0.373045 -0.403306 0.528272 0.476417 0.996151 0.955508 -0.360602 -0.377558 -0.578689 0.170149 -0.253624 -0.207892 0.487791 -0.89317 -0.379978 -0.480792 0.467044 0.72235 -0.595849 0.750923 -0.617415 0.802256 -0.865202 -0.894889 0.787615 -0.0772872 -0.986612 -0.506664 0.370875 0.303038 -0.264839 0.485853 -0.965029 -0.523665 -0.43568 0.67304 0.609711 0.439346 -0.191629 0.907104 0.894019 -0.934159 -0.00200606 -0.642235 -0.829912 -0.812402 0.638385 0.37808 -0.643129 0.100592 0.480864 0.0316011 0.518253 0.377382 0.108185 0.0523607 -0.960369 0.648027 0.934454 -0.091458 -0.189422 0.292126 -0.244635 0.0577731 0.393186 0.968726 0.334954 0.221698 -0.075864 0.479256 -0.678804 -0.06504 -0.339844 0.592624 0.330506 -0.740938 -0.102631 0.537704 -0.452623 0.93372 -0.804464 -0.440475 0.0652504 -0.262346 -0.640709 -0.451299 -0.00259486 0.0447408 -0.163862 0.477004 0.5299 -0.628127 -0.864229 
0.440973 -0.119485 0.581251 -0.360382 -0.0207625 0.659581 -0.301517 -0.730814 0.794243 0.137699 -0.487455 0.599809 -0.757556 0.199164 0.658981 0.584016 -0.397117 -0.464658 0.66007 0.69914 -0.357118 -0.95124 -0.486788 0.191732 -0.284446 -0.186856 0.0812141 -0.664342 0.0253012 0.61435 -0.656057 -0.0675765 -0.730695 0.447429 -0.241355 0.262497 -0.0799596 -0.65054 -0.950195 -0.21654 0.538141 -0.532789 0.164695 -0.456046 0.588246 -0.7891 0.587545 -0.0117092 0.169367 -0.665271 0.450225 -0.168829 0.639488 0.77254 -0.911089 -0.77089 0.824224 0.0853705 -0.226866 0.453061 -0.230157 -0.238735 0.712401 0.537191 0.868495 0.735959 -0.423983 0.171032 0.216906 -0.519936 -0.0306758 0.502481 0.398321 0.51041 0.00950289 0.890056 0.434239 -0.417062 -0.173443 0.718371 -0.737195 -0.352056 -0.907257 0.628549 -0.759628 -0.963379 0.172503 0.570757 -0.837046 -0.420713 0.94 0.0746343 0.352249 0.888592 0.240702 0.583454 -0.602191 0.818802 0.412147 0.847687 
0.38565 -0.915522 0.291936 -0.190156 -0.133498 -0.928589 -0.678437 0.1384 -0.822612 -0.029605 -0.076528 -0.462307 0.975015 -0.86902 0.291143 0.584103 -0.604925 0.267855 -0.536152 -0.433787 -0.704813 0.19406 -0.495952 -0.67672 -0.168557 -0.420318 0.975413 -0.804045 0.973087 -0.606556 -0.782482 -0.948491 -0.658368 0.515525 -0.836402 -0.347235 0.783054 0.843575 0.483791 -0.569953 0.43337 0.519181 -0.9864 -0.725065 -0.292284 -0.876899 -0.70512 -0.15242 0.394036 -0.0101328 0.24111 0.341498 0.835315 0.2582 -0.633909 -0.437239 0.0445254 -0.310065 0.660478 -0.133401 0.427726 -0.0903328 -0.0804716 0.687893 0.0456222 0.906962 -0.858858 0.0127922 0.734315 -0.615685 -0.0482919 0.417247 0.00269038 -0.0620211 -0.842024 -0.336552 -0.650547 0.669567 -0.603427 0.0112811 -0.775534 0.264826 0.105096 0.374929 0.884893 -0.161823 0.025567 0.484669 -0.149681 -0.412533 0.614759 0.879421 0.802171 0.241097 0.50902 0.0244788 0.266912 0.924634 -0.656268 0.870241 
-0.175869 0.438248 0.205985 0.569266 -0.881822 0.425896 0.582769 0.595852 0.400173 0.804425 0.507312 0.0885576 0.571482 -0.9958 0.629967 0.351546 0.149631 0.923458 -0.987711 0.751881 0.263154 -0.164235 -0.532153 0.479616 -0.36762 0.973523 0.837196 -0.717581 -0.0580629 -0.641675 -0.648056 0.899348 0.382683 0.875554 -0.386052 -0.342296 0.300805 -0.0366293 0.0613472 0.686513 -0.630484 0.24586 0.345918 -0.651142 -0.412623 0.447589 -0.150343 0.633889 -0.0190236 -0.0642059 0.840889 -0.155254 -0.830931 -0.102706 -0.679506 -0.997149 0.480874 0.134133 -0.613296 -0.862935 0.166468 -0.54609 0.792724 -0.491165 0.264455 0.417343 -0.504597 -0.529536 -0.91523 -0.700509 0.240371 -0.580564 -0.664652 -0.00975315 0.447593 0.0138068 0.0965661 0.67152 -0.611183 0.471895 -0.0211657 0.169911 0.945499 -0.828439 -0.73803 -0.694731 -0.653484 0.619456 0.658062 0.140498 -0.770035 0.914545 -0.992584 0.509786 0.932152 -0.692129 -0.288636 0.221622 0.876664 -0.763481 
0.876641 0.727297 0.635809 0.862189 0.942937 0.505651 -0.090978 0.252308 0.481846 0.136887 -0.14648 -0.342927 0.206539 -0.969636 -0.483749 0.856103 0.205603 -0.656563 0.599173 0.0977702 0.943742 0.0398058 0.386806 0.699275 -0.588926 0.268401 -0.590584 0.851493 0.93686 -0.945164 0.681663 0.195653 -0.883031 0.420091 -0.0854498 0.468515 0.974858 0.803069 0.620511 -0.851155 0.668912 0.228039 -0.648496 0.945447 0.520078 0.942724 -0.233501 -0.0637126 0.0212946 0.253191 -0.0208748 0.609022 -0.814341 0.698575 -0.109716 -0.994982 -0.101563 0.322648 0.671263 0.526756 0.334564 0.738621 0.0165997 0.215191 -0.583914 -0.508402 -0.782988 0.0394048 -0.011646 -0.652379 -0.361261 0.388174 -0.134723 -0.215512 0.65779 0.232393 -0.560237 0.963259 -0.850071 0.530973 -0.293232 -0.934313 0.685454 -0.773309 0.0436141 0.0709197 -0.712324 -0.407964 -0.409709 0.302525 -0.710557 0.203832 0.46731 0.0651827 -0.542651 -0.180993 -0.0156631 0.0243044 0.743685 -0.0867862 
0.651802 0.459076 0.910014 0.55154 0.645812 -0.0122553 0.891167 -0.682669 0.032631 -0.830936 0.988802 0.703237 0.0466406 0.867207 0.689596 -0.417141 -0.593764 -0.772637 -0.838187 -0.483655 0.344936 0.39009 -0.614505 -0.35864 0.996415 -0.227272 -0.59592 -0.150764 0.0946986 -0.69331 -0.924337 -0.517528 0.156931 -0.800288 0.777318 0.0357461 -0.237571 -0.421535 -0.207631 -0.740991 -0.664755 0.518683 0.474967 -0.561571 -0.215755 -0.617768 -0.402417 0.27029 0.692716 -0.267378 0.986069 -0.711879 -0.469461 -0.267171 -0.356216 -0.3139 -0.957087 0.579032 -0.316533 -0.552508 -0.789145 0.469217 -0.455584 0.903369 0.99445 -0.315798 -0.646587 -0.200104 -0.633169 0.416223 0.163884 -0.0653507 -0.058041 -0.245144 0.873332 0.673599 -0.239572 -0.303496 0.273194 -0.205462 0.515011 0.219343 0.974522 -0.272806 0.0605903 0.918149 0.991135 -0.217447 -0.396591 0.0849535 0.583809 -0.878542 -0.11843 -0.600307 0.678955 0.271475 -0.645945 0.958463 -0.967783 0.0483077 
0.606277 -0.154009 -0.473471 0.0516196 -0.0183248 0.570972 0.72832 0.328977 0.990503 0.559924 -0.207685 -0.410994 0.437273 -0.429992 -0.616911 -0.275461 0.649943 -0.242236 -0.28452 0.743037 -0.702926 0.346949 0.236132 0.835699 0.743513 -0.297457 0.409678 -0.91376 -0.587086 -0.987674 0.680239 0.578102 0.478873 0.785499 -0.242435 0.943266 -0.895749 -0.948694 0.718548 0.377771 -0.26767 0.709887 -0.429494 -0.0729705 0.922356 -0.526478 0.503096 0.619552 -0.629227 -0.290848 -0.840804 -0.564131 0.382801 -0.815213 -0.452503 0.144372 0.463595 -0.332447 0.844476 0.673799 0.387062 0.484439 -0.976461 0.173998 -0.280702 0.399947 -0.691298 -0.948027 0.534022 0.377498 0.867759 -0.431479 -0.375218 -0.635194 -0.562506 -0.348972 0.0459517 -0.754452 0.00247468 -0.568163 -0.488961 0.286753 0.279711 -0.0140848 -0.166581 0.461526 0.444103 0.271595 0.973374 -0.166296 0.600392 0.831282 -0.524495 -0.312658 -0.750919 0.435641 -0.768457 0.395841 -0.890616 0.63086 
-0.429256 0.530413 -0.771522 0.394298 -0.661316 -0.82483 0.486103 0.941043 -0.740252 0.746741 0.238674 0.0793642 -0.45078 -0.456489 -0.642599 0.880422 -0.850368 -0.329895 0.688592 0.148029 0.164318 -0.973236 -0.101448 -0.0419017 -0.520699 0.253907 -0.155403 0.485544 0.972897 -0.512619 -0.503204 0.86242 0.477564 -0.624296 -0.569049 -0.190014 -0.584735 -0.657276 -0.273269 0.418786 -0.48049 0.0435076 -0.163307 -0.655773 0.239913 0.342113 0.976641 0.0763815 0.460105 0.741267 0.924311 0.32145 -0.298938 -0.829891 0.209459 -0.13474 0.791517 0.954984 0.242691 -0.406652 0.195712 -0.880424 0.105432 -0.257577 0.0188873 0.236025 -0.763691 0.0639381 0.297298 -0.996111 -0.598999 -0.692222 -0.994562 0.0604175 0.461835 -0.488544 -0.243807 -0.953891 -0.86494 0.46016 0.42346 0.424666 -0.358145 -0.863887 0.126629 0.419916 -0.0210473 0.294495 -0.880673 -0.850248 -0.381157 0.311166 -0.383976 0.526913 0.871668 -0.0205047 -0.65262 -0.321662 -0.531165 0.0232308 
0.536907 0.0709652 -0.559449 0.533218 -0.31486 -0.588209 0.882663 -0.508099 0.0993315 -0.976374 0.321287 0.599237 -0.264691 0.664877 0.455024 -0.645322 -0.643383 0.957658 -0.19473 -0.47743 0.751683 0.871504 0.393912 -0.37113 -0.476988 -0.343629 -0.702294 -0.979578 -0.0581815 -0.586032 -0.247274 -0.607707 0.0115724 0.575594 0.522694 0.293217 0.303999 0.926284 0.146446 -0.222572 0.496404 0.854558 -0.681149 -0.304044 -0.905921 -0.169123 -0.774996 -0.795886 0.490665 -0.311152 0.450155 0.750465 0.414294 0.540014 -0.740339 -0.48782 0.913059 -0.0133941 -0.972207 -0.664532 0.87763 0.0964014 0.0695678 0.723713 0.454311 0.918033 -0.251963 -0.301194 -0.328916 0.98315 -0.309338 -0.909856 -0.188615 -0.642854 -0.92906 -0.872161 0.803038 -0.775189 0.94408 0.113403 0.772898 0.266584 -0.744779 0.943424 -0.33667 0.062219 -0.440778 0.111011 -0.50687 -0.667031 0.41807 -0.864108 -0.982306 0.650125 -0.287048 -0.232746 -0.889852 -0.159541 -0.195587 0.588028 
-0.351504 0.765046 0.795538 0.448112 0.0166428 0.342107 -0.0910929 -0.467995 0.13222 0.338575 0.44342 -0.644862 0.0660958 -0.959656 -0.252536 0.193829 -0.11987 0.541453 -0.435142 -0.213173 0.775467 -0.348291 -0.840303 -0.263934 -0.500757 -0.928444 -0.418196 -0.511658 0.335973 -0.809018 0.0949624 -0.485687 -0.464318 0.433024 0.269684 -0.870417 -0.608056 -0.120481 -0.560564 0.436722 -0.534465 0.783684 0.093539 -0.587191 -0.214844 -0.688241 0.0825917 -0.653616 -0.095083 -0.715254 -0.703035 -0.0319402 -0.038719 -0.287866 -0.508038 0.123912 -0.830709 -0.685051 -0.597967 -0.298124 0.623782 0.185695 0.556121 0.241335 -0.122727 0.0953421 -0.902652 -0.109509 -0.0139424 -0.885401 0.146175 0.237529 -0.598613 0.730196 0.034314 -0.00938983 0.753103 -0.307347 -0.0506363 0.83442 -0.673135 0.604138 0.650114 -0.118379 -0.442798 -0.725721 0.990787 -0.973287 0.873614 -0.433551 -0.659486 -0.00596815 0.518447 -0.282556 0.149804 -0.549597 0.35721 -0.732191 0.481224 0.348725 
0.262614 -0.311394 0.465593 0.928255 -0.509062 -0.521217 -0.749129 -0.136785 0.352485 0.706164 0.473377 0.245323 0.416944 -0.702286 0.0012413 0.225995 -0.20872 -0.639272 0.821122 0.000176751 -0.82958 0.665884 -0.320789 -0.194481 -0.611752 -0.116416 -0.175223 -0.661222 0.0207897 -0.692358 0.982545 0.304149 -0.933282 0.552196 0.0571063 0.360124 0.615101 -0.496898 0.610374 -0.782468 0.14004 -0.619815 -0.803675 -0.52554 -0.269816 0.580064 -0.699184 -0.891692 0.428935 -0.343911 0.166435 0.542281 -0.116941 0.105842 0.0379119 0.62404 0.218556 -0.145974 -0.0580762 -0.0443624 0.686781 0.608927 -0.333978 0.672229 0.967115 -0.414485 0.971769 -0.133592 -0.669958 0.346035 -0.221777 -0.520478 0.504532 -0.51859 -0.357576 -0.47119 -0.461005 0.94336 0.112258 -0.29955 -0.0952932 0.555436 0.153748 0.683997 0.567596 0.861311 0.908398 0.0837072 -0.825289 -0.539659 0.638436 0.889815 -0.347709 -0.940081 0.731735 -0.686064 0.26043 -0.742237 -0.287953 0.238902 
0.248223 -0.8416 -0.102915 -0.886137 0.925375 -0.01383 0.0279843 0.202136 0.732812 0.809174 -0.572384 -0.872064 -0.180155 -0.958912 -0.194061 0.171493 0.14498 0.520448 -0.950374 -0.556248 -0.29056 0.443496 0.433595 -0.577732 -0.744223 0.807801 0.849844 -0.102346 -0.242199 0.0373495 -0.250511 0.0653168 0.0574294 0.500364 0.41892 -0.521571 0.61837 -0.579309 -0.688144 0.965964 0.915476 0.41109 -0.810373 0.332429 -0.584031 -0.162188 0.0775047 -0.251727 0.285924 -0.764685 -0.036108 0.749454 0.0731702 0.524695 -0.932853 0.668867 0.76 -0.817054 -0.0426156 0.792322 0.452065 -0.240484 -0.803043 0.514397 -0.593037 -0.0213913 0.726973 -0.409067 -0.719077 -0.506881 -0.0839212 -0.626602 0.568893 0.776213 -0.878529 -0.0361133 -0.812703 -0.799284 -0.877663 -0.438573 0.825583 -0.0392861 -0.948709 0.108299 0.367672 -0.915946 -0.479806 0.516168 0.550076 0.142274 -0.0156977 -0.527859 0.141274 0.326793 -0.0217681 -0.449343 0.471339 0.149469 -0.167782 -0.714116 
0.349567 -0.710203 -0.270583 0.252237 -0.164565 -0.260181 -0.698667 0.00502957 0.0474727 -0.514652 -0.0719199 -0.446597 -0.494258 -0.7622 -0.063465 0.346087 0.673106 -0.981405 0.70625 -0.0442229 -0.592869 0.378094 0.610818 0.0528801 0.000897268 0.0578737 0.63823 0.484158 0.917546 -0.124709 0.130887 -0.866272 -0.247406 0.065178 -0.609186 0.187074 0.300438 0.0184054 0.215036 -0.775978 -0.988245 0.905619 0.460213 0.729857 0.697809 -0.140737 -0.712181 -0.662688 -0.709048 0.345479 0.357431 -0.748762 0.356538 -0.169422 -0.359916 0.142495 -0.0477196 -0.575156 -0.424466 -0.885333 0.762035 0.717403 -0.514641 -0.144646 0.702848 0.140472 0.658931 0.0698222 0.265207 -0.950372 -0.309737 -0.0252842 0.242982 -0.361319 -0.184214 -0.710362 -0.271991 0.984262 0.451737 0.922834 0.559232 -0.930807 0.913936 -0.101048 0.201334 0.627154 0.0273697 0.527482 0.733774 -0.185135 -0.135987 0.836403 0.539816 -0.58382 0.554589 0.268753 0.0649616 -0.518054 0.464306 -0.870241 
0.309974 -0.932436 0.233053 -0.806635 0.567261 -0.767268 -0.514966 -0.915962 -0.901773 -0.00292511 0.536739 0.894998 0.809174 -0.225458 -0.0602411 -0.915108 -0.908103 -0.0762763 0.02619 -0.939701 -0.539 0.734816 0.0249554 0.132503 0.599627 -0.706355 -0.664577 -0.276854 -0.431053 -0.0199583 0.983465 0.685873 -0.28526 0.669725 0.921882 -0.593862 -0.8935 -0.912232 0.847763 0.508172 -0.547006 -0.160558 -0.164996 0.488873 -0.575334 0.230413 -0.763884 -0.789115 0.121062 -0.940693 0.737608 -0.915285 -0.0772064 0.962689 0.733799 0.994915 0.732423 -0.0934265 0.212934 0.927951 -0.644255 0.729915 0.433546 0.656083 -0.308204 -0.353917 -0.560732 -0.112084 -0.709697 0.522497 0.742314 -0.460912 -0.673324 0.378406 -0.864899 -0.724996 -0.485893 -0.343982 0.64195 0.178359 0.478953 -0.834757 0.691705 0.456739 -0.186865 -0.698685 -0.9203 0.411528 0.579109 0.66527 0.714998 -0.810815 0.291891 -0.78151 -0.169069 -0.469863 -0.651599 -0.409828 -0.430478 0.728557 
-0.209193 0.730623 0.594406 -0.585665 -0.341056 0.170497 0.535925 -0.995573 -0.458187 0.645837 0.354642 0.236389 -0.809316 -0.0571702 0.983056 0.264934 0.908856 0.0435059 -0.260857 0.117927 -0.0471328 0.0948625 -0.412903 -0.143006 -0.251108 0.271672 0.440894 0.462804 -0.106426 0.887418 0.664786 -0.113305 0.244996 -0.0731902 -0.178144 -0.363386 -0.925886 0.365493 0.99287 0.247639 0.798452 0.896976 -0.218128 -0.979807 0.0753929 0.523523 -0.992965 0.762273 0.880083 0.279391 0.157565 0.260227 0.287784 -0.768915 -0.986674 0.826635 -0.990013 0.260178 -0.928056 0.731101 -0.611758 -0.962842 0.477345 -0.13134 -0.319313 0.00915137 -0.491269 -0.473547 -0.585353 -0.794903 0.711218 -0.841087 0.0365127 -0.523544 0.710745 -0.4969 0.0412061 0.972295 0.180936 -0.624614 -0.199294 -0.814447 0.657254 -0.61405 0.278735 -0.683541 0.0144337 0.502455 0.82075 0.947711 0.186839 -0.788114 -0.56305 0.199301 0.919718 -0.786354 -0.0402964 0.165064 0.388489 -0.471158 
-0.238114 0.82714 0.883302 -0.0341807 0.0358075 -0.0742731 -0.108192 -0.191741 0.568079 0.478575 0.174715 0.842605 0.589987 -0.78709 0.445919 -0.664648 -0.142469 -0.81347 -0.56319 -0.78381 0.111551 -0.794926 -0.320991 -0.0140916 0.849825 -0.297925 0.298963 -0.352307 0.0353654 0.0841352 0.0872386 0.810774 0.60055 0.320362 0.28129 -0.923841 -0.341847 0.0734937 0.431744 -0.705697 0.217714 -0.342916 0.152172 -0.990788 0.692535 -0.543679 -0.984594 0.928181 0.0863955 -0.481614 0.601208 -0.501239 0.0628749 -0.877777 0.0108326 -0.760052 -0.371413 0.633104 0.339635 0.914641 -0.304195 0.357429 -0.222402 0.295984 -0.756416 0.0497435 -0.0135464 0.270399 -0.630426 0.389337 -0.339864 -0.795261 0.677323 -0.39329 -0.0841962 -0.0408381 0.020423 0.510196 -0.964596 -0.950254 0.6938 -0.0756959 -0.775396 0.151216 0.209726 0.228946 -0.732027 0.122733 0.0918664 0.987763 0.948989 -0.333617 -0.962125 -0.00299507 -0.58545 0.564909 0.751209 -0.88353 0.708099 -0.133324 
-0.177114 0.851966 -0.863906 -0.0849867 -0.178621 0.50908 -0.304713 -0.462986 0.175315 0.762108 -0.418105 -0.847948 -0.0397195 -0.771166 -0.345021 -0.752782 0.4349 0.97016 0.977613 0.0719581 0.463973 -0.79955 -0.544399 -0.137652 -0.071631 0.68275 0.0297044 -0.513741 -0.0722256 0.000514078 -0.647282 -0.010136 0.527099 -0.902353 -0.87423 -0.63909 0.0427265 0.890224 0.845865 0.440172 0.704791 -0.478667 0.559607 0.226621 0.155083 -0.753336 -0.812812 0.0505424 0.393599 -0.942941 0.542657 0.231378 0.90703 -0.846343 -0.221794 0.924197 0.30831 0.984495 -0.138037 -0.369063 0.0818825 0.164429 0.159161 -0.217477 -0.0441844 -0.547176 0.785955 0.0801353 0.570663 -0.728048 0.607583 0.369976 0.170164 0.0117657 0.291661 0.0987334 0.0159552 -0.947146 0.11488 -0.938618 0.529095 -0.401379 0.734298 0.334729 -0.159602 0.352405 -0.695862 0.871706 -0.0800233 0.848818 0.238542 0.931518 0.198537 0.848481 0.817806 -0.0288943 0.304916 -0.37981 -0.186166 0.275751 
-0.480871 0.939946 -0.792372 0.472884 0.339494 -0.136128 -0.748896 0.338054 -0.653209 0.280211 0.899644 -0.986851 -0.961587 -0.795781 0.00394256 0.817514 -0.452196 0.853279 -0.43547 0.494437 0.760886 0.0125212 0.485025 -0.287187 0.235325 -0.909199 0.256726 -0.314625 -0.577372 0.632652 0.943915 0.466245 -0.108193 -0.337277 0.214086 0.702163 -0.885337 -0.68669 0.435835 0.399401 -0.55331 -0.701979 -0.328958 -0.769138 0.0185178 0.616685 0.355975 0.857232 -0.703245 0.242267 0.950397 0.592634 -0.6466 -0.692923 -0.179123 -0.914463 -0.424447 -0.298201 -0.493217 0.320088 0.999016 0.359654 0.905176 0.444259 0.560707 0.425191 -0.85746 -0.0485866 0.656545 -0.946704 0.276693 0.666129 0.973721 -0.827068 0.061886 0.147384 -0.471056 -0.959732 -0.0855968 0.613096 -0.940828 -0.234765 0.378418 0.400814 -0.630569 -0.117822 0.613655 -0.143099 -0.389671 0.950833 -0.463438 -0.127029 -0.979195 -0.780531 0.302003 -0.00635666 -0.628956 0.159735 -0.851951 -0.892403 
0.482774 0.525912 0.0853828 -0.877405 0.710411 -0.157416 0.945641 -0.0810336 0.198873 -0.28908 0.00848236 0.748945 -0.975803 0.443389 -0.175727 -0.0465339 0.582979 -0.26366 -0.980228 -0.95479 -0.844364 -0.423717 0.24193 -0.626779 0.131942 -0.710054 -0.181101 0.594056 -0.306342 0.89533 -0.506721 0.992309 0.917493 0.750514 -0.956169 -0.789915 0.0469087 0.279858 -0.00203441 0.449566 -0.224032 -0.72379 0.122676 0.610792 -0.530454 -0.661697 -0.521859 -0.9156 0.185124 0.809962 -0.341484 -0.9018 0.617604 -0.356353 -0.938351 -0.133377 0.114577 -0.934715 0.0944872 0.604447 0.429727 -0.91951 0.882219 -0.646273 0.693315 -0.0539198 -0.904694 -0.423025 0.307929 0.766418 -0.171928 -0.90748 0.775106 0.329838 -0.0140393 -0.291631 -0.389268 0.0221407 -0.886209 -0.517014 -0.827512 0.915799 -0.66314 -0.833906 -0.985711 0.116491 -0.0948007 0.17695 -0.00490312 -0.825374 0.241887 -0.277123 -0.583588 0.466866 0.591629 0.651939 0.445295 0.732245 -0.639588 0.579732 
0.0840457 -0.535508 0.66021 0.368031 -0.69214 -0.119411 0.203792 -0.876632 -0.686777 0.181108 -0.23682 -0.255939 -0.116416 0.604749 0.830406 -0.419144 -0.167466 -0.811476 0.19426 0.861695 -0.631524 0.382021 -0.665825 -0.674533 0.103704 0.360404 -0.316949 -0.374403 0.822201 0.0512876 0.438867 0.383879 -0.529942 0.440343 0.962451 -0.388742 0.401707 -0.608757 -0.99798 -0.768876 0.612872 0.81345 0.0251741 0.317286 -0.0721455 0.0319932 0.395043 0.127077 0.646547 0.491609 -0.899675 -0.860031 -0.508666 0.505004 0.790955 0.348835 -0.560284 -0.391449 -0.751097 0.57016 -0.577279 0.139785 0.36262 0.222652 -0.539636 -0.254836 0.151522 -0.205608 0.130995 0.611316 -0.0888693 0.712895 0.413036 0.48692 0.666083 0.692085 -0.229021 -0.77016 -0.418739 -0.616878 0.696358 0.477315 -0.533055 -0.27952 0.267854 -0.560799 0.0720231 -0.138859 -0.0978951 0.023535 0.373242 0.148396 -0.160193 0.835245 0.94152 0.62424 0.555998 0.969698 0.498509 -0.773367 
0.967661 0.837629 0.723083 -0.729182 0.904633 0.834494 -0.578612 -0.853054 0.201799 0.0774976 -0.143281 -0.459256 -0.475232 0.190494 -0.143494 0.83237 0.016683 -0.973901 0.457012 0.650018 0.462649 -0.893969 -0.370377 -0.26551 -0.838904 -0.919736 0.811797 0.879512 -0.375762 0.520251 -0.383989 0.936515 0.471285 -0.682837 0.132823 0.105177 0.300497 -0.588489 0.983619 0.85441 0.567597 0.857863 0.274224 0.33534 -0.757708 -0.991108 0.453512 -0.0217283 -0.0441445 -0.581536 -0.0400576 -0.831484 0.745789 -0.235275 0.949809 0.49256 0.127351 -0.637797 0.814934 0.988458 0.515733 0.225349 -0.12568 0.866407 -0.628293 0.380567 0.439864 -0.453387 0.459087 0.608999 -0.0460409 0.414684 -0.199787 0.979401 0.151411 -0.382116 0.895668 0.0482793 -0.974791 0.1175 0.948464 0.915427 -0.112689 -0.47339 -0.724399 0.699487 -0.244426 -0.0739574 -0.631765 -0.0234452 -0.656844 -0.209026 -0.66348 -0.129943 -0.546088 -0.674133 -0.762169 -0.90165 -0.355163 -0.0271752 
-0.220823 0.940954 -0.904499 0.728042 0.539713 -0.0225125 0.174719 -0.558841 0.025759 0.70774 0.431662 0.936669 0.678752 0.355543 -0.839649 -0.533802 -0.218068 0.385466 0.637502 0.732452 -0.96105 0.153124 -0.547577 -0.742437 0.796787 0.877315 0.610627 -0.444573 -0.584452 -0.289021 -0.302467 -0.881309 0.578972 0.618662 -0.782681 0.995971 0.621724 -0.0337903 -0.35951 -0.942377 -0.382459 0.778369 0.709688 0.273454 0.575312 -0.567044 -0.0205724 -0.433757 -0.188161 0.0983341 -0.175366 -0.416582 -0.719209 0.185857 -0.962469 0.39191 -0.204819 0.0217838 -0.390971 0.568722 0.104992 -0.173424 -0.949293 -0.410376 -0.145303 0.920046 -0.887191 -0.113996 -0.375644 0.0842925 -0.585127 -0.494997 -0.994478 -0.811509 -0.0725131 -0.226397 -0.420815 -0.412327 -0.234885 -0.51147 0.956025 -0.409473 0.979135 -0.408089 0.933812 -0.228879 0.482575 0.0310788 0.998933 -0.570064 0.466042 0.165385 -0.561737 0.797099 -0.851347 -0.225197 0.57788 -0.828883 -0.391101 -0.481869 
0.831601 0.362875 0.365185 -0.103083 -0.650679 -0.702257 0.319016 -0.17949 0.107978 -0.111225 -0.98126 0.21769 0.511372 -0.733781 0.457961 0.719745 0.0389651 -0.06421 -0.55143 0.387689 -0.561283 0.838869 -0.0297655 0.937498 0.99167 -0.456454 0.41628 0.584142 -0.125138 -0.0723254 0.302184 0.541235 0.802333 0.652115 0.137916 0.791932 0.906088 0.22883 -0.135651 0.0161154 -0.202675 -0.0943094 0.894231 -0.226713 0.620309 -0.979807 -0.578699 -0.395057 -0.474153 -0.254458 0.878413 -0.829002 -0.529201 -0.525164 0.458808 0.471003 -0.45137 -0.927088 0.949918 -0.0361734 0.812282 -0.644258 -0.473949 -0.869363 -0.765092 -0.711156 -0.120069 -0.510513 -0.916537 0.207243 -0.0791519 -0.293954 -0.404636 -0.16598 -0.0797916 -0.913909 0.231494 -0.823464 -0.584872 -0.189835 0.561123 -0.62879 -0.210176 0.765994 -0.0451745 -0.960236 -0.129292 0.152039 0.427518 0.327869 -0.649105 0.543212 -0.47418 -0.689567 -0.582927 0.443577 0.663461 0.00872525 0.4323 -0.795082 
-0.316159 -0.573163 -0.296362 0.701913 -0.0629928 -0.0219932 -0.101469 -0.0819048 0.51153 0.559691 -0.638538 -0.746502 -0.612206 -0.146255 0.969188 -0.756556 0.58909 0.967379 0.657419 -0.516244 0.485954 -0.0379501 0.4247 -0.711514 0.661058 0.17904 0.285382 -0.0501035 -0.93238 0.00546381 0.894232 0.247778 -0.886383 0.134775 0.931128 0.472585 0.530525 0.375027 -0.807145 0.0905845 -0.257878 -0.283316 0.73233 0.0659823 -0.82643 0.106007 0.893429 0.576338 0.148393 0.624526 0.386625 -0.613958 0.297918 0.766856 -0.59146 -0.0156527 0.826507 0.927327 -0.964666 0.626097 -0.459213 -0.0346981 -0.774035 -0.948714 -0.58578 0.941424 -0.365745 0.663729 0.0375423 0.146429 0.769277 0.518946 0.75889 0.0533809 -0.273822 -0.685238 0.872541 -0.936603 -0.597943 0.763426 -0.0520253 0.951911 0.210974 0.278232 -0.258326 -0.961043 -0.354224 -0.138961 -0.175033 0.548722 -0.24036 -0.314732 0.0053213 0.630749 0.860047 -0.533276 0.253691 0.366458 0.760974 0.764626 
-0.0873923 0.189942 -0.379194 -0.471105 -0.0243677 0.0959436 -0.412214 -0.349866 -0.598849 0.0579931 0.573897 0.595482 0.913288 0.569336 0.978236 0.540234 0.727538 0.81817 0.781163 0.231906 0.33945 -0.551124 0.987927 -0.195336 -0.511905 0.981216 -0.68757 0.360062 -0.543602 -0.0939414 -0.584324 -0.569947 -0.901102 -0.578953 -0.852877 -0.673901 -0.204289 0.454582 -0.43851 0.0327834 -0.921418 0.223162 -0.724649 -0.0457652 0.474477 0.477911 0.522483 0.891547 0.186993 -0.522018 -0.851027 0.621411 -0.594561 -0.0194958 0.00519712 0.803223 0.0111567 0.650672 -0.456627 -0.898394 -0.487794 -0.754706 -0.139827 0.661609 -0.366772 0.658172 0.373485 0.095065 0.165587 -0.117158 0.94755 -0.592128 -0.955067 -0.941067 -0.0338161 0.663121 -0.603899 -0.668978 -0.213304 0.597881 -0.920831 -0.0925051 0.618482 0.327001 0.141015 0.9098 0.433287 -0.178532 -0.894564 0.746095 0.937325 0.15301 0.471202 -0.74526 -0.894297 0.433614 -0.331724 -0.779725 -0.45491 -0.8434 
-0.90718 0.699071 -0.502974 0.417628 -0.767721 0.377651 0.399984 0.158005 0.0941081 0.249533 0.452945 0.828493 0.390215 0.643903 -0.843761 0.16324 -0.895267 0.30339 -0.792069 0.246267 -0.51435 0.242292 0.990535 -0.832559 0.179921 -0.488616 0.27725 -0.745318 0.286954 -0.0489982 -0.314404 0.054339 -0.0466856 -0.204438 -0.0285192 -0.114938 0.267981 0.228476 -0.0733147 0.467776 -0.54165 -0.256727 -0.671356 0.959817 0.855775 -0.402072 0.607162 -0.455838 0.121877 0.110498 -0.639893 0.0549586 -0.200736 0.0773952 -0.0792732 0.682984 -0.593613 0.649851 0.0974216 0.916055 -0.761233 0.275846 0.467559 -0.39064 -0.0229847 -0.400306 0.95059 0.912659 -0.46063 -0.272303 -0.245059 0.339146 -0.526274 -0.370132 -0.705503 -0.08886 -0.95589 -0.930913 -0.628534 0.342905 0.669274 -0.792365 -0.0375012 0.852344 -0.528951 -0.469937 -0.517854 -0.546035 -0.894509 -0.333444 0.410602 0.424843 -0.488585 -0.573696 -0.19938 -0.762326 0.286343 0.693564 0.682031 -0.3686 
0.282055 -0.333839 -0.722508 -0.897253 0.0122982 -0.40945 -0.436258 0.958164 -0.074228 -0.27245 -0.813084 -0.405655 0.571308 -0.389266 0.456629 0.0635782 -0.720247 -0.0148355 0.421438 0.103452 0.932894 -0.846735 0.181868 0.494895 -0.185799 0.579933 -0.882012 -0.649694 0.876553 -0.0863338 -0.386549 -0.737377 0.238668 0.758759 0.0968543 0.935425 -0.0146657 -0.460276 0.372282 0.950749 -0.397034 0.0467854 -0.794305 0.0851558 -0.178972 0.746383 -0.784842 0.530423 -0.189099 0.88556 -0.0491396 -0.702784 -0.955781 -0.167721 0.121276 0.894882 0.278786 0.0667552 0.266032 -0.709616 0.510376 0.183724 -0.213983 0.34593 0.441339 0.590338 0.749996 -0.782985 0.613999 -0.97022 -0.914489 0.389226 -0.322761 -0.87943 0.490557 -0.0148569 -0.645878 0.634093 -0.761754 -0.532489 0.512771 0.891219 -0.283622 0.171325 0.183949 0.146226 -0.558674 0.709994 0.688301 0.861725 0.968492 0.89144 0.900101 -0.113276 0.159389 0.716682 0.062572 0.336116 -0.136473 -0.741499 
-0.456849 -0.139557 -0.754254 -0.959908 -0.421491 -0.606159 0.316884 -0.590523 0.659312 0.95388 -0.0976957 -0.598863 -0.262943 0.615922 -0.476459 -0.446534 0.0925702 0.476461 -0.949114 0.551975 0.152225 0.848039 -0.800636 0.596069 0.702485 -0.582806 -0.819263 0.318676 0.149382 -0.869736 -0.902379 0.223256 0.922661 0.509828 0.831618 0.695669 -0.6572 -0.981301 0.233164 -0.283596 -0.306466 -0.915685 0.230201 0.0126503 -0.324306 -0.971064 -0.623034 0.98689 0.114931 0.23379 -0.334519 -0.444703 -0.962147 0.0263294 0.0223011 -0.299653 -0.133975 0.496848 0.691124 0.593824 0.762855 0.46063 -0.633882 0.838442 -0.622377 -0.185127 0.87518 -0.783964 -0.293104 0.986594 -0.782278 -0.137759 -0.492578 -0.536698 0.600386 0.419779 0.342029 0.950842 -0.823713 0.450648 0.387417 -0.640382 0.626188 0.495692 0.128634 -0.257268 -0.364089 -0.388029 0.0542349 0.29719 0.286096 0.17965 -0.965179 -0.274835 -0.257346 0.218438 0.697551 0.542775 -0.0453769 0.0242338 
-0.751796 -0.320159 0.701173 0.394045 -0.742705 -0.652683 -0.502599 -0.954561 0.593956 0.835344 -0.785371 0.542478 -0.650524 0.241688 -0.0710214 0.0471554 0.000122285 -0.394844 -0.982441 0.355599 -0.210412 -0.200244 0.315719 -0.701435 0.179048 -0.914705 -0.444217 -0.860873 0.966948 -0.676646 -0.270804 0.226941 0.576495 -0.300599 0.881669 -0.766562 -0.350361 -0.292633 0.380185 -0.804253 0.5972 -0.865271 0.184866 0.354522 -0.439772 0.517923 0.202425 -0.450318 -0.500929 -0.55823 0.753042 0.235376 0.944731 -0.735778 -0.177922 0.588572 0.60965 0.450248 0.0501868 0.949869 0.0133992 0.833904 0.286827 -0.656896 0.175933 0.197194 0.339345 -0.210338 0.528227 -0.21403 0.0870013 -0.606207 0.7485 -0.275729 -0.671158 0.110463 -0.597231 0.0123886 -0.940748 0.641988 0.524926 -0.133798 0.303334 0.296387 0.963602 -0.014119 0.214617 0.981917 -0.130768 -0.304066 0.825715 0.24181 -0.561569 0.118444 0.683547 -0.179044 -0.784834 0.519254 -0.966208 -0.978479 
-0.261597 -0.802007 0.461313 0.507102 0.299465 -0.473026 -0.938747 -0.167824 -0.000582885 0.851882 -0.926192 0.187555 -0.546223 -0.4807 -0.40316 -0.662465 0.664132 0.87421 0.347549 0.516466 -0.33572 0.659079 -0.897775 -0.862428 -0.555707 0.00345846 0.600881 0.153859 0.525577 -0.837385 0.438945 -0.756418 0.0343693 0.460647 -0.184349 -0.0658655 0.470907 0.116947 -0.360666 -0.261945 0.00149671 -0.162348 0.967671 0.0572953 -0.672734 0.625838 -0.525255 0.937377 0.967977 0.216644 0.547092 -0.509511 0.954933 -0.949236 -0.288008 0.227923 -0.203869 0.878456 -0.256466 0.834163 0.0144191 -0.629065 0.0234201 0.170565 -0.589715 0.610035 -0.156647 -0.226065 -0.936306 -0.41395 -0.103724 -0.511464 0.979875 -0.0961288 0.405259 0.418504 -0.709613 0.160684 -0.304978 -0.529764 -0.0432409 -0.357536 0.115316 -0.824804 -0.142339 -0.131223 -0.792565 -0.916592 0.558329 -0.214799 0.00428808 0.986551 -0.0171484 -0.769282 0.459102 0.199407 -0.565779 0.467297 -0.923799 -0.940386 
-0.11835 -0.845035 -0.0294082 0.0245292 -0.254531 -0.442747 -0.83678 -0.480581 0.529065 0.656548 -0.725949 -0.745017 -0.0632123 -0.173403 -0.494769 0.106796 -0.671878 -0.430751 0.5391 -0.778598 0.0713274 0.461504 -0.0174183 0.451951 0.181385 0.981201 -0.976782 -0.366836 -0.183816 -0.787038 0.557136 -0.691721 -0.923891 -0.589865 0.123214 -0.326981 0.792652 0.420463 0.602203 -0.132861 -0.934805 -0.0844497 -0.716765 0.724045 -0.159086 0.52097 -0.832568 -0.729231 -0.159205 -0.67705 -0.179709 -0.140277 -0.161177 -0.663978 0.526937 0.0512936 -0.816374 0.469639 0.734284 -0.619123 0.0180401 -0.496282 0.475797 -0.142909 -0.0126379 0.677369 0.987024 -0.46717 0.660574 0.122674 -0.0198669 -0.845915 -0.0152107 -0.930389 0.730951 0.164259 -0.757258 0.68916 -0.65355 0.11275 0.0116264 -0.405758 0.265854 0.0911765 -0.937631 -0.99361 -0.634963 0.897155 -0.795387 0.231167 0.584967 0.0293081 -0.0350435 0.949173 0.277367 0.487327 0.797686 0.765799 0.665062 -0.981402 
0.132392 -0.225643 0.074246 0.173157 -0.934014 0.724095 0.577366 0.715903 -0.275211 -0.671379 0.0549388 -0.0739121 0.324169 -0.219918 -0.482758 -0.453651 -0.718121 0.862858 -0.575274 0.432635 0.504633 0.963914 0.847562 -0.453347 0.0377173 -0.659272 0.490698 -0.201653 -0.446472 0.552014 0.48292 0.308385 -0.549527 0.00324537 0.373865 -0.272751 -0.258751 -0.155445 -0.342104 0.140938 -0.685647 -0.421682 -0.114856 0.113326 0.0320255 -0.269335 0.507612 0.831958 -0.401939 -0.165878 -0.884827 0.861658 -0.769847 -0.948388 -0.644043 -0.888612 0.90723 -0.822014 -0.79235 0.905781 -0.69112 0.784665 0.879983 0.732054 0.555725 0.946152 -0.980758 -0.344293 0.11192 -0.413467 -0.186108 0.622072 0.450366 0.0316688 -0.0331295 0.677014 0.728046 -0.566838 -0.613553 0.829353 -0.580148 0.0425931 -0.564234 0.0737325 -0.300098 0.187993 0.758466 -0.602329 0.911509 -0.130113 -0.0846198 0.63608 -0.747907 -0.760373 -0.0218864 0.206681 -0.920766 -0.787277 -0.47222 0.169825 
0.306437 0.527712 0.0557593 0.38815 -0.242508 0.721827 0.448417 0.0812973 0.487761 -0.378932 0.310059 0.0269552 -0.288509 -0.879164 -0.537413 0.797533 0.271393 0.966117 -0.0815226 -0.101526 -0.589964 -0.444404 -0.452264 0.549222 -0.238039 0.358221 -0.315304 -0.000783561 0.469125 0.286364 -0.645473 -0.905627 -0.285139 -0.806723 -0.84423 -0.850602 0.141043 0.303887 -0.189154 0.554359 -0.399633 0.553383 0.900897 0.347115 -0.709506 0.878035 0.236503 -0.889991 -0.169185 0.520433 0.0939483 -0.271953 0.326516 0.205292 -0.930353 0.894575 0.879376 0.986534 -0.142896 0.660702 0.470987 -0.732164 -0.875819 0.0724392 0.931332 -0.749739 0.625361 -0.878761 0.635694 0.291174 0.0106701 -0.0955754 -0.0513609 -0.941671 0.31484 -0.0245788 0.115335 0.715769 0.499837 -0.195341 0.317534 -0.0012581 -0.451861 0.97317 -0.737095 0.237489 0.496566 0.662776 -0.822287 -0.52428 -0.453652 0.125793 0.630568 0.107013 -0.280715 0.0393314 0.278615 -0.664597 0.222509 0.517902 
-0.428452 0.546696 0.187917 0.328822 -0.759594 -0.0293143 0.0782691 -0.248295 -0.950908 0.285151 0.794731 -0.129823 0.337756 -0.0298861 -0.531571 -0.859477 0.438817 0.167895 0.146602 -0.0232643 -0.937625 0.523425 0.444217 0.731772 0.142345 -0.979465 0.261059 0.231638 -0.409574 0.0608526 0.446776 -0.892914 -0.556902 0.60138 -0.867186 -0.423741 0.662582 -0.366116 0.778458 0.139738 -0.158261 0.959322 0.237981 -0.184103 0.569406 0.394384 -0.1556 0.26749 0.0972581 0.359075 -0.742882 -0.873134 0.712729 0.192486 -0.632497 0.508923 0.907628 0.391511 0.911662 -0.719539 -0.92117 -0.743869 0.396743 0.435342 0.642699 0.72275 0.881048 -0.134769 0.796758 -0.177479 0.163101 -0.466971 0.356483 -0.284736 0.292372 -0.234618 0.581173 -0.467726 0.706136 0.385429 0.377073 -0.839964 0.300538 0.386392 0.377919 0.811082 0.379957 0.349095 -0.970012 0.179549 0.36978 0.485978 -0.545732 -0.119527 0.351727 -0.29235 -0.615506 0.509694 0.699853 -0.00320053 
-0.99247 -0.613331 -0.847909 -0.476874 0.393008 -0.813814 -0.114809 0.276345 0.568491 -0.118125 0.223414 -0.615069 -0.388364 -0.11034 0.653494 -0.935894 0.150453 -0.523654 -0.311796 -0.636808 -0.998208 -0.204366 0.608948 -0.166738 0.927025 -0.302001 0.60817 -0.182864 -0.902862 0.117528 0.0091429 -0.039803 0.31307 0.676638 -0.615627 -0.601123 0.988188 0.577771 -0.894305 0.266031 -0.493935 -0.048079 0.639728 -0.750284 0.964782 -0.297977 0.0133457 -0.364502 0.264224 -0.682187 0.251343 -0.997403 0.403054 -0.445012 -0.259602 0.500684 -0.0471778 0.0867913 0.561708 -0.244208 0.310013 0.977244 -0.215228 0.176999 0.97823 0.575014 -0.493051 0.62703 -0.456412 -0.518375 0.0602393 -0.321355 0.208155 -0.962815 0.384959 -0.963201 -0.80291 -0.28525 0.245608 0.299722 -0.584615 0.584187 0.457119 0.135864 -0.422265 -0.958263 0.807088 -0.179419 -0.910346 -0.116994 -0.805978 0.990548 0.740639 -0.84919 0.963778 -0.806414 0.736065 -0.919367 -0.811559 0.574984 
-0.40021 -0.0300158 0.163509 -0.193436 -0.545776 0.404252 0.468635 0.798871 -0.372488 -0.767697 -0.193812 -0.100847 0.183435 0.344365 -0.46719 0.0741314 -0.742427 -0.794337 0.236235 0.469155 0.533346 0.0246887 -0.00993593 0.78033 0.645124 0.427497 -0.271825 -0.788443 -0.835366 0.278822 0.832257 -0.584657 -0.0634921 0.23948 0.0445306 -0.178562 -0.709237 0.0542057 -0.41064 -0.33648 -0.951983 -0.396005 -0.721982 0.927375 -0.901016 0.095619 -0.273947 -0.4035 -0.124199 0.629248 0.768093 -0.460252 -0.44194 0.562332 0.698567 0.352406 0.30645 -0.0580719 0.843078 0.456481 -0.276522 0.883157 0.011257 0.200994 0.953597 -0.388464 0.718458 0.980851 0.836314 -0.554298 -0.294038 0.843442 0.802596 -0.218589 0.866801 0.406784 0.579924 0.33187 0.21684 0.292694 0.38599 -0.957456 -0.707147 0.942296 -8.25222e-05 0.794457 -0.653422 -0.147412 -0.310699 0.667848 -0.840412 0.48136 -0.846144 -0.46407 -0.270343 -0.604997 -0.800088 0.954447 0.828753 0.811978 
-0.893408 -0.396833 0.929904 -0.981303 -0.893737 0.170825 -0.0880592 -0.740259 -0.167455 -0.549602 0.979936 0.0852426 -0.463749 -0.483194 -0.480435 0.550105 -0.885542 0.773073 -0.86503 -0.184689 -0.458976 -0.12942 -0.48326 -0.748569 -0.666561 0.92637 -0.596415 -0.756534 0.655117 -0.877709 -0.961248 -0.899638 -0.612585 -0.902031 -0.593621 -0.0708279 0.916008 0.0383389 0.618846 -0.818986 0.139039 0.764136 -0.40541 0.821849 0.38526 0.203215 0.390413 0.90508 0.588543 -0.361897 0.156955 0.0298834 -0.620826 -0.223536 0.516179 -0.185525 0.919417 -0.85322 0.831538 -0.148204 0.266636 -0.714086 0.683244 -0.205038 0.00579237 -0.446925 0.742766 -0.0125896 -0.13118 -0.864947 -0.57852 0.697629 -0.671411 -0.758905 -0.536407 -0.349241 -0.927127 0.674141 0.714325 -0.276995 0.919476 -0.883346 -0.1139 0.291359 0.116837 0.340918 0.980155 0.93647 -0.508037 0.164182 0.72934 -0.432863 -0.38298 -0.326648 -0.246796 -0.720652 -0.963222 -0.654267 -0.26355 -0.927262 
-0.299806 0.111812 0.0610692 -0.153663 0.815158 -0.539967 0.122336 0.323176 -0.429283 0.723582 0.72783 -0.226279 0.472057 0.600249 -0.837912 0.475708 -0.248303 -0.237493 -0.633133 -0.628941 -0.353601 -0.966488 -0.533891 0.280428 -0.351587 -0.757195 0.224367 -0.048502 -0.559314 0.372705 0.80147 0.0715055 -0.21277 0.0606375 0.462056 0.400458 0.238512 -0.0793586 0.120307 -0.883293 -0.142165 0.911519 0.267451 -0.545873 -0.488288 -0.969811 0.389637 0.549973 0.495417 -0.735568 0.238491 -0.0320075 0.866447 0.143255 0.0299266 0.206905 -0.581497 -0.307087 0.932074 -0.18059 0.336641 -0.606693 0.537966 -0.637913 0.0899786 -0.967079 -0.12517 0.745919 0.657816 0.203216 0.24763 -0.240386 0.953255 -0.642199 -0.762682 -0.945625 -0.883956 -0.609275 -0.32051 0.398367 0.683447 0.393379 0.629846 -0.0540854 -0.0674596 0.123952 -0.308405 0.612166 -0.898011 -0.765503 -0.314252 -0.843754 0.727031 0.964014 -0.64251 0.226383 0.684481 -0.502671 -0.732367 -0.376757 
-0.452424 0.879762 -0.964787 0.830384 0.0719174 -0.688023 -0.991417 -0.828889 0.219229 -0.0128875 0.583337 0.611462 0.245706 -0.719126 0.721943 0.854539 0.270037 0.337369 0.127221 0.900961 0.113631 0.838014 0.707898 0.457157 -0.863382 0.69323 0.824535 0.996064 -0.795231 -0.695388 -0.244774 -0.758372 0.479798 0.676102 -0.406756 0.124876 0.599846 0.322819 0.547854 0.00249752 0.180259 -0.462954 0.262577 -0.666312 0.866277 0.185784 0.694095 -0.215922 0.322222 -0.955969 0.124169 -0.645847 0.858192 -0.578438 0.487406 -0.708125 0.757424 -0.928549 -0.819917 -0.387393 0.270016 0.353734 0.102223 0.347061 -0.778606 0.173621 -0.0182425 -0.445516 -0.255566 -0.797342 -0.402501 -0.279584 0.269089 0.749123 -0.613314 -0.971077 0.464744 -0.372454 0.292419 0.708442 0.224897 0.82677 0.918484 0.445639 0.232575 0.507607 0.398428 -0.157786 0.840647 0.402121 0.925937 -0.646294 -0.538927 0.916072 -0.887088 0.605536 0.204632 0.580911 -0.70968 -0.100679 
-0.0238497 0.61571 0.539907 -0.94775 0.74911 0.468087 0.251165 -0.198817 0.141286 -0.239441 0.230098 -0.123774 -0.869709 -0.525728 -0.85482 -0.915125 0.260095 -0.862829 0.909424 0.511278 0.935944 -0.698955 -0.890835 0.659046 -0.0243616 -0.751778 0.50312 0.412251 -0.513092 -0.862347 -0.604579 0.411246 -0.883095 -0.39397 -0.776029 -0.61867 0.923567 0.151461 0.314074 0.0886064 -0.770783 0.455507 -0.140706 -0.713196 -0.523995 -0.301597 -0.619884 -0.361658 0.191135 -0.153565 -0.987056 -0.60547 0.105965 -0.457402 0.911771 0.161583 0.204889 0.450548 0.61173 -0.481064 -0.670994 0.760226 -0.926929 0.760132 -0.0570741 -0.818801 -0.285833 0.487755 0.970914 -0.235299 -0.403553 -0.127848 -0.198962 0.555023 -0.510232 -0.0655589 0.615527 0.419999 0.224086 -0.784416 -0.232962 0.128235 0.961207 0.0191031 0.421409 0.240364 -0.0342359 -0.914106 -0.841942 0.482951 -0.259438 -0.133979 0.951006 -0.102374 0.0923719 0.685976 0.709085 0.809383 -0.109908 -0.965919 
-0.64144 -0.146353 0.427819 0.0734341 -0.494901 -0.987296 0.0208789 -0.93799 0.873628 -0.987954 -0.706295 -0.68968 0.139729 -0.741127 -0.901089 0.477425 0.827017 0.544516 0.67374 -0.359987 -0.74722 0.758589 0.362647 -0.201176 -0.636127 0.0608373 -0.0496883 -0.30903 0.635366 0.0202506 0.697924 -0.439385 -0.878476 -0.626705 0.554682 0.803693 -0.849771 0.936187 0.661073 0.517031 0.500244 -0.47701 -0.105164 -0.709999 -0.785637 0.817371 -0.692009 0.855287 0.429253 0.538163 0.107421 0.364533 0.413522 0.21884 0.489514 -0.402214 0.86721 -0.305281 -0.532619 0.0480782 -0.906442 0.285112 -0.33312 -0.751725 -0.522327 0.142622 0.470862 0.102319 0.360443 -0.630753 0.299252 -0.466314 -0.563831 -0.705477 -0.0581393 -0.150079 -0.459764 0.426448 -0.612064 -0.613683 -0.187054 -0.528856 0.097556 -0.186701 -0.713508 0.515178 -0.286871 -0.87967 0.52323 0.0571251 -0.389515 -0.259049 0.720332 0.788014 0.589007 -0.000597956 0.166033 0.789817 0.182896 0.944505 
0.532773 0.506573 0.859046 0.812209 0.070592 0.493257 -0.0637443 -0.0840068 0.222525 0.247058 -0.838501 -0.295415 0.240885 0.535067 -0.268822 0.578783 0.223725 0.94923 0.548366 -0.748485 -0.542154 -0.718671 0.486502 -0.993809 0.885258 -0.80866 -0.662245 0.935291 -0.131987 -0.623807 0.716771 -0.946644 -0.446755 -0.363295 -0.167527 -0.499232 -0.344651 -0.267894 -0.763123 0.0854466 0.434847 -0.694413 -0.12424 0.372006 0.878909 0.921813 -0.987195 0.80896 0.404207 -0.554157 -0.104823 -0.554465 0.268031 -0.804281 0.896334 -0.200412 0.502922 -0.904915 -0.163751 -0.99906 0.834649 -0.350731 0.029625 -0.115707 -0.0758347 0.832187 -0.273017 0.656399 -0.120135 0.450179 0.260722 0.492059 -0.852829 0.995344 0.414833 -0.411468 0.54014 -0.0215747 0.204978 -0.12683 -0.912185 0.328065 -0.850072 0.683768 0.884155 0.767543 -0.434954 -0.747527 -0.751403 -0.856227 -0.0454316 -0.130691 -0.311847 -0.604602 -0.22224 0.751425 0.313633 -0.971768 -0.420131 -0.596275 
0.216273 0.601497 0.340636 0.643862 -0.108218 -0.317019 0.252753 -0.232579 0.368365 -0.164421 0.897485 -0.137409 -0.44573 0.0401184 0.991522 0.703238 0.982361 -0.538873 -0.06266 -0.418332 -0.297601 -0.803564 -0.61946 -0.400189 -0.54766 0.633749 0.670742 -0.112515 0.56943 -0.888634 0.917186 -0.746347 -0.746529 -0.515621 0.233995 0.83476 0.576079 -0.519089 0.0870238 -0.599162 -0.742253 0.77721 -0.340953 -0.576713 -0.0954413 0.361476 -0.672468 0.683646 -0.380195 -0.283228 0.247484 0.214652 -0.936777 -0.458199 0.0691441 0.234147 0.326549 0.436258 0.0016815 -0.563027 0.986646 0.874271 0.329541 -0.0966958 -0.014106 -0.155814 0.990273 -0.602574 0.148158 0.229814 -0.565324 0.15937 -0.162567 0.724539 0.731958 -0.148917 0.368603 0.821058 0.555165 0.705485 -0.81566 -0.243937 -0.582835 0.510159 0.955828 -0.00217257 -0.582222 0.0865773 -0.793819 0.0259713 -0.224223 -0.711655 0.871984 -0.474196 0.802886 0.514715 -0.306496 -0.0106874 0.42603 -0.184257 
-0.492602 -0.33835 -0.47987 -0.488718 -0.943726 -0.329481 -0.0186231 0.702431 0.999627 0.914942 0.818383 -0.989375 -0.161893 -0.72009 0.533789 -0.309268 -0.371676 0.832807 0.277089 -0.827923 -0.54908 0.467934 -0.555239 0.415249 -0.860607 -0.0738862 0.732214 0.356404 -0.558595 0.475284 -0.417466 0.704374 -0.535808 -0.987731 -0.487068 -0.527137 0.169142 -0.811763 0.515906 0.328467 -0.975462 0.922477 0.291793 0.965853 0.408091 0.999665 0.249666 0.843555 0.705794 -0.0814895 -0.102556 0.0631198 0.161647 -0.984705 0.647959 -0.0996653 0.549944 -0.537058 -0.380877 0.0565786 0.636165 -0.566746 -0.779841 0.139272 0.596694 0.0181715 -0.396775 -0.103375 0.807513 0.692312 -0.168267 -0.155028 -0.844288 0.522531 0.473834 0.943961 0.949947 0.531119 0.392319 -0.0754525 0.681333 0.20572 0.177827 -0.156286 -0.137878 -0.177592 0.225108 -0.710452 0.75777 -0.18252 -0.682311 0.452031 -0.858868 -0.747288 -0.137343 -0.694107 -0.688534 -0.7733 -0.165306 0.983462 
-0.0478954 0.384694 0.824266 -0.463612 -0.1715 0.212465 0.162548 0.0182925 -0.652816 -0.954345 0.577778 0.638168 0.163859 -0.485976 0.60068 -0.212803 0.470724 -0.387036 0.709442 -0.773898 0.146959 -0.588064 0.344298 -0.514546 -0.169278 -0.823997 0.847068 0.187583 0.97756 0.303847 0.876463 0.0797853 0.916669 -0.891175 -0.897437 -0.962245 0.80233 0.898925 -0.0835058 -0.352082 -0.770324 0.156922 0.505198 0.0343939 0.933994 -0.54978 0.684127 0.604651 0.609689 0.719693 0.888866 0.206165 -0.831988 0.12825 -0.424478 0.59665 0.54837 0.46373 -0.220016 -0.919691 0.712427 0.343453 -0.55907 0.62002 -0.348892 -0.327792 0.916566 0.453017 0.866275 -0.130664 -0.722079 -0.538645 -0.207288 0.411965 -0.986452 0.195477 -0.355597 0.164088 -0.299727 -0.897393 -0.817772 -0.0509512 0.773567 -0.959821 -0.133836 0.84705 -0.158106 0.190783 0.72307 -0.521521 -0.53277 -0.750476 0.485657 -0.416912 0.487473 -0.150449 -0.544521 -0.728751 -0.450806 0.218993 
-0.253148 -0.628798 -0.807034 0.296527 -0.0782401 -0.821428 0.638852 0.897387 -0.174961 0.219085 0.370364 0.685532 -0.347802 -0.434949 -0.280172 0.145831 -0.733296 0.106351 -0.479355 -0.464553 0.161222 -0.0957708 -0.133434 0.934047 -0.577599 -0.231964 0.673666 0.957374 0.41122 -0.581782 -0.693856 0.602854 0.87543 -0.133043 -0.87919 -0.236286 0.417213 -0.0898699 -0.393105 0.679718 -0.790752 0.138117 0.522384 -0.592232 0.911677 0.79836 0.561979 0.296753 0.207296 0.733759 -0.456157 -0.00926747 -0.567901 0.822644 0.409008 -0.59171 0.311709 -0.814449 -0.71743 -0.658571 0.143095 -0.121483 -0.310247 -0.726342 0.805178 0.968788 -0.573731 -0.759387 0.977736 -0.0548047 -0.0601684 -0.970111 0.731572 -0.106975 -0.596905 -0.294013 -0.860405 -0.585767 0.955601 0.068547 0.337774 -0.0308542 0.366349 0.748222 -0.0633409 -0.869989 0.209797 0.0949474 -0.77423 -0.622075 0.363238 -0.619861 -0.0413132 -0.733164 -0.431545 0.28351 0.0285497 -0.903823 0.914308 -0.863257 
0.143094 -0.299468 -0.641959 -0.374123 -0.712984 0.674056 -0.963917 0.636034 -0.891017 0.653116 0.768732 -0.853429 -0.869006 -0.644659 0.010351 -0.809996 -0.321885 0.362503 -0.76688 0.676437 0.156472 0.979088 0.0265029 0.966482 0.588665 0.904949 -0.375771 0.718641 -0.241507 -0.475855 -0.936933 -0.402775 0.0615662 -0.0154288 -0.156724 -0.143008 -0.815067 -0.919324 0.65689 -0.680953 0.586625 -0.451456 0.948764 0.988995 -0.99913 0.632018 -0.682164 -0.575288 0.932396 -0.374337 -0.648319 0.997858 -0.440317 0.370226 0.511679 0.0940467 -0.997108 0.346612 -0.707074 -0.257562 -0.316227 -0.42868 0.0697641 -0.488722 -0.978218 -0.339886 -0.902198 0.617612 -0.866179 0.391543 -0.553241 -0.161124 0.840096 -0.0863664 -0.264899 -0.157258 -0.511118 0.832243 -0.6607 -0.641211 -0.608937 0.996964 -0.948938 0.568573 -0.059147 -0.0311107 -0.176595 0.807293 0.382844 -0.542545 0.382038 -0.837715 0.693627 -0.0247776 -0.0198235 -0.268938 -0.547927 -0.210586 0.360902 -0.739498 
0.0352095 -0.109054 0.502344 0.347375 0.937694 -0.761438 -0.103104 -0.986961 0.584865 0.568284 -0.0284384 -0.84565 0.916614 -0.863635 -0.0861907 -0.257537 -0.906244 0.0812757 -0.780992 -0.0813271 0.23424 -0.4534 -0.334995 0.691466 -0.43637 -0.711 0.403425 -0.134237 0.628171 -0.797367 0.376139 -0.83318 0.929504 -0.935696 -0.643523 0.913147 0.200627 0.198617 0.704466 -0.957171 0.173641 0.999103 -0.387432 -0.418923 0.155145 -0.24626 -0.473276 -0.411811 0.872116 0.691131 -0.396367 0.723421 0.239422 0.403906 0.0785732 -0.57491 -0.714774 -0.485582 -0.107562 0.358195 -0.563421 0.738876 0.969647 0.671713 0.122567 -0.623618 0.563613 0.263735 0.785979 -0.618401 -0.809914 -0.37906 0.372565 0.707365 0.521796 -0.680727 -0.458139 -0.411333 0.652331 -0.389978 0.151277 0.355385 -0.217448 -0.507337 -0.983002 -0.186739 -0.398032 -0.094466 0.673859 0.241678 0.349547 -0.338738 0.329969 0.728623 -0.7115 0.268215 0.915819 0.608165 -0.198449 0.960022 
-0.246348 0.578576 -0.526258 -0.088009 0.795492 0.0748081 0.389573 -0.705413 -0.199912 0.260569 -0.351477 0.361095 0.237284 0.889424 -0.675095 -0.386251 -0.11707 -0.724737 0.0351547 -0.402057 0.0857337 -0.104669 -0.75484 -0.0538827 -0.588892 -0.838943 -0.297881 0.463822 -0.574502 -0.590826 -0.166358 -0.518873 0.0802754 0.867102 -0.443596 0.299296 0.829398 -0.918506 0.211573 -0.12845 0.150885 0.682063 -0.237836 0.244914 -0.520353 -0.956057 -0.975983 0.238489 -0.926947 0.0630897 -0.584461 -0.531627 -0.801448 0.428109 0.69955 0.237138 -0.834673 -0.585779 -0.154217 -0.782694 0.164109 0.948843 0.177604 -0.119185 -0.98366 -0.18152 0.317541 -0.573515 0.0228856 0.751585 -0.912479 0.217926 -0.44197 0.289635 -0.217124 0.183225 -0.438794 -0.709355 0.841595 0.29674 -0.554919 -0.598668 -0.60834 -0.833821 0.742451 0.068075 0.0266299 0.189653 -0.679776 0.936718 0.537356 0.675022 -0.925775 0.985863 0.812963 -0.164735 0.0142353 0.745329 0.672026 0.578838 
0.76117 0.0107729 -0.285549 0.945153 -0.988214 -0.79988 -0.969798 -0.463084 -0.161902 0.378584 0.497192 -0.750708 0.593986 -0.920382 0.826677 -0.614521 -0.255805 0.382532 0.615891 -0.205299 -0.411791 0.0714884 -0.862404 -0.160291 -0.880267 -0.315412 0.0990245 0.262989 -0.41312 -0.394111 -0.651813 -0.117767 -0.795094 -0.782811 0.668951 -0.400292 0.416811 0.330629 -0.0670066 0.570478 0.587864 -0.869835 -0.553345 -0.675214 0.695242 0.677848 0.233002 -0.985091 -0.273716 -0.323549 -0.899608 0.0590688 0.105403 0.477325 0.322046 -0.446733 -0.659704 0.888059 0.626048 -0.855741 0.408379 -0.743261 0.529138 0.758323 -0.407653 0.823142 0.700768 0.590336 -0.972597 0.494299 0.74008 -0.276308 -0.725535 0.162654 -0.0122722 -0.65286 -0.695921 -0.673453 0.0142089 -0.15482 0.645907 -0.077596 0.791186 -0.334542 -0.333861 0.102936 0.580868 -0.537185 0.0042877 0.719564 0.42013 -0.376776 0.160592 -0.452976 -0.112726 0.65402 0.350589 -0.868583 0.404157 -0.185465 
-0.6375 0.00160473 0.898159 -0.923469 0.503007 -0.72475 -0.494344 -0.107911 -0.485809 0.728502 -0.664248 -0.618275 0.00449578 -0.372891 0.777076 0.424865 -0.921132 -0.95142 -0.633341 0.75475 0.325327 0.491347 0.367091 0.0382985 0.411733 0.6352 0.277007 -0.455906 -0.0262548 0.937369 0.470778 -0.611148 0.119036 -0.866462 -0.969067 -0.73892 -0.181381 0.104375 0.862572 -0.8273 -0.913605 0.464681 -0.489582 0.477349 0.41116 -0.66621 0.410241 -0.639618 -0.653094 0.44583 -0.338684 -0.888768 0.323216 -0.819565 0.0520964 -0.0215228 -0.858836 0.201082 -0.821988 -0.703637 -0.547753 -0.963857 -0.971288 -0.605771 0.683458 0.422196 0.755839 -0.364982 -0.44187 0.58351 -0.779598 0.696636 -0.3982 0.195824 -0.129706 0.355178 -0.423078 0.699443 -0.235286 0.979521 0.157835 0.831877 -0.528548 -0.252982 -0.133311 -0.746962 0.155714 0.320136 0.16643 0.261724 0.617077 -0.569184 -0.976115 -0.890811 0.144723 0.104929 0.489929 0.126042 -0.614259 0.856387 
-0.721013 -0.778841 -0.101941 0.0048826 0.910406 0.329496 -0.13838 0.43227 0.447964 -0.904063 -0.791354 0.316518 0.312042 0.270212 0.693818 0.372435 0.865874 -0.506752 -0.853014 -0.512918 -0.595762 0.00852404 0.999031 -0.867374 -0.191096 -0.288153 -0.919507 -0.926349 -0.919357 0.651853 -0.227606 0.0756138 -0.734904 -0.291399 0.194503 0.81149 -0.266291 -0.209243 0.785943 0.163525 0.496984 -0.739116 0.224058 0.171846 0.983123 -0.39733 0.762881 -0.945961 0.117932 -0.195762 0.971098 0.313879 0.620167 -0.506332 -0.711454 -0.379877 -0.262068 -0.589789 -0.599617 0.408996 0.63008 0.1448 0.543589 0.130813 0.449826 0.397766 -0.310914 -0.868476 -0.708369 -0.614668 -0.0211372 0.0521854 -0.69617 0.94508 -0.418659 -0.989675 -0.346566 0.977564 -0.205259 0.781176 -0.0187373 0.313706 -0.0283412 -0.831148 -0.23277 0.0906803 0.411427 -0.493226 -0.209852 0.670318 -0.320494 -0.418599 0.241217 0.80057 -0.311627 -0.177065 0.362987 0.0791259 0.512229 -0.24505 
0.577673 0.713857 0.123517 -0.752713 -0.565187 -0.220503 -0.396984 -0.359414 -0.492215 0.244755 0.551784 -0.285336 -0.954795 0.412011 0.780921 0.0165371 0.493349 -0.964824 0.0332103 0.6921 0.254235 -0.891659 -0.063905 0.222662 -0.610374 0.381896 0.00961188 -0.490887 -0.421749 0.0396849 -0.562412 0.510906 -0.191409 0.892649 0.757161 0.163069 0.269117 -0.791315 0.472051 -0.625811 0.156748 -0.423755 0.482221 0.192037 0.120811 0.612522 -0.491816 -0.306208 0.958708 -0.0894846 0.18688 -0.515799 0.350105 -0.834444 -0.419102 0.106697 -0.910268 -0.0898359 -0.809561 0.968656 0.187213 -0.0438185 -0.0620118 -0.629672 -0.668329 -0.613241 -0.48532 -0.185079 0.491867 -0.721266 -0.146438 0.36938 0.779326 0.575681 -0.60928 -0.105893 -0.314599 0.722326 -0.735223 -0.350137 -0.994978 -0.184292 0.231186 -0.497496 0.0175795 -0.890036 0.0698282 0.427434 -0.666191 -0.74583 0.433268 0.105562 -0.904979 -0.685717 -0.644332 -0.59824 -0.594018 0.569083 0.488894 -0.984208 
0.661719 0.205802 0.444649 0.23081 -0.6302 -0.981234 0.810318 0.76378 0.663934 0.699446 0.000793422 -0.0688511 0.352687 0.487343 -0.760006 0.55204 -0.279241 -0.410865 0.15259 0.777059 0.360358 0.136539 0.106072 0.0188991 -0.547365 0.207425 0.135467 -0.418045 0.684398 0.842527 0.789061 -0.554695 0.00753317 0.716445 0.654234 -0.407122 0.472726 0.442648 0.906219 0.235545 -0.206325 0.271355 -0.969572 0.574212 -0.940613 0.461394 0.360127 0.244237 -0.461783 -0.877401 0.0061597 0.586553 0.0302768 -0.363012 -0.462297 0.241424 -0.676053 -0.801137 -0.70761 -0.113184 0.827027 -0.633418 0.803464 -0.895489 0.157426 -0.106496 0.769557 0.577829 0.305404 -0.125963 0.828262 0.862344 -0.0214019 -0.851363 0.763958 -0.929845 -0.742713 -0.0131863 0.218396 0.749754 0.0519327 0.661994 0.689289 0.803415 0.471633 0.607998 0.0464735 0.924955 0.90999 -0.87305 -0.773672 0.848825 0.724783 -0.458648 0.235383 0.107279 -0.371577 0.176431 0.790983 0.654592 
-0.769599 0.545741 -0.678389 -0.976197 0.816301 -0.29599 -0.674107 -0.126306 -0.70278 0.531303 -0.732054 0.0657848 0.284515 -0.527163 -0.0446029 0.119375 0.856028 0.161501 -0.32206 -0.760073 0.26536 0.259564 -0.0291118 0.337943 0.0444927 -0.721444 0.841967 -0.311104 -0.609289 0.833764 0.918416 0.596696 0.834983 -0.858717 0.826029 0.827498 -0.953311 -0.239312 0.471296 0.199686 0.36196 0.199664 0.883422 -0.659784 -0.776973 -0.76376 -0.877661 -0.273156 -0.99021 -0.944558 0.436939 -0.797914 -0.23568 -0.198052 -0.43346 0.470041 0.609213 -0.452264 -0.80932 -0.028691 -0.717499 -0.0119332 0.221649 0.0115965 -0.588744 0.51687 0.00348069 0.176928 -0.406844 -0.395609 0.974313 -0.547212 0.487766 0.415896 0.118713 -0.275724 0.947303 -0.196145 -0.140071 -0.997024 -0.300913 -0.754573 0.768455 0.111864 -0.185199 -0.748255 -0.37413 -0.458164 0.943257 -0.112933 -0.383266 -0.162115 -0.253899 0.00901045 0.151969 -0.0606079 -0.557428 0.630331 -0.22309 0.110057 
-0.777756 0.653289 -0.63409 -0.841541 0.616661 -0.908155 -0.907595 0.429971 0.436115 -0.378965 0.221818 -0.107615 -0.779118 -0.523864 -0.631468 0.149759 -0.112494 0.981128 -0.620893 0.927493 -0.469298 0.236536 -0.128103 -0.186563 0.888832 -0.82088 -0.401077 -0.611701 -0.566292 0.903823 -0.725 -0.491281 0.906137 0.952739 0.049087 -0.436194 -0.231561 -0.356158 0.372155 0.444592 -0.817337 -0.958645 0.389476 -0.831412 0.555489 0.470335 -0.639985 0.8046 -0.59896 -0.414175 -0.470039 -0.37592 0.817843 -0.255871 0.634459 0.811305 -0.865762 0.850042 -0.519852 -0.990777 0.911129 -0.771621 -0.196765 0.554621 0.774021 -0.529489 -0.385047 0.205123 0.633619 -0.663381 0.961677 -0.339263 -0.535027 -0.784189 0.103671 0.943268 -0.547366 0.758695 -0.00684224 -0.825673 0.983606 -0.46605 -0.765325 0.687096 -0.518326 -0.886902 0.215994 0.759194 -0.0452487 -0.156114 0.281981 0.570874 0.424902 -0.13581 0.475433 -0.853054 -0.694578 0.599587 0.560693 0.17601 
-0.417515 0.229164 -0.211197 0.0394652 0.994127 -0.211174 0.494938 0.256118 -0.646397 -0.240799 -0.752371 0.330029 -0.268632 -0.566029 -0.434717 -0.648036 -0.946293 0.708236 -0.356504 0.864783 0.675809 0.908395 0.901173 -0.679787 0.166747 0.737101 0.93838 -0.380182 0.634197 -0.398305 -0.439649 -0.249874 0.607045 -0.210962 -0.667535 -0.511802 0.923886 0.967177 -0.83787 -0.214599 -0.832068 -0.296348 0.294971 -0.795449 0.831139 0.585235 -0.0975104 0.647496 -0.604543 -0.482302 -0.584406 -0.303887 0.511383 0.636973 -0.726331 -0.533585 0.0588377 -0.471392 0.475404 0.153742 -0.76418 -0.0581405 0.700514 0.211362 0.0195529 -0.298065 -0.374577 -0.830292 -0.634823 0.659547 -0.0607187 -0.25207 -0.609628 0.909053 0.486638 0.730827 0.362429 -0.680744 -0.554631 -0.16503 -0.815105 -0.459399 -0.9891 0.55917 0.450243 -0.862792 -0.749363 0.918456 -0.822469 -0.572482 0.666974 0.395564 0.440241 0.347865 0.330575 0.406916 0.819928 0.231635 -0.349039 0.66364 
0.743609 0.762234 -0.567745 0.633638 0.305455 -0.211326 0.267608 -0.126814 0.392049 -0.197705 -0.148224 0.534874 -0.351395 -0.107455 -0.276616 -0.0750054 -0.441908 0.628947 -0.83084 0.903633 0.11883 0.195948 0.427434 -0.547255 -0.973191 0.696938 0.858092 0.406235 -0.820156 0.948682 -0.316571 0.41059 0.988581 0.677945 -0.589049 0.454814 0.930617 -0.177575 -0.908307 -0.359927 0.53103 -0.0869255 -0.473647 -0.0796427 -0.574899 -0.654286 0.465964 0.00487399 0.564717 -0.678063 0.37797 0.281461 0.723286 0.893711 -0.104548 -0.655888 -0.779821 -0.907825 0.408552 0.422443 0.869345 0.599832 0.871349 -0.912409 -0.637577 -0.97894 0.116665 0.134716 0.0935335 0.89471 -0.422404 0.110705 -0.465285 -0.279943 0.0225194 0.543674 -0.127923 -0.711606 0.330159 -0.562156 -0.543543 0.519562 0.923215 0.93828 0.431253 -0.887918 0.34469 0.387085 -0.692667 0.975614 0.531753 -0.731337 0.961316 0.714903 0.789595 0.266778 0.452521 -0.660207 -0.0997678 -0.288671 
0.699386 0.0353852 0.485432 0.2389 0.0335257 0.467054 0.031861 0.122991 -0.0686344 0.287218 0.531073 -0.194121 0.386793 -0.823697 0.620072 0.970464 -0.388101 0.878449 0.364693 -0.499412 -0.615039 -0.188136 -0.97571 -0.791725 0.487302 -0.803904 0.541132 -0.335787 0.157898 -0.288787 0.435678 0.694218 0.397095 -0.779721 0.111328 0.725629 -0.855915 -0.363735 0.204729 0.991249 -0.85418 -0.561686 -0.612546 -0.555161 -0.420601 0.942303 0.309743 0.594032 0.357497 -0.008759 0.299895 0.410787 0.00492318 -0.420414 -0.780367 -0.647215 -0.0179105 0.211693 -0.742067 -0.281117 0.517246 -0.495846 0.726842 0.169082 0.706517 0.984682 0.619938 -0.780099 0.627164 -0.157267 -0.0601768 -0.753172 0.142777 -0.929864 -0.695324 -0.231147 -0.956951 0.788687 -0.76111 0.496467 0.125612 -0.926054 0.964065 0.244823 -0.735696 -0.414937 0.613706 -0.600462 0.113853 -0.306418 0.680922 0.651255 0.155193 0.782001 0.991729 -0.909951 0.505957 0.584294 -0.241654 0.514207 
0.37961 0.747839 0.630647 -0.327368 0.48166 -0.383631 0.648374 0.199711 -0.616319 0.344417 -0.595595 0.667267 0.279329 0.608168 -0.19521 0.568476 0.417049 0.31734 0.0464228 0.609665 0.238593 0.80069 0.123277 0.275586 0.357746 0.0130006 0.13648 -0.265957 -0.787645 0.722643 -0.416075 -0.902277 -0.757438 0.601396 -0.570817 0.00580205 -0.541219 -0.0221646 -0.718955 -0.0480084 -0.144284 -0.0757656 0.316503 0.77004 -0.828774 0.850557 -0.382283 0.614438 0.946853 -0.827538 0.991975 0.547237 0.0872551 -0.885269 -0.780706 -0.0819057 0.947593 0.619342 0.817204 -0.131343 0.947589 -0.413338 -0.0146521 -0.688125 0.732932 0.544935 -0.508947 -0.197622 -0.502419 -0.195176 -0.0607975 0.416299 0.920799 0.0475312 -0.992407 0.278973 -0.134947 0.736009 0.181674 0.110593 -0.397807 0.691248 0.283469 -0.49465 -0.202805 0.713875 -0.84684 -0.794869 -0.971468 0.741725 -0.66742 0.118934 -0.769614 -0.172277 -0.536256 -0.733757 0.791357 0.876995 0.338261 0.645922 
0.815386 -0.742748 0.661765 -0.982788 0.612104 -0.240664 -0.116734 0.544168 -0.579968 -0.177157 -0.550336 0.260986 -0.385908 -0.822212 -0.0666832 -0.36556 -0.132416 -0.18521 -0.300046 0.784055 -0.358601 -0.310779 0.119802 0.696536 0.452746 0.222612 0.667545 -0.884119 0.994933 0.417153 -0.882364 0.312655 0.979884 0.217348 0.958702 0.0531442 -0.525146 -0.597648 0.20669 0.922743 0.528022 -0.0974698 0.222223 -0.0379194 -0.695183 0.358974 0.592377 -0.23216 0.348808 0.734886 -0.549774 0.41485 -0.379584 0.778204 0.97943 0.55712 -0.982514 -0.451587 0.88473 -0.940834 -0.32939 -0.991661 0.445485 -0.439055 0.172669 0.0134651 -0.091402 -0.285449 0.0770347 0.708086 0.922123 -0.557445 0.121969 -0.722062 -0.847756 -0.924992 0.594568 -0.201139 0.324218 0.0521998 -0.624403 -0.743114 -0.628961 0.212954 -0.414908 -0.232025 0.218791 0.881321 -0.796276 -0.82241 -0.518604 0.88038 0.274289 -0.635651 0.974553 -0.812424 0.591187 0.13146 0.907307 -0.0340751 
0.935317 0.0148751 -0.712726 -0.822067 0.988548 0.678586 0.702282 0.377055 0.255803 -0.226637 -0.707739 0.581037 -0.718543 0.653836 -0.413761 -0.912541 0.8982 0.365746 -0.119898 0.243714 -0.962933 0.636294 0.286042 -0.810562 -0.873317 -0.102318 -0.6421 0.127883 0.338855 -0.365583 -0.944061 0.269981 0.680636 -0.364566 0.794738 -0.959334 0.0210348 -0.444488 -0.681751 -0.171848 0.0378892 -0.592102 0.78152 0.404681 -0.596319 -0.90575 0.851523 0.0808764 -0.935518 -0.261548 -0.922641 -0.412159 0.698388 -0.370002 0.006228 -0.488231 0.479624 -0.27841 0.0106953 -0.517003 -0.782527 0.694569 0.616932 -0.745957 0.322345 0.495094 0.259131 0.967076 0.511559 0.783352 -0.00401245 -0.512619 0.513087 0.293971 0.508487 -0.725027 0.277295 0.81696 -0.516515 0.0358295 0.440088 -0.147093 -0.744727 0.452921 -0.433492 0.125913 0.310058 -0.450188 0.550489 -0.859015 0.939427 0.146588 -0.936216 -0.991507 -0.171615 -0.0271456 0.0767712 -0.215384 -0.0734104 -0.800226 
